[-0.49033166887192914, -0.06259823591927692, -0.45269719115085943, 0.1885906529565213, 0.04361594004398893, 0.4285431877954684, 0.3584897593922788, -0.35128204213167225, 0.3245579480958271, 0.029724325652068787, 0.2969273458379893, -0.02579220164655826, 0.4006463206119699, 0.1316314033343008, 0.11392028570424181, -0.4816273828258068, 0.10629572811864493, 0.3329519204513101, -0.4052353019764111, -0.4140740769407752, -0.33270884714090854, -0.15355182601505135, 0.4040456179232674, -0.1433261862546017, -0.15935436735077627, 0.20841883485321994, -0.4784851385916942, -0.08176422996138595, -0.2263696508502595, -0.032992675860774416, 0.35715466874795615, -0.47657532195303715, 0.2642531348207205, 0.4018530680443468, -0.37139191055723125, 0.23493953585534774, 0.44017361432651136, 0.11832560056929765, 0.10523357680010527, 0.39272503442467205, -0.06071682066773075, 0.31885904204492443, 0.4244156232508932, 0.16474480568355107, 0.10334151779505658, -0.18596251267275185, -0.41817621369901026, 0.050839127841010044, 0.1812425447590161, -0.12354949082020258, -0.25813059011455797, 0.3834900808148034, 0.07708928871445746, 0.2430023068777756, -0.28603135104444855, -0.2813350987597951, 0.3371026482097203, 0.08806748748012441, 0.3577251831163091, -0.2719136115449016, -0.4020504701028394, -0.10650744712283462, -0.3565178315896382, 0.0850537669918333, 0.25788146822763003, -0.17832534739064415, 0.2537219570087945, -0.17583567752018164, 0.28415046036225505, -0.45305049497529293, -0.010527353645552014, 0.4013718103962936, 0.3505302826320231, -0.3971062529602647, 0.28627220473021064, 0.33660914497859606]
[0.2945538142443557, -0.2349124787272495, -0.46097184861914187, -0.010678586204186762, -0.09403816127785797, -0.2418555434037573, 0.168385912129062, 0.2357190533663605, 0.05081777962459732, -0.4005762015515869, 0.11747653261301795, -0.010774553565557711, -0.3351827201204465, 0.3036736505220042, -0.17562025111681892, 0.3075616632213188, -0.38114780066474696, -0.029820016336084318, 0.08506423941055324, -0.03762156948722326, -0.2677180720817175, 0.2485065742783395, 0.20425156581717752, 0.06977517354439107, -0.05314754790455521, 0.24229930743004194, -0.07841874349448291, -0.34611040532924925, 0.005209762331769904, 0.038477393040781696, 0.057041916035987184, 0.33026373435310585, 0.32231385365462867, 0.045537758900753116, 0.029657235307991192, 0.19149608310043087, 0.24245737990327718, -0.2685338616573877, 0.08397663677956912, -0.12219385134480591, 0.40973031788834563, 0.3818525189681858, 0.4247539715945986, 0.4603077107739536, 0.21894290469090555, -0.013500740114960625, -0.501927439762774, -0.0918427912232901, -0.2066011003746414, -0.4994765539977101, 0.07514121115604062, 0.1945459238909242, 0.22269479138459014, -0.4463310341438773, 0.04632784972142361, -0.5072530402402172, -0.44031550194655605, -0.3099213706435769, 0.014645972776459494, 0.3609661571315829, -0.4853671881374504, -0.4281856711764185, 0.08700613451882291, -0.09485436544349292, -0.43620270212873646, 0.21771921281364, 0.48462289032452244, -0.2522353329156639, 0.1028552733888772, 0.23520385985534656, -0.4004520312004522, -0.37359782895703547, -0.46860542336228134, 0.210877699179003, -0.08517614797675412, -0.09624463693192248]
[0.008555165743455708, -0.1984420144307222, 0.36660358026232853, -0.40761932828522257, -0.35639030230921714, -0.313232981098585, 0.30760674593645054, 0.38840664190095575, -0.36866470946954577, 0.33378190763731413, -0.14114907162174903, -0.11132061404141436, -0.44913346614288535, -0.09712463837690688, 0.09595504760149544, -0.2743685264834831, -0.5125604060767361, 0.05170176379078471, 0.41727248909242215, -0.22970546398070102, -0.37112154978302725, -0.38351108378936166, 0.3287194313931263, 0.09673522412409052, 0.09029060747047106, -0.04132784692178125, -0.17683805585435688, -0.18373785686085417, -0.3976014613958173, 0.02304174657214212, -0.25496457685282575, -0.4111251253039597, 0.3827052118302684, 0.28520580050579186, 0.21768513922446273, -0.2852669415681574, -0.4321770416916016, -0.4829606671782598, -0.1815879158117832, -0.33174297514615164, -0.21756731636310178, 0.305093299854608, 0.24991416120401833, 0.08551341647221068, -0.4366058724461013, 0.47153149943539746, -0.19768614123411113, 0.2465814276214387, -0.0037428121607493486, 0.04351521879771109, -0.3440978364770752, -0.14013689632930787, 0.17507664007652685, -0.4160619027480591, -0.3234174110004286, -0.5028337306931844, -0.4418840853250071, -0.20056720930109026, -0.36716354411991997, -0.4892049567185982, 0.19630747844598792, -0.18413851266059844, 0.4380132605762745, 0.08644522366772385, -0.09716612025498766, -0.2862720826695676, -0.014487832105517446, 0.19900523698551792, 0.021703093573301097, -0.46060811973929994, -0.4705210698952391, -0.2696451720140417, -0.0188831002370155, -0.06005642444269063, -0.4008319222192704, -0.48786959580614764]
[0.44722986446304447, -0.3314554933967664, -0.5051753514572247, 0.16327860777967823, -0.1789101485002563, -0.45886294678968664, -0.017516762415315957, -0.04131389679016216, -0.24388027460846073, -0.050794854687165256, 0.2877018600227269, -0.0962087336839203, -0.04442395673394528, 0.11803606028709546, -0.4749331717712854, 0.27906966257060845, -0.22632795938541742, 0.3862100933639579, -0.3234989740854715, 0.3572250779724829, 0.3710066905707843, -0.15977820098942047, 0.4250332407170006, -0.5059601026225528, -0.016784539696219077, 0.10053798172151596, -0.3509561323079063, 0.1584613207409851, -0.05244058085167562, 0.07999236274521689, -0.4061737927779885, 0.4700985555822504, -0.37745262574397254, 0.15677917783043765, -0.09122462430413754, -0.07272952051512163, 0.36261665874935245, 0.18562016696596847, 0.46847469594774493, -0.43508839094085117, 0.02106721849599638, -0.17791970192460613, -0.1600899896922409, -0.23243016430758492, 0.4339373611212287, 0.1494711874691551, -0.16238017835620486, 0.40105541165543446, -0.08135350026851394, -0.43963440535230663, 0.3409620001404211, -0.011292344653447972, 0.2667644225462253, -0.4023024938620474, 0.15346618690552205, 0.06776034279115209, -0.22344780677404816, -0.3536504795297038, -0.39400256814480833, 0.1563113379334016, 0.14048607160921184, 0.17220976050549835, -0.05371846685029616, 0.05899786370566386, -0.2730514566030104, 0.426890740297395, -0.34764366472749597, 0.3625231539312966, -0.3876388343031499, -0.33174910935820745, -0.19962927084472526, -0.09955721083503681, 0.01496108518578195, -0.2713746489863299, 0.2931125699081257, 0.39593801635619924]
[-0.49994034001724763, -0.45035933437617415, -0.053133787031333, 0.3052127160649851, 0.21102929522496222, 0.30167094193103033, -0.1929998116473364, -0.28132103436370476, 0.30108884931094426, 0.035609715767671364, -0.24429881793362887, 0.24035559736428425, 0.05546368072144442, 0.45245678956200547, 0.11661227014180445, 0.22178548032089568, -0.07269103677737397, -0.49581952983144467, 0.450682137554948, 0.11956542171495847, 0.33378025102220493, -0.08271416725939873, 0.17228329703234505, -0.31475130663604, 0.32085647356498487, 0.28483524632682045, -0.13242451013024079, 0.2292878176041213, -0.1683875153971923, -0.3270401638626081, -0.27513540923158375, 0.3659781263912979, 0.1599120894674189, -0.38144605379140956, 0.06333289141755802, 0.032982377269964405, -0.04018894514067645, -0.47543659935432586, 0.3468842705922524, 0.3338141308269801, 0.3952829656624412, -0.39217389019010274, 0.2524179769032492, -0.08296655348666264, 0.15632473144713088, -0.48100481698936515, -0.36965575084692276, 0.4204493562922514, -0.4532554598651596, -0.2219007597503253, 0.17783041741672936, 0.4746107775497867, 0.09173554168265363, 0.1978051106819909, -0.055666421754744955, -0.0911274774061498, -0.5075469019259352, -0.2071545145530157, -0.042664901255640514, -0.4877375811046792, -0.3758275878588729, -0.1472439533542435, 0.2521365544832293, 0.2800976130603569, 0.26882064475960854, 0.18955661575073296, 0.023340846155669743, 0.313839070473013, -0.18103936088027767, -0.1588558376904414, 0.21926953811491834, -0.3788365131397996, -0.32660831323336514, -0.2727489532621052, -0.22628620102145522, -0.005148602199152666]
[-0.46790215019832626, -0.3888561011565146, -0.24704199522738005, -0.2969972273352094, -0.2132825127842274, -0.11698227195173051, 0.03277530723615029, -0.5134085443376145, 0.06603908042283219, 0.434598169780594, -0.14463762989648937, -0.31221035472274705, 0.17329204825832684, -0.4169221601313714, 0.029987586902583123, 0.12048726739832687, -0.42545747087916674, 0.3695243412124963, 0.2788442738330718, -0.2263645925205752, -0.04514651423970776, 0.22106346621977346, 0.4309846060198332, -0.3858205789109354, -0.2974807210130737, -0.33300578712686324, 0.4031016799547073, -0.3293199394724644, -0.1680988050700366, 0.3726666817523762, -0.4496074318437128, -0.3308705704347618, -0.4916867314263059, -0.06573064127062266, 0.25885162178759735, 0.40989647201516943, 0.3266866809488782, 0.0029317114017372464, 0.3968315568964833, -0.20911263973290437, 0.3592543153430539, 0.08516719593514518, -0.1362974382055594, -0.02913762474635034, 0.4678368280847776, 0.08057062235378294, 0.3895832935338579, 0.013054839709626568, -0.49252712179061864, 0.2881515457775192, -0.03870626442577188, -0.30512970752292257, -0.4872105522088452, 0.4736530720633185, 0.08192943323875497, -0.5195049436530065, 0.022774396129256056, -0.46668442042775865, 0.02826745915014766, 0.46861039784906117, -0.12411288614614162, 0.21405258351795756, 0.05247816730074563, 0.1965558421718665, 0.45959896292660957, 0.4654798247075324, 0.12137508531838341, 0.257394976082722, 0.12687923889499875, -0.06903748766824039, 0.3563378832050312, 0.35191747267374857, -0.13524799722213326, -0.05386944149678926, -0.11055482844702028, 0.42735201642040954]
[-0.3239412382542205, 0.18142647632546655, 0.3065489746821044, 0.03741704208737054, 0.2863145222313597, -0.18614306569537767, -0.09835478555738343, -0.40213299404012254, 0.39701269344699286, 0.40137670519003343, -0.45777695272023267, 0.3190054061629704, 0.1415987186344503, -0.2941292054012627, -0.1578176960400098, -0.37507651381131907, -0.2018720998614613, -0.20849941903355923, 0.4589967825807239, -0.13174911362410313, -0.14721521083098105, 0.04756527782733448, -0.18191916430096133, 0.3725984323999997, 0.04880890581299131, -0.3959424055580269, -0.26323596649036596, -0.3445983696856135, 0.34432828493175005, 0.22745194146049091, 0.017043383040802704, -0.3342593676086341, -0.1590828741943042, -0.49636891907048347, 0.29234445066786807, 0.4207194540996761, -0.10030937496280495, -0.07492447401676766, 0.12173316723026208, -0.47023716560887824, -0.34223467364622623, 0.32410794773633333, 0.07687723215646866, 0.12865214726646185, 0.15171871940221088, 0.06851667590976314, 0.14863291670009904, 0.46067047539098305, -0.055002435881888495, 0.10065133646470939, 0.3841941534651211, 0.1704194710763234, -0.05425982963962164, -0.46422810397440256, 0.02545561073836367, -0.3534030391387313, -0.1776779697817561, -0.1027548680662593, -0.289443523277532, 0.29546156883033414, -0.10225846599283, 0.16904370999843468, -0.10571285409087304, 0.0492446949731532, -0.438337747553302, 0.04900398089242555, 0.2645741532904185, -0.25780223801963864, -0.4087690588252718, 0.15858876349433335, 0.39443846938114413, -0.04975296587959558, 0.30820534058747207, -0.0143509167946968, -0.31095208147469644, -0.24717300314581217]
[-0.28224538531624027, 0.03206898896639046, -0.39269699153682075, 0.3624809276012694, 0.05371869550723889, 0.1571252375938179, -0.2384810336611286, 0.18544152320380708, 0.44330983344636143, 0.10782586234125979, 0.4009561943855916, 0.42830090020951234, 0.19882602184220263, -0.28752866032937807, -0.5023563186462907, -0.3409668146037066, 0.3195523939813248, -0.3710336766604904, 0.3772706330622489, -0.45526971287822615, -0.20205992234238299, -0.11886181508506967, 0.16156589220996934, -0.12024367488087556, 0.12741718019664844, -0.41359846036983144, -0.41380978870924356, -0.05014661557369075, 0.18394116619740103, 0.03758004102872985, -0.38911426504671276, 0.17242219007201656, 0.33104993582501735, 0.20835873866875865, -0.2593605081309773, 0.15092895438562964, 0.16068281788443767, 0.1593690590991769, -0.06807447333925641, 0.4212932618818112, -0.3358576833423628, -0.015582751475510232, -0.25683030304472027, 0.23059408004101548, -0.5200405453774006, 0.3108541355382771, -0.5015378857643938, 0.00832291245424096, 0.21860725107828038, 0.1708725652076135, 0.47577526547921917, -0.12656663939689608, 0.293958670485882, -0.30938442520392906, -0.1940556608662723, 0.3590366922491823, -0.45502303807911426, 0.07327323092842594, 0.4170353069086894, -0.17797404415583132, 0.14031516093135096, 0.13641929948541717, -0.12524550816840982, 0.2161346819193635, -0.15798217090076877, -0.3589396963281067, 0.3059846389625118, 0.059204266595598756, 0.3357074404498945, -0.27564036423474225, 0.45102807749576496, -0.3250869257959441, -0.35849510684727187, 0.39551277065887236, 0.18405572209083682, -0.011540969963829242]
[0.016006684037025622, -0.26983560857178224, 0.34723178080263983, -0.2652215805269406, -0.20953174093533325, 0.1284804863347378, 0.4918192393289977, -0.029340613309829053, -0.07118330435456675, -0.4043053861751007, -0.08343447334335904, 0.052065993670287275, 0.01501930276160932, -0.12713470296890927, 0.4266153101932736, -0.33342622964167096, 0.08382773632800777, 0.0686636445004289, 0.19537876415242716, 0.4460289476266963, 0.027570541661898727, -0.14448263733165623, 0.18202444522216552, -0.3354346355913198, -0.20066902507334503, 0.30306638070037306, 0.3634698779025733, 0.1971192660004635, -0.3005341731104924, -0.4485354432433624, 0.01153707194327156, 0.2819975700857729, 0.2885154637641983, -0.14239237543333325, -0.37364726295874096, -0.15842340978427588, 0.3839761568329712, 0.21781436480941857, 0.2801969806440785, -0.35515442384556856, -0.39950114724857566, 0.29160407102791674, 0.476209213478016, -0.2205839214886385, 0.049962541117261956, 0.3928098041846049, 0.3186105711587499, -0.51729768812542, -0.14882279462042117, 0.23631656258643288, 0.11745688729231, 0.2624534648601702, -0.3357512437673675, -0.06934476083233021, 0.3793117290583216, 0.20956422306379655, 0.2691936252475515, -0.006977781197404383, 0.3877612443981631, 0.27424849381832933, 0.33450478889060736, 0.21680022976678784, 0.35639746160940006, 0.05295231464255646, 0.03461040104990927, 0.2343684120549078, 0.4317579354563834, -0.30918513631155625, 0.0268122230293292, 0.199532035464782, 0.3258243932377646, -0.4876444889968218, 0.09589337396087191, -0.45235920940494123, 0.2056338779941577, -0.3917263466669585]
[-0.19620567595770882, 0.08599825171073801, 0.20190816201027917, 0.39709432092771363, -0.3377508327563207, 0.18616978649022856, 0.4062178146783411, 0.2535880187567257, -0.3556060885082561, -0.23115975710554154, 0.3192767531453601, 0.22396056532463696, -0.3787866676411527, -0.502014537572339, -0.005107000606415921, -0.24603822472785908, 0.025577875453912675, 0.3039820113444929, 0.3518970480573339, 0.43215072116123465, -0.35779220599860734, -0.5085841864151113, -0.4896678496595249, 0.08381440038098277, 0.19896111098020156, -0.2011058914305286, 0.19859769937006014, 0.10216111606429565, 0.31460143818322217, -0.4253069936011713, -0.5161143969126387, 0.006578146905262281, -0.2763558507512103, 0.03879335959234885, -0.4372586756444482, 0.02413699564383287, 0.42817635881563043, -0.2836386077006602, -0.48040073138586137, -0.04743065166678978, -0.4212172516227902, -0.27125776687953584, 0.37159943341433943, 0.1309892740642445, -0.23393080291783228, 0.40027560217870084, -0.003288631442430262, 0.14102629830592533, -0.2376022730912638, -0.22715092341397414, -0.5049095191630937, -0.21693278137434208, -0.1638924191299564, -0.11036345734988633, 0.46570147207259505, 0.4320603640486647, -0.07042106314955288, -0.017191810490445894, -0.03435008479801077, 0.36842709483884434, -0.08706106037780932, 0.14026761964357654, 0.36411406688478687, -0.477179426127749, -0.39770643450487647, 0.15366287772786566, 0.016706593979176534, 0.3258792559208199, 0.011052830067665661, 0.009835342880451702, -0.16911362092273646, -0.37819731220069075, 0.3404077765510349, -0.4670072472996004, -0.3860854382665381, -0.4813995865926389]
[-0.3114510641360037, -0.43796834054179967, 0.025537925180090033, -0.2397020724317155, 0.2877309280815185, -0.25181717306230594, 0.17752875851726987, 0.11423743337318822, -0.38232744940141944, 0.1098276183931155, 0.2796549295083566, 0.40084188529352177, 0.16510139251066086, 0.4200117039616007, -0.5127312587554804, 0.2573232063383228, -0.186028008227646, -0.4281055476903136, -0.09596928143672938, -0.40230622506439545, -0.5195650289430453, 0.11487813818171379, -0.3047216046294015, -0.44020222587330604, -0.3298531855312704, 0.05400473085277455, 0.43268499011997363, 0.412266961032774, 0.07498377430977876, 0.19075664339379353, -0.075244250323639, 0.2382766978310086, -0.1318792473693739, 0.1525481393024763, -0.3149608133219296, 0.16662695319013, 0.07898270099478466, -0.04014232847089866, -0.45837575510143486, -0.2849525004348819, -0.47888845502260496, 0.31931185472462775, 0.0742252248332374, -0.48901113300081045, 0.4051364415968507, 0.17746220181201933, 0.22864382693697316, -0.2847537734953351, -0.5104550635013642, 0.16364605174656777, -0.25623102254456825, -0.399882476392347, 0.2258600886988138, 0.4257009257829718, -0.3408506765437465, 0.43693356406684986, -0.05638564909405505, 0.32182691268418656, -0.35022967064574867, -0.19104817980329478, -0.4757884710075408, -0.47044285198373825, 0.23954504473915567, 0.09108105978817943, -0.08372089124543851, 0.2655338278354983, -0.4004735715736083, -0.13262372250541438, 0.32359062010849116, 0.4529007153384362, -0.24207190363066017, -0.057327032265929126, -0.09420438253330175, -0.4268942659157411, 0.02930843238057613, 0.2951858483268449]
[0.39050769839508537, -0.4008128242046647, -0.01477049368491088, -0.13978409265989725, -0.12993612765721613, -0.26328664975450766, -0.09483653302698924, 0.14640653143868518, 0.07974187770808816, -0.3940768311329065, -0.38788285869479927, -0.23351421225340518, -0.33622855612374614, -0.30604506951040833, -0.38237032704312307, 0.1432963515989398, 0.23698689346185067, -0.369728719642617, 0.06846999145216702, -0.44364084375307444, 0.3604940669819364, 0.415981113950641, -0.0957002063087255, 0.2909271592838342, 0.126441200579226, 0.4238988773128719, 0.12494461629728759, 0.3507488048711936, -0.35105321049079474, 0.16081476843870937, -0.2319450325549671, 0.4535717170019905, 0.28956291856283795, -0.21027813652159164, 0.19317786730595513, 0.24603803497097126, 0.06725192837409003, -0.40552821808233225, -0.23374882349310602, -0.2450794688473101, -0.34523583431822474, -0.26410198883308034, -0.09709255983181744, -0.02936412750031306, 0.3499366833168335, -0.27584945167565306, 0.32044394748832705, -0.37313564011975336, -0.38841608223795654, -0.19504199483408718, 0.3301270456709772, -0.16802154795628083, -0.17402834548276463, -0.009738397015092352, -0.02942710018448104, -0.08158078167583817, 0.043855833630457614, 0.3303485541011538, -0.21276346398632248, 0.1043655048120108, 0.22305811028091008, -0.37268786772305873, -0.22147359178123366, 0.4298491615833087, 0.04669639987043552, -0.24696372186573964, 0.22458476238298394, -0.22025838267256953, 0.10373254040158392, -0.38800640996962826, -0.34229348700018225, -0.40155417368221613, -0.016805131970005844, 0.35438838985250426, -0.30031337899038146, 0.27183672105561696]
[-0.386353728376314, -0.12086859745204513, 0.459178674218951, 0.4104551419943863, -0.5135448580472238, -0.46645981743789516, 0.3515063101344852, 0.11334620918621355, 0.33199205066024257, -0.056501398464432, 0.2993193940358877, -0.10550987211253339, -0.0954808931124217, 0.39887704080068703, -0.44445125013314263, 0.45284984211422924, -0.35613853537958534, -0.2725681121236773, 0.1999910148672577, 0.18549741149970553, -0.12497742944379267, 0.29969090486376687, 0.13131352259348156, 0.4270559767366458, -0.246027188819812, -0.37561918271695954, 0.1258776035513242, -0.4335127725844661, -0.08725261208432726, 0.2668483779747975, -0.4818661387410565, -0.22576845867305295, 0.07107132306966704, -0.4767707910099721, 0.09052478822039205, -0.028475680572002518, -0.3629732180346766, -0.10674040063051432, 0.050364311400743704, 0.22908128226067512, 0.04140682914968483, -0.1788687178036328, -0.23361703251874735, -0.49019313512418067, -0.17856421872841727, 0.2398741048486671, 0.1001218641334696, -0.26450711897924467, 0.14476118234247246, -0.2092390059880445, -0.18261244606020136, 0.12950867367573893, 0.16139599345194522, 0.001940892865179816, -0.46378744630980934, -0.5257129407208473, -0.09434362405096716, -0.016072223922688915, -0.10208306742521919, -0.32397505031333756, -0.1435424171253359, 0.028100438778496464, -0.08668888646016064, 0.01584483511548534, 0.3876070123253028, -0.4185609814225727, 0.052250626441589905, -0.24139562504057013, 0.11997991544038653, 0.23869266627109897, -0.20259461136107967, 0.3268799829021342, -0.014873841502726663, 0.08143626386720648, -0.03400007533694813, 0.3126377702309219]
[0.41254423556196695, -0.3698333477717813, 0.13656406539851196, 0.44446350387187944, -0.39398112129440693, 0.17293017192762059, 0.33204398040359157, 0.4686314692730351, -0.4903695833781, 0.34986742313077124, -0.20655643087371636, -0.0039968053731025835, -0.003505185955502377, -0.4720573757774693, -0.0955180605631, -0.44901569741679187, -0.4799384276436085, 0.36081551967270525, -0.518138901267563, -0.2671048114882212, -0.4904882060354435, -0.1547211516443985, -0.03847568913907657, 0.11443557977116636, -0.007716045289815549, -0.13016479919011723, -0.17256526914455986, -0.03362018332271996, 0.1868314424836535, 0.4445381540982133, 0.015979818040555278, 0.2516223574190002, 0.3300499826787702, -0.05207777236135123, 0.14730618916310942, 0.4687823452559663, -0.353896361891739, 0.19104460717793956, -0.2582630117684746, -0.32027013323512005, 0.13261570167352502, 0.2262742172255628, 0.3600696394095495, 0.3468801997247736, -0.19102728415410955, -0.36973539403974154, -0.3125569296786956, 0.2844700364684688, 0.2618093701331683, -0.019495911610299406, 0.05401615414064266, -0.2603368185715042, 0.25355906052735927, 0.4071480097307599, 0.3161027363319069, 0.3070275994644769, 0.2039869927911309, 0.1984669994943959, 0.4765711587499482, 0.412738056016912, 0.14164913521043693, -0.24460397349263102, 0.4344041084665186, 0.11274693672884435, 0.1423420439837952, 0.26264045713951295, 0.18309947103536936, -0.119647265998548, -0.1930593215451934, 0.1278228981229424, 0.38912810013205607, 0.27434128837329674, 0.3821451412148836, -0.2898781463426886, -0.4886205505753424, 0.3219976861892261]
[0.39425475939515625, -0.4549961090980093, -0.21029634794108554, -0.40724117203189414, 0.2647920885562477, -0.44454073697293867, 0.17777052084971398, 0.21143251630855575, 0.12338567241058988, 0.3269008820896567, -0.12739179906225104, 0.09840759929449511, -0.0954363923219791, 0.12046606054658221, 0.4073098527798173, 0.15488723272549693, 0.27539670043368003, -0.07387608295504812, 0.3557177926659745, 0.2765278641531472, 0.17024593412879077, 0.17555548952820957, -0.04344976771479184, -0.34435185543016716, -0.13962302797591694, -0.44545623695625924, -0.3418090045324751, -0.1833841149200801, -0.4381929966252197, -0.10735490639344374, 0.21992110072321422, 0.10062193918582638, 0.3423784068499343, 0.19187682773162287, -0.20499519611236705, -0.0419838113505296, 0.34607747303110686, 0.07944527589559937, -0.1974719047961568, 0.23918754774665527, 0.3998302763825368, -0.4672953947122723, 0.29434180889078887, 0.21110082486300288, -0.08551140204848436, -0.4058646831584883, 0.23429514326246842, -0.2576008247707649, 0.004996827221263391, 0.2559803547706116, -0.011166291182079385, -0.3931951200645627, -0.0879836026250148, -0.2864550610402785, 0.23265061953739852, -0.18544751560296419, -0.43124567945862086, -0.12443580895283565, 0.3985195374076893, 0.20970224458030376, 0.10175668293280268, 0.2438919923477389, 0.35117800884776285, -0.1715803527406208, 0.31079298312136255, -0.17012431026694566, 0.19064713365611755, 0.41552781877677397, -0.1911564400789685, 0.35225815330627713, 0.3901428532419146, 0.44054211889498845, 0.3546730051690675, 0.11501493720781149, -0.03695595727700333, 0.2996411242226359]
[0.30268313289631804, 0.35735006925706186, 0.1407757741641251, -0.17550503189518293, -0.400691532557523, -0.20233761718830512, 0.267267457289646, -0.3527494906190763, 0.43728625409392763, 0.3806885388852712, 0.37546810006791903, -0.14040403299169418, -0.4065697069790056, 0.10929165817663282, 0.3259378233509533, 0.12281177417783881, -0.24740240688207027, -0.04864403646667117, 0.017168034316900338, 0.21118191699224395, -0.3400031601517994, 0.2686747233598077, -0.19581542697175328, 0.21768193796177354, -0.46912365449891763, -0.25597784774414534, -0.01512330832752416, -0.012968467778345961, -0.18447691880399383, -0.38768113899362466, 0.18227864690709167, 0.05360138783889462, 0.4492188588001803, 0.30188524931049665, 0.1204161221888729, 0.39188404451139547, -0.23684881700225213, 0.17658381710625085, -0.27767300034734993, 0.15756974509681088, 0.32803021219304285, -0.35430447439630713, 0.2646858824883146, 0.24378014682069382, -0.2831994093623142, 0.08085566048420238, -0.03716763975131895, -0.13642834002071277, 0.37323824234360825, -0.2176870431276302, 0.31558091186749654, 0.43735105817156517, -0.45882151360350915, 0.2842155103066406, 0.3433703292205703, -0.03657594865641871, 0.42821347850243036, 0.26685937639952534, -0.26029322875426897, -0.10285652334832873, 0.06220458549943503, -0.20072356257898902, -0.44064713170372116, -0.3806445493344816, 0.29820290139751937, -0.5103452134793576, 0.062098012681611345, 0.36552306814207686, 0.17579115676533494, -0.3043281957603421, -0.03682768121962057, -0.27551883685939293, -0.47283263462591407, -0.3503487864059233, 0.2800271851339012, 0.3338852458265739]
[0.1513984000413232, 0.4572000016500661, 0.37944412554619683, 0.358715209475778, -0.502007741538592, -0.15920743533583806, 0.1763704254592271, 0.34776724893749955, 0.059307420880245085, 0.15731504779986222, 0.21390289686588784, -0.006634283818518366, 0.03797650975636644, -0.2018336318663974, -0.36704601181361085, 0.37663678850830046, -0.28056145953558664, -0.4067029443321178, -0.4376943857873052, 0.23583903438243967, -0.3545603815149323, -0.066585334449677, 0.42200098618362236, 0.39933505912768996, 0.33290775898786323, 0.3809134273332009, -0.23916442124319376, -0.2788768059308608, -0.34209784791787984, -0.08389756666425568, -0.239131358198604, 0.44316174950255477, 0.3326168632418291, -0.29129251553745317, -0.31837590472516764, 0.3507602838732775, -0.3577360410819816, -0.018958677891647697, 0.4435425808267237, -0.10325061901144969, -0.11924724161332355, -0.44287325852317827, -0.3958683125323217, -0.19602571032890212, -0.47539992605454734, -0.3163848818247729, -0.45807638992728744, -0.3071608696020689, 0.27847435837819456, 0.28591394836769046, -0.5058774522740869, 0.0759113512083164, -0.006030293337678551, 0.4345097095601096, -0.02073506819324306, -0.15139243598464802, -0.35244522002768136, -0.36907894219109605, -0.030990956020754495, -0.4220911066936619, -0.36852981206823865, -0.29941242884144054, -0.4342812142058361, 0.24757473080010478, -0.15678951713074782, -0.48604324548366235, 0.36709861981821107, -0.006472054150973258, -0.4448556030627544, 0.18880651075355265, -0.42196023860240034, -0.2343948484622832, -0.1494216880713707, -0.2249665056191111, -0.27419974154209364, 0.04806940917945436]
[-0.32440111191359, 0.34184186745729717, 0.24531354470323105, 0.1357276710324771, 0.37677623461901716, -0.18285208332905328, -0.44184773400331656, 0.42976371347112446, 0.4297498436337965, -0.406613758689944, -0.14808367809242584, 0.21271322161027706, -0.15518682310451476, -0.14788243838492424, 0.33287349420362394, 0.12042702858314774, 0.2515893618369805, 0.29047280763141864, -0.10047934269946936, 0.3978477767755411, 0.4702859915449502, 0.062335523619822954, 0.13613741595234083, -0.4350083969400204, -0.19320410360695836, 0.28804576870968457, -0.004439259682522064, 0.27682173937523596, -0.034943000008359884, -0.08790067519313814, 0.46933629439069063, 0.46728138033779837, 0.39934453476843706, -0.37145178060476525, 0.17917062026473163, 0.09585583632851481, -0.16814095250442626, -0.3338333250821277, 0.14329446829896234, 0.08312535435698765, -0.04916662445793885, 0.1650888142108084, -0.19530364008027926, -0.5022753907252547, -0.35390808108723826, -0.39167094125940793, -0.11966994990457654, 0.36092693408113863, -0.5068822367453574, -0.2585334273490962, 0.47314481841997424, 0.299848974324057, -0.24218430238051739, 0.31938986374596484, -0.0699666776698644, -0.513572590940171, -0.42683732480351744, -0.05635431423247448, 0.14234714032339998, -0.34296744903096593, -0.19819357919050917, -0.3452499873686325, 0.2038591449964198, 0.3180895300832479, 0.4049321607354918, -0.2619482999661909, -0.124124819517404, -0.20569310884892267, -0.3859556300378143, -0.34288754400041155, -0.21269452645270517, -0.04596628258051419, -0.21278601389571566, -0.20256707034515067, -0.24748250035706468, 0.16598564804202876]
[-0.5130718072272152, -0.4065147347646745, 0.07454094472110617, 0.4758575678628655, 0.4246490042437751, -0.37058967019482963, -0.21413231252499063, 0.2765420676260364, -0.39722258761533524, -0.4566140923792763, 0.12725375995674773, -0.33157279776931625, -0.2229905564862191, -0.1538671585527691, -0.406186031191575, 0.31112935958217447, -0.2647026853452018, 0.078299261420627, -0.18133496581684105, -0.06048132065169815, -0.04610113896405139, -0.04883605571126165, 0.1323815696249648, -0.18191584111545875, 0.1039803693984981, 0.18200962929118497, -0.32722842973102384, -0.046498707033684625, 0.10928444199649141, -0.39700978786104696, -0.42837673417679795, 0.05180884061697052, -0.2913947845564919, -0.4336007258438131, -0.23467345899125958, -0.14545509541493393, 0.03417341332525664, 0.3348679763107167, -0.35027808261992605, -0.060872549808474785, 0.274666225340946, 0.08209127519283917, 0.09546799656163495, -0.16780115915990682, 0.44192602614614107, 0.19467172013619868, -0.4388731246653782, -0.39551438309831166, -0.040259057338896155, -0.1897097622384158, 0.040475760662589885, 0.4672144134684595, 0.10881662719917676, 0.38290070496118084, 0.19355660303008873, 0.12198385390695614, -0.32991039923117743, -0.35781901248573755, -0.04759938595547777, 0.17769233094289058, 0.13982175227746385, -0.5184287193672011, 0.13267965943528748, -0.24203682728582704, -0.009572974081113968, -0.39189807035262314, -0.015488616454871254, -0.29826198836934925, -0.12270521732149342, 0.4469479264893858, 0.32763441137792493, -0.2456956820725252, -0.4758360462152759, -0.42832634129069685, -0.12820506795701486, 0.4790971253060865]
[0.19692841030877745, 0.32527686922242516, 0.40692258325202396, -0.2321215243195058, 0.20660307021634594, 0.30022264871560694, 0.04932678748874343, 0.030010209949957657, 0.09501203857984376, -0.03627269694972903, 0.17912556511027, 0.41469312241381373, -0.5253218777982782, 0.10674345369745322, 0.07165458860349794, 0.21715305130826443, 0.15408507805213326, 0.3582301841789547, -0.39724516327596465, 0.16249817856839296, -0.18516943151419288, 0.4529365271993172, 0.18702113587961253, -0.32657583787806355, 0.07192285747281597, 0.3481727669047247, 0.32143578166682324, -0.09899928293501276, -0.06679480929010888, 0.02037827660399364, 0.24734373190605446, -0.22423476515748206, 0.1679224083387724, -0.05353439359744026, -0.2767801692283918, 0.00835744739824784, 0.1875243266333864, -0.44668478681949825, 0.13906557502954536, 0.04693188806835779, 0.03865010025495119, -0.2642584037528424, -0.12031020311074878, 0.43232568821404116, -0.40338080208660343, 0.3066812672382081, -0.48159217002591825, -0.11485428912944641, 0.17185005089600305, -0.15948195219886022, -0.04543488968237187, 0.19411701662721045, 0.4626688603254126, -0.35781086194731554, -0.28567282711595005, -0.20178201670119966, -0.3937926247397047, 0.16507892742359798, -0.1340259531686791, 0.45074906222796346, -0.1758112498685856, -0.40534930060489105, 0.01587626409051326, -0.13564936635597144, 0.0878885388941653, -0.0174253302624514, 0.3183401214709606, -0.012555786032893685, 0.03659066298827531, -0.016729277477510643, 0.09501262194022364, -0.1853971430390944, -0.2797555072079427, 0.4613412064754591, -0.3751085612839981, -0.17166272383085673]
[0.19879835892820696, -0.33112257973722387, -0.5023147710165932, 0.07947341351297907, 0.4117101874173521, -0.07827843956044706, -0.22384188395315516, -0.11932625944331471, 0.005065145606475902, -0.029231973426027038, 0.4438757522238236, -0.1893978121314648, -0.15135104471866212, -0.11199615029544022, 0.46797660534375873, -0.41275530248338954, -0.11291805301823615, 0.2443349463892225, 0.4169476293480116, 0.3807238132528487, -0.4809120205774661, 0.3014454435344449, -0.25179630146302356, 0.46673493204741284, -0.017225035260297752, -0.47290030799171845, 0.2019204341622944, 0.22049341189683552, -0.23520285973935764, 0.24827580335166097, -0.4076748902932541, 0.03763717019788479, 0.14714436742774292, -0.0030964806703988944, 0.22385813926883785, -0.17324457395417597, 0.42161921994908474, 0.1966486028360452, 0.21211620792094898, -0.3230714482319028, -0.15699415481181142, 0.2703729140017697, -0.24285086509773188, 0.37310102116318017, 0.3417467317759165, -0.1807668811202847, -0.12278178468001083, 0.3267285684867535, -0.33994735652487823, -0.0661397682742711, -0.032589613144465276, 0.19263882260678097, -0.4600928343869714, 0.3525819608869674, -0.051565409516134524, 0.18431210038786847, 0.35373539915827057, -0.04473809885275699, -0.06613713549051241, -0.005073406858472823, 0.11910490172601468, -0.31491367993990915, 0.270663236171401, -0.39487387191334494, -0.10648907184592155, -0.06932010160632386, 0.23845474569190328, -0.1877996425323355, 0.2970014606578971, 0.21403157276850873, 0.4624528386308375, -0.02070068162853668, 0.1573926772260429, -0.5112977850818623, -0.3031695253742513, 0.023970379986873395]
[-0.2010519107546047, 0.1090122477741482, 0.0020700568198697257, 0.3734148572706154, -0.32499353460433467, -0.26502063918212204, 0.41618845912366254, 0.40106835738549196, -0.5022166444342123, 0.11871092976932848, 0.1522042032749991, 0.14561569502296737, -0.11014272295315851, -0.4271069579294922, -0.2269692251311116, -0.1268269156258007, -0.4312577483567789, 0.10445414427862938, 0.16199941129323567, -0.3646586024332931, 0.35707998251991996, -0.0352637383403397, 0.026954899479115432, -0.06264652453539478, 0.015481997177191864, -0.02878140618918525, 0.10471079013746082, -0.08519388361774002, -0.2075128567757481, -0.23748484935643344, 0.4676195103893859, -0.08021662239172286, 0.34168327163355355, -0.0627935333556821, 0.40103021379478687, 0.13515201273541635, 0.3270721095676434, -0.3721970732260169, -0.08982844363682639, -0.3418254780283201, 0.2236569147650893, 0.3219864316056673, 0.03677854936264229, -0.12276003309660519, 0.17161774049953865, 0.08506399900861068, 0.31464952221801384, 0.2885722221075, -0.22513761868666196, 0.128364248651875, -0.22101712294820478, 0.48081640382783963, 0.35832656585841616, -0.318568986268026, -0.04329765003481482, 0.18733794152380692, 0.20721169456956823, -0.16761936379501421, -0.01478382891371818, 0.41154217605898885, -0.49603822636207723, 0.06439119810658378, 0.09172496103536792, 0.17933738047929293, 0.1442660046865461, 0.2890241636197972, -0.17012385482697834, 0.18108309194034108, -0.22795448509019206, 0.11744834632707153, -0.20943136876667992, -0.35468207667766555, 0.2198122205557036, 0.008395873768231865, 0.09942876919536765, 0.26620244943517535]
[0.3591902838032343, -0.40400553742983897, -0.5073648463701803, 0.15920068802829615, 0.253531872816498, 0.36508817226111057, -0.17047630132151023, -0.23732063741685358, 0.07882156991873637, 0.09927951992894882, 0.3359600120232731, -0.1412197872976652, 0.13752183533470685, -0.4309759544896945, 0.1854415206753301, 0.44307359857564127, 0.1165796312080374, -0.1362706663506512, 0.3253870625438574, 0.2728583989178124, 0.011801296435131444, -0.36943905078719425, 0.07085924976193919, -0.23095661296946254, 0.021859116337113307, 0.4240661404397693, 0.03326244930919293, -0.20769032791366837, 0.2768928969745184, 0.033900190755807864, 0.39383592681590557, 0.2916891602234634, 0.2216228814080749, 0.2429485731797178, 0.25262602467249, -0.05578730730657778, -0.07417864758905277, 0.4524544906255374, -0.3276051734384616, -0.3658586313204325, 0.017589798394242465, 0.3847309038299885, -0.11457939777407063, -0.14455657276261988, -0.06509106989102527, -0.2237848988303677, 0.46901338478189547, -0.362296860676817, 0.39929403061610974, 0.24924029828536612, -0.034942206346783515, -0.2538179130462327, -0.4074378640677452, -0.506142247522793, 0.08832721805620383, -0.26855315724346024, 0.4342563708947787, -0.274302607391673, 0.4068821323038475, 0.41454139049558786, 0.42813366334057334, 0.28120234992024895, 0.3997701820826844, 0.3954327923798186, 0.35575131752377487, -0.4600776618024806, 0.2452319900003464, -0.030367513612369706, -0.2985833004846597, -0.47399624934027157, 0.2015385030841445, 0.19722739209826717, -0.13264712352348706, -0.1005260278691123, 0.24234629975727148, 0.362320437333647]
[-0.06697213714969986, 0.28218450124929556, -0.41075433974620057, 0.05957927075833269, -0.3759877065921388, -0.0493061620963091, 0.14214405631406551, 0.10906599063897941, -0.5097045152084091, 0.3273963498455806, 0.3247019056685387, -0.33179940494480775, 0.36008532244272407, -0.28913927544094536, -0.3332150182327219, -0.20072558358064577, -0.21027291892151662, -0.32206287628273433, 0.19047418808549493, -0.23279354351131545, -0.3667511408090409, 0.380813191901229, -0.011725505889961163, 0.037774806033298955, 0.3633424487232396, -0.5177933135967291, -0.3827063506608678, 0.2373279581385465, -0.1508807002226588, 0.14414742486354312, -0.0679483272332703, -0.26592583666996, -0.513339490661797, 0.3117080184770001, 0.25436126750372684, 0.1852986244303632, -0.08290811670759149, 0.018935345358281303, -0.008909090377867813, 0.1227917382148242, -0.06341940210165407, -0.3133907486301621, 0.3375564226422925, 0.10538519634225461, 0.13672547821849287, 0.447043759493056, 0.17373802711861022, -0.1283865109760813, 0.2057207733643425, -0.16826565968071952, -0.16340656703280135, 0.032523230886318207, -0.01928110420049547, 0.1900160286698583, 0.16791401653943294, 0.18438842610931747, -0.3122705711987761, -0.10777785496009236, -0.2607678249278501, 0.2999403437101097, 0.400605590168507, 0.4150330621286157, -0.5127479832996035, -0.3677944812597705, -0.05621718157459221, 0.2309610702499051, 0.06449468325316701, 0.2760529525030179, -0.42781097343985103, -0.4300934292290434, -0.10434902346163077, 0.21119719049971633, 0.45372593022522106, -0.2866059959325089, -0.4121847542941321, 0.3004219095931096]
[0.1643342205306992, 0.2965437533995881, -0.5300820129484296, -0.06902773537690693, -0.48176131835810504, -0.4592521398695153, 0.09874088730459862, 0.18213051723769177, 0.3590311151573943, 0.21981408360441765, 0.1953063156548817, -0.10897012463161176, -0.11795465802732329, 0.01367692116195837, 0.4364005217198785, -0.24238038395681968, -0.23025590351176492, 0.40190390512817825, -0.18878418537400415, 0.43846406394322157, -0.25562122783240404, 0.07453227501691534, -0.15570271864854807, -0.1074071788774086, -0.411318605367927, -0.3172212765934845, 0.32233327421170294, 0.12261040545242559, -0.1673686818290003, -0.3856374741968347, -0.3986199282354701, -0.03167148618037614, 0.366592670888021, -0.4829713938934332, 0.46552885972135716, -0.44700775221813427, -0.38646046646132387, -0.046858015585264, 0.1624735176537371, -0.2070093445573729, 0.06243658153927399, 0.17785329672657252, 0.039757707827572764, 0.21455660236083726, 0.28524991608627637, 0.09529662961326459, -0.4714702411329307, 0.4393535251021476, 0.3088426847481777, 0.14238928201826248, -0.1817877397869307, -0.17514136743504513, -0.04905593531975764, 0.1454710703070656, 0.17793627558985922, -0.3544116899864019, -0.42349490926307054, -0.2781828009268967, 0.424798422789404, -0.03369406499086404, -0.40827750582567623, -0.282967956591544, 0.2994861042851647, 0.44540637315800785, -0.008781470021706048, 0.465447680963144, -0.45589167826746024, -0.005741767880470851, 0.4617505637967752, -0.2863173588816952, 0.20440059740459718, 0.35459704697321404, 0.1275057208489857, 0.23224703314875636, 0.22872200707465545, -0.4515296334343405]
[0.11698447092782895, -0.2403381653400159, 0.4391910627098583, 0.3358899883144533, -0.49886716125270447, 0.13919146536616972, 0.30156240419226404, -0.30142054998682577, -0.06317241141569094, -0.22662593404092676, 0.18249432762785933, 0.3713120835642688, -0.11541391962116065, -0.20495489712154497, -0.28563210260561245, 0.29981466165461634, 0.25810061740467627, -0.4371134778115748, -0.4025662410809219, 0.08428150255911306, 0.29859219080483557, -0.35443609628473943, 0.14672862985778393, -0.37003486050771744, 0.40443616209594335, 0.3822882075181207, 0.37628383599450255, 0.0035925187226147487, 0.029211692517253668, -0.11060764825263054, 0.25361606814245796, 0.29509448690273815, -0.24198904080733094, 0.08522236214797697, -0.2519764972374256, -0.49760889196834174, -0.26876648370822703, -0.16269742841603563, -0.006457971141492767, 0.33518721819460306, 0.4224956633403286, 0.41961542281981806, -0.4285357523456661, 0.25114852869926446, 0.007336158820731109, -0.43676948465322735, 0.07816911888155152, -0.3144963881100344, 0.4104421084409517, 0.3492975997749464, 0.25116536724315064, -0.24833417338675268, -0.05734675180655965, -0.2908140306220119, -0.465473395006781, -0.3147151501622645, -0.27022518419695746, 0.22577461868530818, -0.31468234190118277, 0.4348587189361236, -0.12705601500856925, -0.388550545169919, 0.09438624205609535, 0.0795303476981788, 0.1011165326607608, 0.2886294529209734, 0.42603415798428307, 0.3535240122502133, 0.030337170821980307, 0.400878565090114, 0.18887869729601872, -0.2385488446340566, -0.4416674298510086, 0.15260936139821718, -0.1525289075058803, -0.5151623002344258]
[0.06810750786466958, 0.0701855202166715, -0.21276444638439335, 0.38419865044855983, 0.38668024852246047, 0.48098775800019433, -0.05144450753654774, -0.2528126709109906, 0.26219965396171646, -0.25693601506863395, -0.2410366079230892, 0.37980372235244814, -0.4595505424609813, 0.12126531869548718, -0.19491427336528677, 0.0060094139484198955, 0.3310525056788342, 0.25615595506275035, 0.04048821303207301, -0.033967238081033246, 0.1451856748503344, 0.21454058585762648, -0.3375353687188999, 0.1475686721815752, 0.07775380297865177, -0.47472921917955485, 0.06620102320329888, 0.3328694058407448, 0.40475828348120774, 0.0025712119273830977, -0.05289307500576126, 0.005752805889023642, -0.17967607912826444, 0.2732769006522473, 0.17231176185280858, 0.17383854151711484, -0.1926960810088327, -0.41521132655820836, -0.42657178478553454, -0.044486578082282284, 0.1206368110403771, -0.1980405525638673, -0.03418504109875214, 0.018852273579154415, -0.09654276482508813, -0.1486490577817802, 0.4072891272849423, 0.2658545869505087, -0.4913257597626368, 0.12580275456190712, -0.20482649774124947, 0.09825909896182572, -0.023660414404967186, -0.16784699383776316, -0.14211684937473804, -0.33773045551760333, -0.4809685673856036, -0.34880644035486524, -0.2462458408613731, -0.2304447201822786, -0.20297095182154623, -0.00404724177716583, 0.014825065754573702, -0.39891301740454826, -0.2734807565937721, 0.27673339569914523, 0.0960651040442745, -0.2741838485527621, 0.024164110035201095, -0.35871773686168296, 0.08849370753228797, 0.13118455083298536, -0.32877643894495623, -0.1274818406977812, -0.21489257654341284, -0.34133065929278783]
[0.04283810155385783, 0.38184626810321315, 0.34152257337625663, -0.41690747444282067, 0.276326569840907, -0.12037837748714413, -0.28102259444281064, 0.4788621158601295, -0.177721961069488, -0.04270731681906577, -0.17997275599827497, 0.32088944034103, -0.45149649373429035, 0.4220967092247802, 0.40038347027505244, 0.09715108425127893, 0.020004216551924327, 0.1805806633569136, 0.3773460730568101, 0.17470784886022467, 0.24312828397326977, 0.186841702437736, 0.03726315839889763, -0.04516473164204228, -0.149970984261356, 0.3601698252566538, 0.04797075798395434, -0.47128958659943343, -0.4419976684865631, -0.31814212785919294, 0.23122938180738867, -0.2593198996012205, -0.029773985798459135, -0.09422362540867782, 0.46862058119639943, -0.03914477477082335, -0.44968393521298133, 0.01745739000971936, 0.371669456161858, 0.0815896237665651, -0.44110586746590086, 0.2947419086786603, 0.18101063817763074, 0.1476892005050206, -0.30728394274237575, 0.3591529006929932, -0.38320210563614887, 0.1770854376897458, 0.3328726561355556, -0.03909833678484158, -0.13095093814582867, 0.21301863217701977, -0.48883578925733595, 0.11740117161844016, 0.23175733753838784, -0.31962047928756465, -0.4629303936627083, -0.19618045672674586, -0.14410366596640606, -0.26062984025087904, 0.4463777933874761, 0.20666678956574977, -0.396417057662774, 0.17801899463271387, 0.4162464699976886, 0.4656306906037841, -0.497205629026587, 0.37250806543013326, 0.4664276536442984, -0.42223656107251456, -0.4539743604818675, 0.16564824208777745, 0.26681939781809827, -0.17167033329394277, 0.20353036291510926, -0.4156429199738762]
[-0.1306629390546836, -0.28396325826727803, -0.034618227438557456, 0.34732642085263316, 0.14633190695619042, -0.36338270712553655, 0.37942783705643074, -0.3201101659152723, 0.17271404959634215, 0.413272782173204, 0.13339624522011864, -0.2732742633235473, 0.16493633680288494, 0.36248022483189024, 0.08447508683934843, -0.17356442274767728, -0.44534303853006457, 0.1758921301484133, -0.20980944872211216, -0.3533119518748498, -0.21141867201330625, 0.3644806753662061, 0.14190978433945114, 0.06311660641756918, -0.20114227508573732, -0.12652770257443385, 0.07859500646286426, -0.1809547196610869, 0.1319773980829898, 0.144756690075527, -0.2739577012171115, -0.05500874483593798, -0.3428407931096052, -0.09556526583747157, 0.05197758364858699, 0.19785831667911086, -0.08095223920394366, 0.3822474790901259, -0.4756301382141251, 0.07405402432043567, -0.3782835950306328, 0.14926584530901893, 0.13817066045534845, -0.03902314838384, 0.15784221537009158, -0.07815060592973264, 0.17378667956135307, -0.3173245483605847, -0.2145275346321755, -0.09322224199998756, -0.20897998097916246, 0.0024946622123127177, -0.4437669805071327, -0.36952599432745953, -0.40340453648796154, 0.26297595790280986, -0.24823009981480323, -0.30625106589173506, 0.303842274952783, -0.1353776914169679, -0.3176408200672987, 0.3981980950426163, 0.3937448435141591, -0.4273405802846534, -0.055056899600175374, -0.3660163063468296, 0.43286321357122726, -0.16723495418930057, 0.07099678571403227, 0.2128733461985024, -0.03178498778922577, -0.37449323823894004, 0.16838602918808007, -0.06416893884490191, 0.39031899767454165, -0.12710242580031775]
[-0.07006909604031174, 0.0678148510438114, 0.08348982852993941, -0.3364518996353936, -0.37255117682179656, 0.23630122255841823, 0.4228402587526954, 0.13885687017079154, -0.19297358088079866, -0.3651451064084339, 0.1113236603743282, 0.15400218791186662, -0.07974312388982828, -0.3611794976546656, -0.43681131532068684, -0.1817798048893089, 7.764560539476801E-4, 0.22910251343801497, 0.08654918914375853, 0.007480746987319074, -0.4226021037418115, -0.2584069197845579, 0.12916400617334925, 0.1689030042673307, 0.1417579028705693, 0.38058551527504475, 0.37443786834521336, -0.11820870414811425, -0.24270181278145392, -0.22364227373399037, 0.13743883692616923, 0.1363755099148281, -0.017305134901211317, 0.09277932128812058, -0.4175471190651727, 0.32654977885842856, -0.1921043639411701, -0.03439058017670275, 0.26429728520115336, -0.05899252907331791, 0.17396982033590666, 0.09577274121900446, 0.0030162781794488003, -0.11385281281134381, -0.38136197455577475, -0.19941083437224977, 0.11321648521322786, 0.3060646223296795, -0.34926330757170815, 0.14384149647624658, -0.26157944929185334, 0.433465014698533, -0.4571517950801919, 0.16913574170007584, 0.24426187386418788, -0.408511025900733, 0.2685039537082107, -0.051951607934519126, 0.13845528053003758, -0.4215953684778459, -0.13935785815416135, 0.46028800036163825, 0.09592739167103226, -0.2901802582622455, 0.24867756798841492, -0.4393677066431506, 0.44029287260125366, -0.30913008306238515, -0.09295369949109938, 0.4292424343529976, 0.14691450552036314, -0.4355597171291577, -0.2034688248497451, 0.43440559815110275, -0.31571459047541134, 0.17723946752110634]
[0.21970909085153345, 0.4433164929090011, 0.05266146765187222, -0.3580298952211943, 0.21908631442501314, -0.11660931628727805, 0.21227919156396155, 0.4606744252117892, 0.1643669913061068, 0.04579301541061794, -0.18742781775250808, -0.06220015142753384, -0.0854744570038474, -0.3570438315505647, 0.08854330443725562, -0.48829751467664806, -0.511964184273121, -0.006416317815346493, 0.1558833836005994, -0.047827327551179924, 0.4642439468974819, -0.38699145252804745, 0.1403102783068401, -0.5155947420286855, 0.2439523916324861, 0.21683702798114268, 0.3992963395635043, -0.05830021037006027, -0.33584415503242376, -0.04755240354479706, 0.18476539377269816, -0.1560914894143414, -0.0028156266958724477, -0.48691467982050274, -0.24249254722034727, -0.40579365995720834, -0.24272018954414673, 0.3051160163985704, 0.4676931961324973, 0.12217081156242598, -0.180879353596918, 0.1419995404830908, -0.03775704829582356, 0.4471221927978691, -0.15937680932149265, -0.0569134079738167, -0.3534317143569596, 0.005780436028724425, -0.27685354559350417, 0.37251348617213637, 0.3083609523215061, 0.04453463211480406, 0.02624662952801339, 0.3952417857310014, -0.311440813970887, -0.23420434400467535, 0.06866521257255435, 0.25848579366042973, -0.2772170716872143, -0.4213288707086564, 0.3350905603073873, -0.1945260815554065, -0.21354884574696273, -0.19225039277756578, 0.15418240377489656, -0.44343016129676394, 0.404230030902204, 0.47268965398183355, 0.09058139500938758, -0.5174977048474436, 0.34502997601952495, 0.024204396434347655, -0.4547991859887304, -0.30339901925399543, 0.219954022032332, 0.34919505117766486]
[0.2617793504384952, 0.31704353965356025, -0.08682821641594456, 0.4089422390573967, 0.09415621926717524, -0.5147684507730076, -0.1270459880368615, -0.2183878451726202, -0.011358093149225647, -0.34660513324534675, -0.2884010760205487, -0.12319332900531232, -0.02450476110076391, 0.17058885770181895, 0.15961899162784943, -0.5018638970864149, -0.43093987687416563, -0.12764715164645876, -0.1001822703290452, 0.23987681384730555, -0.08906261807625467, -0.3569363768382545, -0.23528289955425746, -0.5001568263405093, 0.3770565946083332, -0.14892575871563105, -0.08891821772239336, -0.09132954088476725, 0.1783632544240663, 0.08350000597184769, 0.2386426565815502, 0.31829057302480307, 0.3366841691215064, 0.1277744342960339, 0.4147480130475977, -0.20257982978153632, -0.32638728772510006, -0.4983259801621277, -0.18663054005778681, 0.44531279208922947, 0.4015836366355727, -0.3788190615476743, -0.17692699187530522, 0.39739879104794984, -0.310443746787553, -0.19022722174632944, 0.44971495274091455, -0.4318936640664442, -0.36943478039715655, -0.016767068750347534, 0.2872606163767466, -0.03691182700286232, 0.13672776149025936, 0.16365490899492446, 0.3381311759815202, 0.32142227470679835, 0.09185607729376688, -0.21708236304500844, -0.3548091210038574, 0.3724513875034001, -0.2681715266408852, 0.25473034784430576, -0.3677164097495257, -0.47040059311536137, -0.07703015235409144, 0.04778527773809012, -0.2759831163335275, 0.13196007128593837, 0.07452034115440469, 0.2921560021614511, -0.2805269833112182, 0.06026242428096839, -0.2549171278879597, 0.29226936510722135, 0.14904895094962692, -0.36837006473907524]
[-0.1720050804355941, -0.03720409253503508, 0.3668972187237326, 0.005637958734384105, 0.38626213360595785, 0.3341964439669679, 0.4288473227329803, 0.10700731418774823, -1.9936196075636049E-4, -0.09162335008916123, -0.392133034383847, -0.05203681049604278, 0.12157198957167165, 0.3712799557278936, -0.4288717104574818, -0.2278142012411652, -0.23825983594331174, 0.0189974831245448, 0.0922983364288025, -0.3160251128656507, 0.4183299827543572, 0.44352205627848196, -0.42154617438081715, -0.49401984532835946, -0.1552074170221822, 0.19183716924432806, 0.4273005469368376, -0.23291689538021412, -0.32912550245074945, -0.3433715433505972, 0.27407881287125724, 0.10799831448884174, 0.15906840181076057, -0.33721302456418156, -0.37463792665837237, 0.14034078945552259, 0.07500843272463596, 0.2271962391428549, 0.07675825931100957, 0.08938539261150479, 0.04788884575106449, 0.45248816823123106, -0.3594070511726041, -0.378034539647947, 0.2503518167872357, -0.4873765457517849, -0.13942787272174278, -0.4519778182401284, 0.40153007627718296, -0.1822308553495923, -0.19671305505629696, 0.4447564399292259, 0.0636570609250173, -0.3476496469165667, 0.16236445484110346, -0.34192473496193376, 0.00484838655217525, -0.031261863337101424, 0.38860583134580273, -0.3758518893514824, 0.17072381842507686, 0.45955907091466264, 0.2920695297037798, -0.4707488431698243, 0.09797400444158061, 0.22943599574311044, -0.24481108074624747, 0.34134876113912377, 0.08261648888028714, 0.1508791988605313, 0.47380525502075, -0.26488155832956123, 0.3687157304770687, -0.1308689530859299, -0.13846668763821018, 0.3858738359774915]
[-0.3301840174917312, -0.012675624899032255, 0.3569322150624017, -0.29739055477745596, 0.1789007590188912, -0.4257112197420004, 0.03912239559241781, 0.00946725193540963, 0.3255147028003671, -0.4864390428415962, -0.3575165598961641, -0.15998936530102925, 0.023147445245551807, 0.09993933176912062, 0.026273266739188995, 0.4523299166848316, -0.3398205800987507, 0.07995991422515308, 0.14798132108600315, -0.16054946306484977, 0.22038026484570603, -0.03445747449684289, 0.4572926727444661, 0.41550377189363, -0.015875595376645225, -0.19173597693863298, 0.19708870353313312, -0.3275139161373422, 0.05596512743858372, 0.4376460246855496, 0.17299093353579564, 0.45901168754713173, -0.037949943571046314, 0.3262949444156197, -0.19903669116272285, 0.4358047607497136, -0.5207889492731987, -0.13064955973855266, -0.013566647299958481, 0.1404140358577524, -0.2287907633871987, 0.2315299830144992, -0.0567354924703258, -0.208538598172415, -0.06369324499438786, 0.3305948326095015, -0.398168545442165, 0.12132653774735444, -0.2571725238951661, -0.24443209004309804, 0.297392543765334, -0.4229457695527715, 0.35796736476528684, -0.005740708495311308, 0.08392569239231017, 0.004294113679388188, -0.07645067309614458, -0.25845549599442097, -0.26618650578756686, 0.11756609170966267, 0.08509490673085292, -0.09275312147617842, 0.28604857241463943, 0.19362290902332102, 0.31399266200792114, 0.2615115667896579, -0.23698449730837295, 0.2614356173429694, 0.09777231068418253, -0.4183882209968582, 0.11095369712729374, 0.1347198763524481, -0.18715458117886363, -0.39047850356910574, -0.25758629686981177, 0.08081361549146172]
[-0.43019761614997126, 0.19282758663974517, -0.1357136458998713, 0.013234898656415575, -0.3424279927026853, -0.21032691025298528, 0.4514204051582597, 0.43122506414276124, -0.4006848343491363, 0.20118337452792862, 0.3791026274218331, -0.5060541712707068, 0.15815744583467078, -0.07060116636441033, 0.04426706502144799, -0.3936793315746925, 0.10725933184878395, -0.18605464390701856, 0.20733908112327937, 0.10835745797372151, -0.28333516929179525, -0.09794887686786423, 0.34432060201306836, 0.1301473850167507, -0.07172658043817046, 0.2885782206817985, 0.22478416406624607, 0.30810121799380996, 7.913820740813589E-4, 0.0757086730489154, -0.16599446598263637, -0.38609990246080367, 0.274049923349434, 0.35922863132018745, -0.46595912602339146, -0.4512238962215244, -0.43659780203070564, 0.38550630137202363, -0.3074474297278491, 0.2595066466764944, -0.06594927194788937, -0.379399707940552, -0.49982683206959605, -0.19134451533536417, -0.03279948506500662, -0.14250915975920392, -0.3348190844837067, 0.3278657884379308, -0.06577330087561908, 0.13495535101597436, 0.13069099905203846, 0.16335269161226812, -0.24196841583908058, 0.042700290008161, -0.17107032717591925, -0.09658498783650596, 0.06853523163052873, 0.38398722458530243, 0.31427727882022216, -0.3493158611105299, -0.43806101733455194, -0.3805461990391081, -0.3673106786538076, 0.4324663207019367, -0.17376554284681434, -0.43591347190152313, -0.4416047411907786, 0.386320597253526, -0.23337698068738244, -0.4795424596999236, -0.006507516873785935, -0.01601663150054109, -0.2511514263584759, 0.06958641107276023, 0.19335451131509787, -0.11861896826105574]
[-0.3772869369908692, -0.4264545529708374, -0.41892176961844196, -0.4737097433835749, -0.2669601998217031, 0.05141322798415012, 0.47780627001891934, 0.3965702064012868, 0.464923337618827, -0.3914386572728257, -0.3595672387308475, 0.2713410615149868, 0.1625412595788921, 0.19376471489381789, 0.3369800809795718, -0.40529856076292703, -0.06809279465158677, 0.3868288618992696, -0.06005762528581511, -0.18909400393133521, 0.38342636678897546, 0.2542209685373562, -0.14569976761388517, 0.45626175312555944, 0.1380159441005619, 0.07779517965579238, -0.4135471215474933, 0.10353298734367179, -0.22851915800464073, -0.23883514658128277, 0.43990826774079406, 0.03043051980459518, -0.18373215016428884, 0.38468524239202806, -0.11565856887729506, 0.039156616135283075, 0.006345860759177286, 0.16796521224233957, 0.11472836375907658, -0.2548986494701409, -0.4652353138071758, 0.451353034743843, -0.41284739923908437, 0.4234129495157813, -0.07010966116166722, 0.45067887242741167, 0.4682159820631285, 0.2947563703999433, -0.05141361513957872, -0.06075418696715715, -0.0017066950096888912, -0.5086909550894851, -0.016874013588232872, 0.34355480492141743, 0.29247509296367874, 0.42433306646069097, -0.08021189085127228, 0.1877552388890168, -0.07751342761085402, 0.22797718293799601, 0.3936664494371016, -0.46204255660125426, 0.10605624064002028, -0.2013557032587473, 0.20335409708238086, 0.4000503437452407, 0.31376516649872893, 0.3542518560237325, -0.4845729803438876, -0.0565532732070749, 0.20530237910965302, 0.10066493602999918, -0.3994240461416935, -0.4996468733536736, 0.29434978850536886, -0.43872038532913477]
[-0.07211251562637962, -0.14531211349848108, 0.2458838800937724, -0.025800640449702556, -0.19873372576159665, 0.41734658766969585, -0.18127387230337177, 0.1974645116283507, 0.06863527028771652, 0.15648938997047482, -0.1521188071776978, -0.5181629468695569, -0.21559099283170607, -0.024521155398651996, -0.26898907819004053, -0.05698646173947796, -0.13365611539536087, 0.08621963916543524, -0.029084158322054635, -0.04447088619877521, 0.24427590024807716, -0.49213625872745126, 0.18781649196020697, -0.27609885759916647, 0.45121919485632767, 0.15148362181702424, -0.2963413887464088, -0.38748896640867364, -0.07124400574827182, -0.20527698656650506, -0.02454048940908772, 0.2284038232152741, -0.35286045772636043, 0.2718164286991948, -0.46006449501497493, -0.5171158596358152, -0.3196689700262282, 0.2767447416096883, -0.4995800770011112, -0.44009829458940614, -0.48605699010489856, -0.33330782796807634, 0.08682790574670377, 0.1876257622941677, 0.16151272193806337, 0.47724374074319653, -0.48094440920426984, -0.07036865832560084, 0.29881207342541066, -0.3689906872513846, 0.03278639166160736, -0.27019153666230533, 0.2843968938732931, -0.2921368393756375, -0.4027487309583901, -0.43849013472485526, -0.006634484072684162, -0.08717820581793634, -0.384610605036836, 0.3615388762142619, 0.4120182413989787, 0.2721726301030076, 0.41970892257267545, 0.08887668852561975, -0.143095112999906, -0.36065492683161965, 0.07596510231570114, 0.28654718462998, -0.541377111364729, 0.12320329247117646, 0.4636743606463912, 0.04081310256583894, -0.4563620501602634, 0.13430667213957548, -0.25490091057296044, -0.24053096774612762]
[-0.40599325828534677, -0.42001167533660544, -0.11172168479264781, 0.38031999998261584, 0.16810129703431165, -0.507257324842388, -0.07362513249437724, 0.3161340417371765, -0.1511538373178307, 0.4314062284048464, -0.21592205061518033, 0.2527057919997038, 0.012956710576033051, -0.30804590960972233, 0.22447944093502903, 0.024434240601745833, -0.5083864358705134, 0.3835764343375444, 0.16195636990307566, -0.049633164593776105, 0.02284907764458241, -0.47306472404845584, -0.20929353902063488, -0.4262287647603186, -0.4351284954981656, -0.29088976071173295, 0.030996343850495774, 0.2406462669680006, 0.13463957905486806, -0.38660080909263067, -0.1857392841951036, 0.4358225274523632, -0.3860026898766659, -0.16204600539017006, -0.3744570938871416, 0.4468997482408995, -0.15243611857856454, 0.36164338005716623, -0.32281316624917483, -0.31276470711397464, 0.3249649240740101, 0.32327225217435374, -0.1930577728090366, -0.22178401853005783, 0.10071361463586496, -0.26130186871542205, -0.2495471207596311, 0.07395695665681169, -0.18014175576854777, 0.1863040002181138, -0.024016676777025042, -0.15079476185041346, 0.1868815850685268, -0.16684843519794954, 0.16407114280011512, -0.452565116351555, 0.20723291767875687, 0.32969853470645594, -0.08120208069792673, 0.4848024509660009, -0.22862020957946305, 0.15482931577008047, -0.3626538806578608, 0.24191669289616907, -0.18540391307802329, -0.35280499784693103, -0.3092872494196566, 0.24272385950892925, -0.08096841061872503, -0.4172479296104605, -0.14434452600547884, -0.41565343946408645, -0.28852545136983254, 0.2793059201237364, 0.44966244563311164, 0.20334567131854206]
[-0.2553026193728658, -0.4031413982607563, 0.02782779087766669, 0.12340470003018258, -0.3351966954042023, -0.450822580209831, -0.38983538218285374, -0.3148570086260756, 0.030055078567012537, -0.31449461359067277, -0.18177924716662303, 0.2685652803836309, -0.1194884538054028, 0.4366938741455759, -0.2701298588391337, -0.4170983541901195, 0.10162088133903106, -0.07326199738654335, 0.39691612952873373, -0.058124735645663325, -0.03395490232207535, -0.5178361285880023, -0.4052352109282646, -0.10108165446431101, -0.21643760842779547, -0.37088037093067333, -0.3339079547712219, -0.2681485641885807, -0.3217737651248909, -0.500791458901165, 0.37030124465745334, -0.11438490247129826, -0.10844823321944058, 0.3079077070988984, -0.21879024142018633, 0.3393571009736498, -0.026095482337028405, -0.20980191748896299, -0.31273785716514174, -0.07619591692809158, 0.23508832831583829, -0.3961194166790474, 0.46303062077847523, 0.3429274702042257, 0.13945684051003823, 0.4814589533863882, -0.12962893693370708, -0.10127918154000275, 0.3287791875620856, -0.1303993224094086, -0.17091593839287578, 0.1997175621189348, -0.2936665487720512, -0.04090851881384164, 0.006228174875437279, -0.11634510441513612, -0.3367860100211625, -0.015540450644719189, -0.4759762190638836, 0.45921149607676903, 0.045742760684559715, 0.11077552069091011, -0.4126981467940476, 0.2532386935898757, -0.3123136135197445, 0.05656524710604953, -0.3026580839201166, -0.5046614906394825, -0.50832606869374, 0.3823250009756075, 0.14303594982862008, -0.4678110962317023, -0.09650967566742703, 0.07282069917698987, -0.09500609582661085, 0.1842674335481486]
[0.36660312263918016, -0.1593925859437365, 0.32165481809743757, -0.33909026368824746, 0.20553720882900842, 0.20668926749069114, 0.09194956626410056, 0.02465601486923195, 0.13059213863709854, 0.18370010015984356, -0.4241975423753867, -0.26078025890540524, -0.2688548864966688, 0.17481136185373378, -0.2445610975688612, 0.3231168387953582, 0.13076501728101253, -0.20599289716635516, 0.03425222682517255, -0.29552227119088215, 0.3338505443275072, -0.12605554668148633, 0.14976208299206673, -0.15205125292905727, 0.06701917623623883, 0.036432371074580944, 0.4385823184551938, 0.18298518499198246, 0.3779347861779727, -0.016456924108251947, -0.45442958213419815, 0.3028697722771904, 0.10645440253172543, -0.4880294461653935, 0.23342737301128288, 0.4459878843461156, -0.02043371230820333, -0.3990703822505452, -0.10478766734396742, -0.4456234453975834, 0.04354892408975402, 0.43242511966682196, 0.093086484552214, -0.27469381236669754, -0.368370804894642, 0.09926056838597092, -0.23202956023164784, 0.22194667067062526, -0.11680661164547079, -0.18701997891051236, -0.4405754462674572, -0.2894716582668078, -0.48839556349274316, 0.19384695225395657, 0.013351374272505327, -0.47400654994123914, 0.3631411038044829, -0.12015584299676221, 0.4165756144235379, -0.12034278851437683, 0.43876150690872795, -0.2031856600973181, -0.04467112580068278, 0.047626738010886495, -0.3981851630758409, 0.31523332278493565, 0.16607152285082627, 0.0049073282481117975, 0.12540529508764192, 0.4340344323557975, 0.2713502893318002, -0.11117281347086967, 0.022098472437601466, 0.18048497477693523, -0.2992741463878965, 0.14347324610860834]
[0.0018001070571020416, 0.44975175892695585, 0.024641844509904306, -0.31057084767202575, -0.3761452652007214, 0.09822375476570441, 0.04097900396426823, 0.2969158665728007, -0.31060383870456776, -0.33879903981816556, -0.3269745749397935, 0.21795230503726493, -0.2595414369626603, 0.09150227773822653, 0.2287743302178882, 0.47288600340841125, 0.38068887175341676, -0.40509440515124556, -0.22963955593378507, 0.4339468183915611, 0.2834005999405195, -0.05394360317258021, 0.07467870682762584, 0.32366225095242473, 0.43066912071161517, 0.20839824946316585, -0.11256309272869862, 0.3570228060830688, -0.0311765514230293, -0.00408162310984864, -0.35914433346511, -0.4818001410764985, -0.46986106597063515, -0.15634607920370455, -0.1503973674647885, 0.23813139747738238, -0.33272096407743845, -0.13699139471249908, -0.3440099196612827, -0.2738440730618621, 0.07673210838162046, 0.26386506654509345, 0.39693505840600646, -0.20529633582107357, 0.4558551181363095, -0.33725486943874744, -0.3153759769801532, -0.153525798497071, -0.1528654238793985, -0.3888093555496344, -0.16547015214746047, 0.2930438490617101, -0.0896979439057284, 0.07946818504687186, 0.3083343765574701, -0.13445435478829196, 0.3835284959360589, 0.318119910959516, 0.161932650956575, 4.4174882874886765E-4, 0.04268676854371582, 0.1765844945721222, 0.04270528237207877, 0.31898541329111557, 0.1188776411691187, -0.473079259919752, -0.06590977431020618, 0.32469169008219945, -0.20475616568295596, 0.2877358081026849, -0.023484793648397548, 0.3748727404859763, 0.43578804504670615, -0.14746072866059434, -0.18330404573729198, -0.44566886615783513]
[-0.03848655740244476, 0.2819268937213303, -0.48083291401980854, 0.06418992865451129, 0.29711773276563674, -0.23290344227091783, -0.4475679550806844, -0.38849774621060434, -0.3355431992939802, -0.39303783225740924, -0.14328321944457753, 0.2411368944094102, -0.20882336124570555, 0.05801774529799048, 0.4229358072344156, 0.15508143211740402, 0.42788597409725804, 0.3036095947286114, 0.022083444414027518, -0.1861175494065128, 0.2250558159152829, -0.11366069511018279, -0.5115669711728293, 0.24101797393875457, 0.061497735800475475, 0.4146190824954662, 0.3974503669678025, -0.10410890864347754, 0.3261495834724813, -0.4929471912217853, -0.1577785751804086, 0.4340310903122629, -0.40371846860203775, -0.12215856187892811, 0.2609704752565327, -0.1936786621196211, 0.3291239077469804, -0.23961764161356866, 0.4161268177636876, 0.2805630802517109, -0.2572198723021984, 0.25986605373338567, -0.09231359192012707, -0.2131616245175747, -0.3015865209723914, -0.11811740357793252, 0.43885667980435134, -0.4839919694376541, -0.12891991040914588, 0.18570557801548962, 0.010214391249471703, 0.0686385457163497, -0.3901455543646393, -0.03444927771551789, 0.46828600392478215, 0.35771657533745854, -0.13827689264376639, 0.43612303344165276, -0.4765424160312012, -0.3018352050831459, -0.2537911523232938, -0.38879024714467986, -0.3234232888447025, -0.3368209789224695, -0.4610188865654193, -0.08202682484603527, 0.1793015775400005, 0.1565684504852923, -0.10196046532908287, 0.1929735984771906, 0.21070335516861335, -0.10561614510944661, -0.06540335088822338, -0.44026389432177476, -0.3912941245765812, -0.18469016620907153]
[0.40040163087900804, -0.18372751486145622, -0.07228720446965332, 0.32923350009616653, -0.04386447919273279, -0.08524000727422157, 0.4277214829100528, 0.400410748564727, 0.21251978648159486, 0.2593977630990321, 0.05839997406955798, -0.22055509884437097, 0.3447908386184064, 0.09561034948602584, -0.44840729993074246, -0.48590384795091424, -0.34660170988132516, -0.12300790252702166, 0.14487207369108632, -0.43928074051283766, -0.16986303375520007, 0.27178313723878766, 0.47523004879939057, -0.41637036790527904, -0.18116118328949324, -0.031052486495285733, -0.21548197511606676, -0.11405927103140061, -0.38756404279660406, -0.2907934091113683, 0.1362873563535608, -0.19531158677896235, -0.12422554451481499, 0.4032737337913568, -0.2711520592173732, -0.253772651719768, 0.03851683285985581, 0.37854736654402027, 0.3459877647230646, -0.0064549816875481775, 0.4471673111065818, -0.22876001599375675, 0.45022575378962393, -0.07016034350290898, -0.019765103434481155, -0.4885026683894772, 0.006559967217537609, 0.4324475533768882, 0.2260312900821023, -0.16472820652349748, 0.2871845325593029, -0.37668049887969296, -0.11777826185894133, 0.27907639013009305, -0.19867617097707768, 0.13651793573407614, -0.3938959639646204, 0.07136933895247605, -0.3962690094981462, 0.0022585971911893462, 0.01204846703982411, 0.12135445646845741, -0.017705404381993462, -0.041143150511719385, 0.4089981327167012, 0.4795583576430928, -0.2356211079590778, -0.3541836512326268, 0.2682106133445037, -0.08307029232339734, -0.10162008457906786, -0.29931035149747515, -0.4905773025692755, 0.3980891008641699, -0.20242303585871227, -0.31193996389367346]
[0.34023931124455925, -0.07270706881233432, 0.4711437107053484, 0.06370641882778982, -0.2123285316765645, 0.22121836020389293, 0.14192896306076963, -0.22099299918495352, 0.018346406663392927, -0.054782781366818384, -0.055666101949882134, 0.015799247888572277, -0.5078192001986601, 0.36276151280364205, 0.33952266149227006, -0.20574647782998226, -0.4591740941309139, -0.11453407915132176, -0.5274222557195791, 0.04122302999028716, 0.40245007120323645, -0.4762379883096565, -0.3688755906036204, -0.5101962298592215, -0.2759435588918506, 0.11775083274747535, 0.34331656601649724, 0.1291838533254022, 0.01916232585646632, 0.3438701539875527, -0.46233518156989095, -0.4029407025991151, 0.16216106930545943, 0.319525636478016, -0.06318069970575939, -0.2510782112479623, -0.4548575178604501, 0.13258113679992434, -0.2784577460094317, 0.0866029893447599, -0.4710597090189747, -0.5016958663603245, -0.16272652432607237, 0.15223842444264898, -0.14723764327351135, -0.06700639406085723, -0.1520119161728022, -0.353516956862446, -0.27709432293987557, -0.29142154564491407, -0.43092905842544976, 0.35687913488315215, -0.48265268044319165, 0.17845427114527004, 0.2714016320113773, -0.4526565751129723, 0.04497503228451551, 0.09387854839273531, -0.2088311293686761, 0.12305649729515997, 0.13947065846553663, 0.06768521919808969, -0.14360027306107948, 0.3771862988874526, -0.13976301655028134, 0.3642055192467153, 0.08832180917002481, -0.4357502424949917, 0.26723517045807055, -0.0808184572914131, -0.39028826539818096, 0.4730660145915563, -0.3513335898063962, 0.25985762483916225, -0.2758355406814037, 0.3345419670502338]
[-0.41386693834538646, 0.29033525666687376, 0.08067684016342337, -0.11321256805836435, -0.14434725313533722, -0.12232323454833852, -0.12903138940408782, 0.061360354347480134, 2.708785278347881E-4, -0.06770921330648684, -0.11677086930615253, 0.4376327343065783, 0.16130332248646964, -0.22020681002826106, -0.01676458347959195, 0.18115161535998156, -0.5062999034279038, 0.2583285720341011, 0.4541437271065286, -0.23367130016794638, -0.15975956608309178, -0.4775498522184102, 0.0011367732262735778, -0.010356883264063574, 0.1905007804646516, -0.2790918361866659, 0.2360160185334374, -0.20693715519921885, -0.005646548429387094, -0.4934820902958453, -0.3098253309472037, 0.34720062164467425, -0.02846290012564249, 0.4217226625824236, -0.2638838008997659, 0.08452074863042884, 0.4534103208722314, -0.3264155506362203, -0.10635697525576511, -0.2487783530515699, 0.44185076352789954, 0.13309810065882482, 0.14831950681576012, -0.35018466942331233, 0.3800863870031089, -0.303779771015864, -0.44185233701809606, -0.5156444588445243, -0.11535657727170699, 0.2273972133260205, -0.4337353788977369, 0.3887465528085468, -0.45085614576594046, -0.10089568448442766, 0.0910798112750086, 0.10437970701718886, 0.3090907168674229, -0.014815643495712584, -0.17797507256424888, 0.25269310016650115, 0.32273714048849467, -0.13284327307775323, 0.36201128404632693, -0.4962433943547791, -0.12077007601223572, 0.3290503994709437, -0.3664864449023084, -0.22524071532412843, -0.32623921537301803, 0.031981561050105876, -0.26774225363316073, 0.2298526089663977, 0.45161861871614023, 0.3448339921218252, -0.39821381420396207, -0.3357243037955242]
[-0.4395309678251966, -0.3440327455165848, 0.14256391267657537, -0.041249371406819724, -0.34422076684298347, 0.3254076055520565, 0.18667405633609468, 0.12617955464615654, 0.40371473268224456, 0.3961246811383091, 0.24360737293981755, 0.17195947807467632, -0.10054741201789504, 0.36404881875671186, 0.4079624497389775, -0.15310021016298087, 0.2271714650477899, -0.1783870367484746, -0.10288490292074126, 0.3637891191238019, -0.2090277870316985, 0.44822966246040397, -0.23926083258690137, 0.32774624078021225, -0.09254096603517746, 0.29512245473582305, -0.3122820410135283, -0.49656330172668817, -0.16716711482750257, -0.3731563696461904, 0.4089744613985931, 0.024496427790325983, -0.3671773432029312, 0.2734888652651283, 0.1947671354769685, -0.47484352890664855, -0.1280995447503938, -0.1016944090172352, -0.49211089148952303, -0.38666134954940073, 0.30949204430011384, 0.2465249123139242, 0.2202524997395916, 0.09150378143615714, 0.2324797910741351, -0.10370692918393982, 0.30264780153754717, 0.31616112039898653, -0.46850266969502696, -0.48277253277942705, 0.18505038434412516, -0.2896303726407447, -0.43151657046911995, 0.05217743876094855, 0.36547015711101855, 0.05428312480277228, -0.17999178238418423, 0.2867381490531618, 0.3676900211821175, 0.16450757839621916, 0.08092125601224519, 0.46404645993532595, 0.2694854305964059, -0.10966368172671516, -0.4674052908841982, -0.04191689588609325, -0.32543914614285074, -0.14601433175279288, 0.40827720796331957, 0.2864965251188083, -0.08309153200325929, 0.0078723913925809, 0.07021536048631802, -0.21558098443202695, 0.30136043559224057, 0.48190320697826544]
[-0.4562018328152496, 0.18423074742942708, 0.391017555477559, 0.16598680123816043, 0.40046172254314005, -0.3329981879808961, 0.35983071411410644, -0.24417965542168893, 0.13114593842081923, -0.12816293310269222, 0.3083835177528024, -0.3208985176935306, -0.46532006321685554, -0.3037335030975126, -0.05186689213643993, -0.1580977802861766, -0.27543736104781585, -0.29290842267140216, -0.38364469226644277, -0.3083074679186663, -0.004008841955198261, -0.18669294727504016, 0.22343921188191831, 0.13606156702793584, 0.34808941412523364, 0.13102516474525047, -0.27571773909376424, -0.09108482314117392, 0.2311360639416562, 0.22344313749709138, 0.23592074779450115, -0.2768675370939563, 0.2705356917137525, 0.41394944087164587, 0.2645633814071739, -0.027948241986564662, 0.23538985262246462, -0.07744984348391601, 0.37210266635378686, -0.3088027970577079, -0.33431330697897216, 0.0623508035455076, -0.25398764710665267, -0.15602237062778238, 0.18093021876785467, -0.2834750809953635, -0.16230721484819094, 0.07003290841619453, -0.4550149884933376, -0.15183385789865161, 0.07737737239180133, 0.06551266432112743, -0.0159959388206059, -0.4758973779461424, -0.45100340044683224, 0.1808452555076104, -0.3343468034106266, -0.04513377669769441, -0.43500463891460245, -0.2024376632021966, 0.352712702485558, 0.05927899698971453, 0.4015754036350572, -0.5087675403618453, -0.3617348737858679, -0.25366040771349385, -0.0020847518561688413, -0.022230090680364082, 0.45256276999809736, -0.4838327298338549, 0.2802790660968559, 0.3676513688416535, -0.2483109287911743, 0.4766769040058182, -0.08796410992217367, 0.13105128494248122]
[0.431624704145283, -0.30719428145321, 0.2209920240703667, 0.34828062480083377, 0.3018741132056859, 0.4042575320464103, 0.1435404379117594, 0.053354024961037534, 0.10047902010216868, 0.42185633559220204, -0.06529441178217363, -0.11231745153126188, 0.15441892865207027, -0.062411651623879946, -0.17053410147006726, 0.3405503437026848, 0.03419963021412877, -0.5355833283745355, 0.19799821287452826, 0.38475007982754983, 0.23397234783138873, -0.2591712852687073, -0.37058313754034056, -0.06013444822882504, -0.35960682164467017, -0.19425881727511266, 0.15076760798293926, 0.255801596187699, -0.06191909350128506, -0.09082487697168368, 0.32900256863060273, 0.08305288781536199, -0.39538046994358417, -0.4794976851989696, 0.37040097877622735, 0.3104428200011811, 0.4139818089780759, -0.22441179861305974, -0.034760172009051585, -0.38974667489895676, -0.4877760513064085, -0.0745096346537868, 0.16354511259919086, -0.3389065905860711, -0.2922567247257441, 0.019290219894757866, -0.4417964414047912, 0.320368012017925, -0.15097754383106232, 0.014706149291938137, -0.29092368410770625, -0.19962880100656846, 0.13084383787680526, -0.31023914618969867, -0.2649914256686479, 0.11170055984145252, -0.07381560955164908, 0.4547727965200369, -0.3163106386129799, -0.24608759782103057, -0.286517229032842, -0.04337624652246118, 0.18611498782094069, -0.3159769017452127, -0.1659494796360469, -0.28611415647571914, -0.3326053163079626, 0.39905992595281453, 0.44198333661457384, 0.256664191296679, -0.034344389434439744, 0.23267882115879104, -0.19025499565209508, 0.2978249847288289, -0.4582680834628262, 0.42351195659938085]
[-0.4368481785171626, 0.09584251875067681, 0.24327988792395344, -0.38143660770423304, -0.16568535389291744, -0.39734623566228794, -0.36630443213116487, 0.11934045801522905, 0.017841887576502333, 0.15356145457564246, 0.1887046084024003, -0.23447294073316072, -0.3331580115733646, -0.3114015757508062, -0.10256544152398127, -0.4386398547617559, 0.29734026362965416, -0.1419274649826328, -0.05515304337265406, -0.018668073001418883, 0.47402922472309644, 0.10390902311459721, 0.32752677630374205, -0.3844912006240179, -0.06127225201366285, 0.2035513103778697, -0.1736621308799231, -0.056385049387763, 0.3274837335499154, 0.34240535837022495, 0.3127157007496685, -0.3286668098217805, 0.09307285125007352, -0.17453230904707218, 0.24895439929333502, 0.36907071570702216, -0.1934930625193417, -0.3193691371839722, 0.3295645542715168, 0.18652581610201732, -0.1483004273407355, -0.11778635316867357, 0.2560393527760556, -0.5105787841718183, 0.37818740164612075, -0.2065434073749237, 0.190263839433594, -0.4813427707819372, 0.24886135542491228, -0.256449611465829, 0.23034789241733986, -0.0998053067446378, -0.12582113270438702, -0.2835174315047431, 0.1284471648422065, -0.49426627028183356, -0.43822959227858466, -0.4204373922247175, 0.3966538284534938, -0.4870918083343016, -0.25863620394630227, -0.2751548667094882, 0.24889943084493257, -0.20186507603772103, -0.21673629875449424, 0.16033671116983167, 0.2452704041934659, -0.3998165001516295, -0.331531191355921, -0.17494667523799154, -0.5105225292223853, -0.06768181391224494, 0.43788773794825736, 0.012644327081014291, -0.1399044810789927, 0.2729103597600932]
[-0.2329602014947971, -0.16799971103092576, 0.3872176352425011, -0.4347386883408406, -0.3347485841120396, -0.027058030457561697, -0.0481518699757534, 0.4479597971624154, 0.2644774571278565, -0.22927504753081024, 0.4421724294032254, -0.40536844316779697, -0.5032125877219542, -0.3301767068734457, -0.40052188255866344, -0.17629881595081176, -0.32592649979262434, 0.30834202174426395, 0.45842285551416734, -0.20632006599313424, 0.23043420904253933, -0.454081719340477, -0.05598079388140452, -0.06485522525420759, -0.11179339809818874, 0.30811214003635895, -0.4685364366423905, 0.24780999767943082, 0.4310900086890834, 0.26536701767815735, 0.23165046411236112, 0.4079706225133396, 0.2432134173834512, -0.07333425088757345, 0.43265012290331223, -0.1379211237614572, 0.28389220733231973, -0.10949625190825595, -0.40133557831086686, 0.12833462958140018, 0.10477496810272661, 0.07125382284995936, -0.4657701416376481, -0.24650770704972658, 0.04651651849493865, 0.15522288071191667, -0.3108047384961396, -0.31595470443788587, -0.022704288087104736, -0.11340811817750927, -0.45733395211899297, -0.012087435669715955, -0.24713795373364392, 0.2543478477887063, 0.1688478148153504, -0.4216173981477159, 0.39790358964891237, 0.16007060942299958, -0.3615048548813476, 0.26407466576359184, -0.26007356904577444, -0.26139454181540717, -0.3117726276565645, -0.08238618645071702, -0.4852181843669563, 0.19733355138756864, -0.09641673421972281, 0.45955359247140204, 0.42950923109180555, -0.20487919893639056, 0.13548907702688645, -0.4930231974863153, 0.37973630047811635, -0.3104513173080006, 0.034495698108972093, 0.15108299029890362]
[0.4622287441436818, 0.17728293750765814, -0.4477225474013277, -0.24904075126365857, -0.3281470124691106, -0.12040251647377295, -0.09484005366961874, 0.22361139683290965, -0.07323554517060171, -0.12539455703427854, 0.07612326135804465, -0.2893446844668704, -0.3308734690860386, 0.31430634531643525, -0.11684282083447936, -0.34543231954329584, -0.24685682417235566, -0.32249017013422787, -0.3158847047000669, 0.08479469481283473, 0.45266471613644604, -0.48270721879682493, 0.10424320933967543, -0.12649169630999327, 0.26434394771675396, 0.049929953015098706, -0.42019357212886577, 0.11252778370534798, 0.37793753659805585, -0.4072314303883003, -0.17299145418722345, 0.18129123278601794, 0.08203040376953726, 0.14119673284099157, -0.46625222286345824, -0.3966802912618332, -0.25782148042157177, -0.24368845789988858, 0.24495000947016507, 0.18353626583116878, -0.3470346747808312, 0.10313679642879511, -0.35301580979107766, -0.2121186261964061, 0.08565610741735924, 0.16284750034840295, -0.28960966827527285, 0.36033487361511585, 0.36647825551088525, -0.34602922844878625, 0.15380200291792304, 0.2712034095631691, 0.27720891296822947, 0.21587064221055668, 0.2885548232489288, 0.10025641652849984, 0.3617857314396167, -0.46610779455459256, 0.27307725702660024, -0.37393502069637424, -0.32906365263286036, -0.10753822536429951, 0.02022537711133354, -0.17824390829037778, -0.2592908864848481, 0.13662334612677812, 0.2977281253998426, 0.4023605067253989, -0.2109655492737768, 0.24618466977425063, -0.28068266108794326, 0.06461264554004044, 0.21130153900958665, -0.035163578784009504, 0.4365324731757866, -0.48430940393816296]
[0.43311942796313346, 0.08103184715282379, 0.45223542567867475, -0.4460682979076682, -0.3088962496424748, -0.12401900922169529, 0.08544319102781907, -0.0014231108099140315, -0.07528192102157909, 0.1296931189128577, 0.09377566759055535, -0.07164516073016057, -0.4592452841215787, 0.3346593289933339, 0.24014058656794934, 0.19995926682969628, 0.2313519005594876, 0.1808516336005443, 0.22705816500719667, 0.18639608870838212, 0.2620106186222409, 0.127887802879106, 0.051384264841629015, 0.4166981078141053, 0.05522328119625464, 0.07204643127299543, -0.30468539300988096, 0.3019781803858977, -0.28144489467167305, -0.12216466002139631, -0.3929142950640828, -0.3092274342770079, -0.1828025586704005, -0.25147446832790193, 0.436090263042089, -0.2820428278253274, -0.47381585017192823, -0.17179726320545435, 0.2031700215454088, 0.3058213160723206, -0.20856853593623031, -0.17825574320226553, 0.31194211734198624, 0.3201660682455235, -0.038979666381676416, -0.25801297685101826, -0.11487338321114066, 0.15478010908029255, 0.11388287110709637, 0.08902152874451212, 0.18285724398391554, 0.2703990160732218, 0.46898585922640734, 0.17758345333686645, 0.002044887080214319, 0.047597317963412045, -0.2852347611590385, -0.13932462454634417, 0.301537393711722, -0.14906736673703785, -0.11219903735774168, 0.42187894786675073, 0.18951055907926195, -0.3885974399704212, -0.25008545041472124, -0.021939142778113742, -0.0542014542463348, 0.12097740562829928, -0.2677051434917682, 0.24908498001921767, 0.3625243089737368, 0.3156299880294946, -0.5120104953316295, 0.25970071609802564, -0.22277330195045483, 0.20515123680305059]
[0.2980091398856937, 0.24942379685838256, -0.2713763461951747, -0.12634086967270525, -0.18267858858589311, 0.07371151922486739, 0.4234062187730701, 0.0017515309050446088, 0.16430390335991132, -0.10407418905534122, 0.020979604253473335, 0.07681750533780189, 0.3450900472921656, 0.24264751054249564, -0.07618883466095286, 0.3395943728713741, -0.21955529027499723, 0.059326830991915346, -0.43460538890627304, -0.5085020743496271, 0.39294350794112975, 0.3934433664471033, -0.25919621601317644, 0.47553826327812004, -0.023255682929093847, 0.11649626941172177, -0.4717494583920682, -0.02335507012629454, 0.018832319352142843, 0.3684384379715862, -0.3328378290527391, 0.4202591305713282, 0.3828596311216442, 0.2758897464530599, -0.3434085922507547, -0.15720271643077705, -0.47493194312382264, -0.42650043258420384, 0.3085451262777419, -0.39931238640274674, -0.3646451390408054, 0.18185031835760476, -0.3838837628976522, -0.02937055552132772, -0.19322907709662412, 0.31441766260774884, 0.1696562114316353, -0.14510654419955962, 0.2208099608218309, 0.20595209504722195, 0.2097580777695512, 0.23769996633525783, 0.2142285361067575, 0.12605831645564228, -0.2559120836259532, -0.18703986581553628, -0.2741981757262164, 0.05007002298650255, 0.4603471019886685, 0.27487141945042964, 0.293756898265063, 0.2565566667905299, -0.03288499385368941, -0.044369578247773454, 0.0311971663127244, -0.4208612807838893, 0.2681721412992153, 0.14579463655791727, 0.2528553038114473, 0.37507514983156887, -0.4790676620375549, 0.029087213153128177, 0.14818219476505462, 0.34672540567476967, 0.05760367504938486, -0.27305978174391987]
[0.13976571063109952, 0.17565926879794033, -0.17947278799033312, -0.26927823418691144, -0.03653673368273973, 0.4920139547933497, -0.2602522621220974, -0.5022408446677112, -0.2117701563768556, -0.2695805834798704, -0.12026507654922455, -0.21983565560018875, -0.507450158955428, -0.028313595600682424, -0.43148151532926604, 0.4351224507283487, -0.4258583821584003, 0.3841830403253337, 0.15599344509876792, -0.5067421096217506, -0.007327754966147205, 0.3224164146525727, 0.46831162336134347, 0.06502376387234012, 0.2298923900802148, 0.16337674588318393, 0.32277766124265006, -0.1547140292090122, -0.1714361394140244, 0.14999565446289917, -0.10181004911993995, -0.2526334048653987, -0.11705100784075252, 0.07661758219957279, 0.31955301281905224, -0.393481905957315, -0.4215097620041483, 0.375269001935681, 0.05310732460091703, -0.10656377529379808, -0.055894446492495704, 0.4176135559882608, 0.28105555629662854, -0.12920833859990571, 0.37655053413597384, -0.011916050917294686, 0.007262924458543876, -0.4237705627025906, -0.3874289457704446, 0.1889346415365339, 0.25747762308401045, 0.029910779760478585, 0.32211349837060876, 0.2670184087710511, 0.4068283879565814, -0.08635546422777814, -0.368302675678411, 0.32041568292188516, -0.4741442475704693, 0.25047815909763727, -0.1353006614744362, -0.517834413044888, -0.3480738513769224, 0.06895089564602487, -0.3138823338779887, 0.2835162286122457, 0.2541955725954166, -0.1349269577089606, 0.29191044625630624, 0.007716456156082028, 0.07698095087808751, -0.45706294465391706, 0.017668886958265868, -0.40274171253810886, -0.33394483303577815, 0.2578983694734571]
[-0.3188587865050989, 0.36260214183746753, -0.15121425774792127, -0.4593058010263602, -0.463079115309159, -0.3092565954955378, -0.041082878669322614, -0.07646401028102376, -0.0954173717632558, 0.14209523706300112, -0.43077733158378717, 0.3189142893642446, -0.42906324098301624, 0.10170228332456663, 0.41048686270260143, 0.3230453537853164, -0.2614370977890482, 0.008645822875285761, -0.32576101883325265, -0.19334069956992475, -0.11746169256131983, -0.34984761234039324, 0.2717837730608297, 0.18477293469248227, 0.1532975205994955, 0.17314556981632734, 0.2549150610135741, -0.18864345535755195, 0.441002993863772, 0.42929603338379396, 0.017655911841414684, -0.3861237072267181, 0.03754643904856876, 0.21983036098110234, -0.17852979436092825, -0.1468455060227584, 0.44538875846792214, -0.2684232918613146, 0.05655527277864936, 0.1607177928889189, 0.3400185639440623, 0.36244135606151456, 0.19044690028717295, 0.4294469436397181, 0.33118429583299097, -0.05962732165792254, 0.19448672707366535, -0.36236929038004867, 0.023163406376461627, 0.2654547661181226, 0.46363173200702634, -0.1529776026491433, -0.30992365371639596, 0.2672811286909208, 0.19174172232174375, 0.40052275144963945, -0.5170866776128312, -0.3104463644254033, -0.29066471916570896, 0.37937907652532926, -0.32003315462943044, -0.021759686415820656, -0.4709512754805492, 0.33662903687708484, -0.42144469157650255, -0.23543462018853414, 0.004201788280128734, 0.24588401599570742, -0.008734855629783341, 0.08945895877824404, 0.4713382748385536, -0.22869921245507688, -0.1281933018762628, 0.044520789576404485, -0.1768959411341744, -0.3034140999943877]
[-0.265418854195234, -0.04690160476817847, 0.3022140150111164, 0.04600544409851368, 0.003928812569612751, -0.2642705709481662, 0.0098422408456524, -0.22464562449403025, 0.36271768749947997, 0.2984870468631794, 0.3034422447490292, -0.3078095784524085, -0.48750198684505697, -0.10744857256108815, 0.4029801041032044, 0.38075006916688914, 0.10185676515079281, 0.2571860086550226, -0.31713806245385284, -0.03165636580131682, 0.37936625835047094, 0.4218310380623613, -0.07457672851438676, 0.04679171835177184, 0.25103043247119944, 0.11987706555549126, -0.14898308423934703, -0.4614467326432743, -0.2793524999144354, -0.004761291567752729, 0.2680464295244438, -0.36106061037076137, -0.08238254415528702, 0.006357285562465057, 0.4125450537450911, -0.35951598933112117, -0.018094344909036098, -0.5035152090872472, 0.39641654062987614, 0.1462377391583036, -0.16035620051363053, 0.14525629858706765, 0.004069254493629496, -0.2250699802288559, 0.4148818886387766, -0.45864830374203397, -0.2052868182918663, 0.051303359868742696, -0.37629698608388396, -0.14062259745058, -0.2333601177762508, -0.19668831238269271, 0.3100659262890006, -0.11065553701819351, -0.07911202383836975, 0.06507390426163868, -0.13721697721478116, 0.44917952509710635, -0.014689150796393387, 0.109666884426115, -0.2583898462844641, 0.338784725569687, -0.29269974261227305, 0.11082470223657535, 0.30937013526696233, -0.45363205325377, 0.2935987911444236, 0.1528592223533522, -0.3667683901654714, -0.05391162308341341, 0.10694491911615386, -0.1119025411763671, 0.39689547812253767, -0.03154948636209089, -0.3938292348547753, -0.33933140998160266]
[0.3403391892137497, -0.27971728500954207, 0.3568089275559642, 0.4677452861116006, -0.060737423253250655, -0.5050783267175893, 0.4734305945592648, -0.16926862694095945, -0.1136930602360762, 0.47522756042400033, -0.31842028840580766, -0.23092624278154833, 0.4487564781615784, 0.043042568978034976, 0.21466074362050688, 0.054650410719868, 0.021829693925571984, 0.088139125132162, 0.04778607856255247, -0.3866847751145084, -0.2508452252736125, 0.07515470450845887, 0.20004212867213736, 0.4577400052374421, -0.4919679377379072, -0.24303490375223818, -0.2038517592783795, -0.056648567823064946, -0.3518214583543112, 0.13057647663295613, 0.4519401103812442, 0.43469968539326753, -0.06958326694470565, 0.3793706453940669, -0.14178844694423082, 0.41971845826783805, -0.37747253906316025, 0.09583924901949095, -0.339283061194664, -0.0075487956710703465, -0.3157328248491463, -0.2629036519424849, 0.048837627483063514, 0.3936564486399821, 0.3142434665929299, -0.46827162780863285, 0.30367919677723326, -0.5289583350771052, 0.20732718337773534, 0.18058079712580197, -0.38740813391634465, -0.07761972454416087, 0.013010737355983787, -0.2296467260000383, 0.40104305931761164, 0.3046252880916153, -0.048184183682517465, 0.12941447757351665, -0.04807175586975063, 0.3740034962925872, -0.01742792934034817, 0.29044111194782535, 0.3241529814424374, 0.3894606994626418, 0.03149249179609604, -0.30516686061141246, 0.3746352321880748, -0.10524527363209625, 0.13592725039154235, -0.009475158322948755, -0.07240533864978071, 0.45990672665660537, -0.3111473593439678, 0.4548377184329375, 0.05807864298531212, -0.22817544857321892]
[0.219410476228397, -0.4491186968276402, 0.1520022040197416, -0.2593530077579021, -0.5049997223891732, -0.49090021857449173, -0.047256008737151106, -0.001980898397250404, -0.5176607467684707, 0.23448241991796803, -0.06685074554511673, -0.47382188154561883, 0.245070015077675, 0.3203975232788665, -0.47182010961277737, 0.37611029548474045, -0.11937605445841164, 0.4521763476159998, -0.054033240541626185, 0.40376861379531626, -0.5138709471656664, -0.060759839934061775, -0.09522305394103035, 0.41714812561717807, 0.10773307870268926, 0.3785613556360203, -0.3901805827317489, 0.3974145274575101, 0.030092508701026935, -0.4611548672518925, 0.3575743826817078, -0.08003322908050364, -0.3697628686967801, -0.17653158204484568, 0.2786486291978992, 0.33283452200121116, 0.4239145383791407, 0.47152351855806646, -0.0959237267616834, 0.14300508286733052, 0.2014724655139985, -0.38754609130631024, -0.3344501339403415, 0.1070442008154936, -0.033791732045222046, 0.37087844567134814, -0.02577632053571975, -0.13144892412700415, -0.10102144651348265, 0.43346645357947977, -0.09759191041966825, 0.47216608551315364, 0.4263489692697962, -0.4090549412206039, 0.16516664298060432, -0.14783551501284425, -0.0748325143459955, 0.004513393477902134, -0.39549580186840755, -0.12136716459389356, 0.10110119467226447, -0.4007975181765722, -0.33140984570237403, 0.2873037918038278, 0.09417645738294006, -0.0817973927655307, 0.09587795272840909, 0.2630178692883318, -0.3734552214493504, -0.3161732703012565, 0.28756087267198854, 0.36200900459230195, -0.04283058709480066, 0.03599668845669117, -0.465459764149101, -0.07311219259659205]
[-0.44148295138420834, 0.016228881521191434, 0.2675097267020163, 0.19260214680513177, 0.44016300669738007, 0.4100287676738612, -0.2788321671542063, -0.366444458789788, -0.3582580488130229, -0.4279251280556414, -0.47499640355047784, -0.46190620630427937, -0.3751144831113098, 0.1491987711411223, 0.28549747039063694, -0.02553825167201222, -0.37115139664044833, -0.5262657926527488, -0.3424856309642932, 0.036156068365028333, -0.18770137966743636, -0.3542793236837785, -0.2512897066546286, 0.3932315579905693, -0.21936317117736615, -0.1972797954819927, 0.14949769582845587, -8.953194958560258E-4, -0.23258496279405158, 0.034239974949153276, 0.14756066718763114, 0.430774749654719, 0.21094238853296113, 0.2125739756658363, -0.4656247999211134, -0.1005731507565308, 0.22963377761831938, -0.05157191845186348, 0.06070208455000278, 0.06292432144519705, 0.3301331047572331, -0.17500392656185917, 0.2785894241381595, 0.2989994597064841, -0.032351645666712225, -0.1000844712597161, -0.29320999920643126, 0.2664208235773439, 0.3503574594255298, 0.14505641765058977, 0.0033784875783582366, -0.4425108778061327, -0.3610770325135629, -0.4037767571451687, 0.07276301765115373, 0.2513835808731999, -0.010429122303974117, -0.1987271374111924, -0.12393930192880996, -0.3471394866860659, -0.3185122128326208, -0.49206823699336244, -0.4743966032407549, -0.26472916948134523, 0.05510228761121983, 0.24860495211576064, -0.436303480072585, 0.17884209829528916, -0.20515209411090277, 0.08590936922401365, -0.27325905139693685, 0.40961241171921886, -0.0569624351688739, 0.2212555837154801, 0.1513892587573156, 0.23870344484826742]
[-0.30256864775407133, 0.4385832954288107, -0.13245473693299958, -0.47547091810022446, -0.45735545382499493, -0.21483198095527056, -0.3003368252339327, 0.32302749674035075, 0.10414169461019589, -0.13365935353676558, -0.2093365229389505, 0.032973953072324584, 0.32454613887680844, 0.3530216312306976, 0.19080569361906044, 0.23891542420462555, -0.4448240092493889, -0.22175830496184135, 0.15120803800366128, -0.08524689515876833, 0.3809157848373717, -0.2385137496577351, -0.1142425939983552, 0.15114368485264118, 0.14359035430983663, -0.24769722338235195, 0.07100975349777038, 0.4066141993934788, 0.35962735959611186, 0.4279330802576738, 0.04099263101015595, 0.2788268221322807, 0.1903198224635315, 0.08131836365291313, -0.4314148134207872, 0.46153014046732527, 0.1704120699640254, 0.2199030790824344, -0.4694205808327048, 0.03665346350396611, 0.009716764648003934, 0.09621891492239484, 0.009677730833389912, -0.26173833269176583, -0.33475051605924433, -0.4349483423496857, -0.2569412315413029, -0.5022799469209989, -0.45743323832924565, -0.040615329646593194, 0.294534734133774, -0.4828900140055737, 0.37591108856850053, -0.3079665707058043, -0.07221454443866103, -0.4167441720426558, -0.1269936869354977, 0.44147546765625373, 0.31444808278127356, -0.2366187927714749, 0.42840222075930645, 0.39161920679169204, 0.08801472571589801, 0.31222542704011935, 0.3332030357386811, -0.12508275844043262, 0.1355299481691257, 0.156974192832131, 0.11876937859051753, -0.49505181018587346, 0.1734107243102116, -0.13295967675631204, -0.1318919133228891, -0.13359624542214474, -0.1078844956131781, -0.22816806064649936]
[-0.3317175811361317, -0.21864335739246044, 0.4288139145845692, -0.44412455119455974, 0.20134640905033788, 0.4691732379100795, 0.49319648999072274, 0.3625869385049905, -0.11977187128194706, 0.4270537719281639, 0.4331044465078713, -0.024360025070922536, 0.39590631267257903, 0.054387708910628524, -0.1679472751666078, 0.18667768529154533, 0.4489693042646828, -0.18200535298760262, -0.15454472778861245, 0.43000314525530786, 0.4737387778697589, 0.053295123421927715, -0.3125347977194012, 0.2555213593746867, -0.40882155006963655, -0.19258820148769848, -0.0669152159684169, 0.04059684457739049, -0.14073714360218278, -0.02008372097804463, -0.2825526374106427, -0.45736330540916276, 0.09101403562642021, 0.033792981643896755, -0.4247931896828158, -0.19362398113132573, -0.521720448594454, -0.09211433303727254, 0.19939714373868347, -0.3678154163230173, -0.3380427958687898, 0.38664010319216113, 0.19076552065649022, -0.48784864089587515, -0.4773693810692768, 0.15243276149305754, -0.14185450875239503, -0.17051918908391817, 0.33880197898738706, 0.012385205947445778, -0.17051178515877888, 0.38545933750602474, -0.16183525534310075, 0.43954265654058344, -0.45220182975188283, -0.28066650323864994, -0.12852844663631832, -0.4887212135444086, 0.2399167569341983, -0.2916182836858607, 0.05875411311795118, -0.505247376743752, 0.03500299728473545, -0.43999877133387, 0.4520689523629711, 0.16787110699187657, -0.15371228604401643, 0.06317004083824591, -0.40344350657638606, 0.22827555364392607, 0.2517813624153153, 0.11226761754460503, -0.3805762591909771, -0.18295395710784496, -0.09038270616329391, -0.2257944867549678]
[0.12914016444121607, 0.17625884556621824, 0.1441147931586898, -0.11780279562523469, -0.4325433566389183, -0.11401991514527486, 0.28165420185917395, 0.38651057743627526, 0.08911260453965032, 0.14329498144839053, -0.1200714250711304, -0.17363179919223862, 0.36904062538799237, -0.3789163771754699, 0.15345066254557896, -0.03817674934128066, -0.31003378618079097, -0.4055167228451253, 0.15694750613605823, -0.3616953948441547, -0.34551171034203526, -0.27261862000984355, -0.26738530198489185, -0.02010256615214178, 0.18430497584111197, -0.02289180586383029, -0.28721482558461575, -0.2525231285009505, 0.44968388079413507, -0.36215251520234126, -0.5144229993309334, 0.24176063480881216, 0.25618757812481907, 0.405865030115099, 0.2202228419031057, 0.3697297354143595, -0.2497233193196745, 0.2876343818824375, 0.037959660450073235, 0.1528379283808684, 0.23753654034263452, -0.4840056361418142, -0.3977385761776241, 0.1557759897313063, -0.15404857609452358, 0.3693066175505305, 0.27049501091416817, 0.19567808282515053, -0.04725007456566696, -0.052634052196791486, -0.09157102627806019, 0.3204593253338051, 0.15329608484344143, -0.16259804812484424, 0.1755523998153625, -0.3948300619479727, -0.198602385834933, -0.08985496294260754, -0.4197254610648499, 0.45624384253122163, -0.4352796713969122, -0.20571982713287415, 0.40483080625944545, 0.3649556788277941, 0.4123075870063634, -0.46113112740163903, -0.3130282074043791, 0.30787503892571577, 0.3049006213452376, -0.35384141690708126, 0.10297777753728786, 0.12841173638176462, -0.38210344402074536, 0.46552300520788004, -0.48742238564807694, 0.18354011694666267]
