[0.79444836721297, -0.5281341936344514, -1.0514695847176625, 0.3424089223260892, 0.44042446264538937, 0.8099524347631265, 0.4456075784762826, -1.3286139394218446, 0.22459105446060468, 1.2260119791324697]
[-0.7576309476671677, 0.03579816992902378, 0.2171935532958276, -0.7086733545236563, -0.08111989425519948, -0.49493020423496126, 0.888005296580243, 0.6010940739491503, -0.6975260317914336, -0.3264720114301109]
[0.06949273223082236, 0.13179156435748404, -0.5048350843382927, 0.09583164573785088, 0.2540110567619707, 0.09708002345656248, -0.30131655912788485, -0.27710498249451937, 0.6531271572567373, -0.10589944383841401]
[-0.2660266040204343, 0.3407660382365843, -0.6033120288756018, -0.5652251959862453, 0.5256442917166163, 0.8309884829712327, 0.05969557706824929, -0.4483266830764805, -0.04778938714120827, -0.7547536116580916]
[-0.46323754979307835, -0.08141749084524093, -0.7526748683539141, -0.1302297477738178, -0.7114795563902669, -0.3648560286645023, -0.2535031702818159, -0.5972624772672349, -0.44462992654909594, -0.618274514032094]
[-0.6889029330951345, 0.7474357742756309, -0.44683661948993714, 1.4167399934540945, -0.25932617637091415, -0.9026976159391867, -0.6411459412892462, 0.05478980902850728, -0.763305352738179, 0.4759430999940258]
[-0.5732735036066765, 0.4054510741094332, -0.5560318296630224, -0.8810161168538477, 0.4858975274653325, -1.373691196908994, 0.4990135024746073, 0.958240067082318, 0.0565538308033, 0.6642410120187008]
[0.5958002941790261, -0.84173407376663, 0.03795795940422287, -0.9420527802517935, 0.7936968413455329, 0.1283088554305114, 0.5684511836879457, -0.21646760894213618, -1.0250355729197738, 0.6795436113093071]
[-0.3376553856021011, 0.4653829387645142, 0.053897542290617835, -0.11895261935801542, -0.8809818376923795, -0.9139218144995004, 0.9973325828975447, -0.45050423540669643, -1.4295785470378795, 0.1715910325210846]
[0.3646325214253494, -0.8810005107725167, 0.034068819428696176, 0.34738242708848033, -0.6330112180702896, -0.5160699268288415, -0.451247935002369, 0.4155245155936146, -1.0661677831813057, -0.9772399734896626]
[-0.6697454256234331, 0.1676055726638002, -0.5327419759788403, 0.19609412806960871, -0.5304182336068357, -0.6209777551507739, -0.4572185714089174, -0.4528100421230514, -0.9549553228963418, -0.5953602721502379]
[-0.08392557129220359, 1.1187232019617432, 0.06442840506249026, -0.40071987782319846, -0.6689450312869681, -0.8638948426340525, -0.27295642026900835, -0.5107047304074742, 0.4509996424190167, 0.6752659875843843]
[-0.13382159735937726, -0.426233997585298, 0.16537478350886767, -0.019065681322739763, 0.3227270159583272, -0.8537849643258194, -0.17239656654643085, 0.5913678958665008, -0.8691615909917254, 0.04147119810282673]
[-0.04522859963930463, -0.48359057032266867, -0.4055104858511414, -0.7013110301633836, -0.9229608014896153, -0.14456670302953809, -0.2786465277953492, 0.9214859044257744, -0.15131794898609352, 0.7032034987106507]
[0.5718816920943673, -0.7669618546649803, 0.29086759787600536, 0.11112485839356617, -0.0963518095998764, -0.29415269933203236, -0.5520460766027084, -0.5077212457116895, -0.8359505080057329, -0.47437377531110814]
[0.4873893384915593, -0.8929118089311027, 0.4699922708922024, 0.4468784300721533, -0.20043517257622667, 0.1892558187086193, -1.1599559449696752, 0.004818031963890343, 0.5906147714494099, 0.08279192145606397]
[-0.00948564582822793, -0.5298993390446296, 0.010768737796212487, -0.3225806523609858, -0.5408936471643404, 1.0577276755914042, -0.10001918583007942, -0.9721544613160763, -0.12453580020850963, 0.1944596899035844]
[0.24269568876932035, -0.5027560950128748, -0.3221021271034788, -0.3522948579004336, 0.137910581356522, -0.25934600177222406, 0.2434819790897598, -0.1248997272416005, 0.02572838605055686, -0.26488479883201665]
[-0.5230808320734908, 0.05299063803173503, -0.32616132808561754, -0.9869249964199883, 1.1091782717459928, 0.034251009009535996, -0.018069956951805806, 0.7434302085726249, -0.21865615401423538, -0.00440577836869838]
[-0.1501366234421958, 1.2491283809519627, -0.8439813526022308, -0.9843287160609417, -0.09611309362160544, 1.3909628909580345, -0.3841873595322081, -0.43780584502014314, -0.6295995896439472, -0.004356876965574914]
[-0.9325169895006221, 0.8961478231268287, 0.41862038907958005, 0.5800315346539013, 0.8607531914864525, -0.7644655593252838, -0.7405507229064703, -0.5233537427081361, -0.9755371599300707, -1.1394967222921473]
[-0.534518851097365, 0.017844402067742553, 0.5261032206121199, -0.2553295595789906, 0.6030773567480797, -0.11383588401552011, -0.9447029944513082, -0.8656893806343083, -1.0993502796065853, 0.9596400159254164]
[-0.1716788534457498, -0.4939073201521296, 0.4095616380371064, 0.5057903176573701, 0.5052795889114947, -1.398076626405138, 0.0022925331293758536, -0.8257613072894725, 1.3246753667148043, 0.8011503748057637]
[0.4538817799831838, -0.4709988282060202, -0.7029663517563687, -0.26860029840219846, 0.21477657413505602, 0.25752624119780165, -0.9221766350194949, -0.01830364095328747, -0.26244747056843043, -0.14368189820415678]
[-0.45952143636758036, 1.3743577153497688, -0.9549312272956055, -0.8455237139735962, 0.35962795796574354, -0.3851839379367629, -0.4979766692104866, 0.7465312819478227, -1.3822884685618138, 0.027236586516620222]
[-0.5160237053130807, 0.21276846866564117, -0.5110274741689123, -0.3297950548411782, -0.6216519763460798, -0.420628224215595, -0.4871990636669552, -0.13482616838865602, -0.9139480260793493, 0.039020677869084405]
[0.1375650376921805, 0.5275082818784674, 0.15533292567163334, -0.5135489788964721, 1.4366855201708155, -0.6142233121299013, -0.669600036773705, 0.26611294185038975, -0.7896997502288724, -1.186502027430826]
[-0.9433598987467746, 0.8303082427939965, 0.55573574621149, -1.2721750892712806, 0.2593627616169723, -0.31159571820986365, 1.0528121913384927, -0.7999839095788204, 0.05030377503062812, -0.65867371968806]
[-0.4121167083112636, -0.08660391611643493, -0.07004083932067118, -0.8157196146665384, -0.1849494129182407, 1.161710898777407, 0.030227054665006137, -0.16116712320645646, -0.26017948094350213, 0.1561668360703123]
[-0.5987072194240018, 0.4521939884887214, 0.4768187946885276, 0.1979824025756413, 0.17348932148886337, -0.6950626502937014, -0.9246098795011859, 0.14386549138625535, 0.5519285748417054, -0.5099094586222107]
[-1.1193818005938376, -0.06302422259799559, -0.3965858141038403, -0.14730225293454602, -1.4284930042274766, -0.15132523940720813, -0.6401703035459821, 0.8223494373137227, 0.13399581774848587, 1.3144625659829652]
[-0.23345489040077821, -0.46663202082781247, 0.7185565982035094, 0.5992127816177011, -0.3841218101308554, -0.4763308928958143, -0.5416501319675484, 0.28769954653797425, 0.3074945800754407, -0.6020811187148406]
[0.741216020174643, -0.11370094932565018, 1.0713300550743303, 0.26773417797134047, -0.2736325292110533, 0.5833873344013659, -0.9848624495763713, -0.9010271912361573, 0.6452999430750125, -0.2087455405909262]
[-0.04269639194496342, -0.16743631393432537, 0.14688950635432685, 0.2936248826488103, -0.47811931529552426, -0.443110224966841, 0.3225082052442829, -0.2136734395684812, 0.12027331998865644, 0.2017264665758863]
[-0.6119839618542757, 0.6643878665306109, 0.18009858291718822, -1.1967383706402053, 0.624453818391655, 0.8624096149572132, 0.6467068237453729, -0.7920775907407872, 1.0205628333816998, -0.7454007293951431]
[0.3504375811296311, 0.1611309501407529, 0.6525579637152997, -0.5471778372411792, -0.28045307869106545, -0.08657754922309233, -0.4652430866063, -0.2918450199127335, -0.1554684243225203, -0.1369167877216068]
[-0.8877823564072074, -0.5226543721380471, -0.046435710400964496, 0.37902504628476075, 0.17322409185574084, 0.8705135800533753, 0.29482410123102293, -0.19193306433281912, -0.5843971236271833, -0.4708499290840995]
[0.8630549843776352, -0.4772724102212109, 0.38048159759213623, -0.5745673628209449, -0.4600615372400405, -1.363984993480524, -0.8289127558597263, -0.26173165712851226, 0.502684502729436, 0.44155243715073106]
[-0.09061645102545865, 0.13395223998539643, 0.1485266447143235, 0.23183139702966962, 0.1789268254459973, -0.15186094484018317, 0.03312558184186193, 0.28973899582275825, -0.08532702726700526, 0.28571365495667256]
[-0.7027973148674339, 0.4692318779991847, -0.7834456668176433, 0.2972888675689586, 0.5099888133015038, 0.25194610439207177, -0.2417628417302711, -0.38208047926963157, -0.542176162834202, 0.3472171252823572]
[-0.9388937968029059, -0.24592320611246937, -0.2511791278321035, -0.48806593577138757, 0.7733191843439785, -0.04621985750555867, -0.6838702672255925, 1.028003139894479, -0.558173159659445, -1.382112785542926]
[0.15788762458458933, 0.6012292365106475, -0.30473965733079794, 0.5852359004102402, -0.30619116758494863, 0.38191133425968704, -0.6553584193728855, 0.7022761699930046, -0.06335234442567685, -0.3249514481244995]
[0.24271077462156976, -0.3605017129242159, 0.09183093905038368, -0.029816481458157507, -0.6373062872481997, -0.7335241888347062, 0.504274249827231, 0.2885985645738556, -0.9924280351410738, -0.31706928717716293]
[-0.060146189000301414, 0.3889521192097365, -0.6836933046957149, -0.5936455435984702, -0.7054355448025941, 0.9994474535147383, -0.025514357462772166, 0.715130548918301, -1.2627924096877254, -0.26445557927293667]
[-0.31306761964805935, -0.13427392308481206, 0.707013728635605, -0.7456607083043174, 0.9392561350803742, -0.01252196688644575, -0.33676937035848836, -1.0095549271140984, 0.8973541473789425, -0.5218034695209166]
[-0.9918892311299435, -0.12173947844578185, -0.7202762685449239, 0.6773648292049015, 0.7738063448511086, 0.4847640036669487, -0.10144735440839853, -0.7251986774138556, -0.5999156112991357, -0.820720222809187]
[0.17828478262976805, -0.5640487038327369, -0.9618309756982285, 0.19290990357766524, -0.271983058626679, 0.2280739075536234, 0.6027411247822457, -0.7153180303454443, -0.07731875735674595, 0.1241951440447741]
[-0.22932104338816442, 0.11758545549449015, -0.26533541996740073, 0.17298617211807998, -5.73651148179858E-4, 0.11456862702322515, -0.34392896480419577, -0.4703558022888844, 0.08643315019405057, 0.3705895806942585]
[0.3327387333523617, 0.008618808129894661, -1.1458296997113644, 0.8913231434357661, 0.5217009462855454, -0.5925282050291927, 0.8059659647524481, -0.8119837686546626, 0.6565813497485266, 0.8048941937606051]
[0.33576905415536423, 0.12724485841375754, 0.006532236323135997, 0.41542064351369373, -1.4315768592222498, 0.7421499629450121, -1.1021191372562198, 0.6153838986398092, 0.9316500190152294, -1.268201156238108]
[-0.12634738841932522, -0.358756809396548, 0.09085358097326998, -0.14615729329516236, -0.7654598746397681, -0.6168745153267908, -0.31911183917435815, -0.48968877215267037, -0.24005607430868817, -0.5576588989552393]
[0.3628315961863545, 0.055076301046922765, -1.2496357310882424, 0.3413280829596723, -0.5774640551925466, -0.22148922482168984, 0.4376776537269819, -0.011829938312805823, 0.39685544040506265, 0.8111059772284661]
[1.5784107211857141, -0.6100593420715276, -1.344204749842154, -1.038264197907506, 0.5850084892064031, -0.13301285822714282, 0.7653873226774933, 0.02895009580416288, -1.077268822399265, -0.3139015291290459]
[-0.7966601046728146, -0.9691817228361527, 0.552462727026905, -0.7103410415930526, 0.2506571855947214, 0.7624801903131452, -0.0847402862171022, 0.17768060385977635, 0.3702142191806155, -0.0061795261302793544]
[-0.29607050238942295, 0.2096085422594543, 0.17080283584880238, 1.3879275630629002, 0.09771286094665212, -1.1133335675409917, -0.6112549555221556, -0.6951058451427689, -1.0896118585440004, -0.2800775527717908]
[-0.12073872534418671, -0.1676101978885043, -0.8708975023718832, -0.2519257522731778, 0.8318846754379726, -0.11356705609892626, -0.7001055280886858, 1.0727932599028427, -1.1564191072372123, -1.0030490673362342]
[-1.0056047369144825, 0.6448008947940546, -0.295914175362754, 0.011463184167948927, -0.8340211034987726, -0.5026880799267497, 0.09180913875014295, 0.09685522893896951, -0.6242422437936986, 0.8925126593503935]
[-0.7678709969859033, -0.12793639014247005, 0.41856072573479164, 0.027887442733195697, -0.3911945290284439, 0.03388064092259253, -0.03221231016558471, -0.570782286137167, 0.12690072970200528, 0.6950883960418578]
[-0.3121741964652649, 0.32673896191318913, 0.4365598501500448, 0.29892805337433676, 0.0025710817715227153, 0.23755434475444806, 0.34221772459813216, -0.28047899878681104, -0.37834647269315924, -0.6388009488040622]
[0.8774650452892918, -0.5391138964014457, 0.9667619799032082, -0.23946244302268008, -0.0989929516034523, -1.4493062854373084, 1.0549030739532566, 0.6249945363795849, 0.7965753668410034, -0.7093916574028678]
[-0.8731555671885779, 1.099717660023477, -0.5590560271199011, 0.2978702969436939, 0.03959925029231807, -0.464468535982366, 0.5398216119206144, -0.6277534749408891, -0.6033715470685842, -0.17618803632587002]
[-0.2045977899008355, 0.15804560687210378, -0.4955016457932402, -0.3237402296695533, -0.4384294623958003, 1.2340043870532016, -0.1374614063438228, -0.0456280339770206, -0.937360429967213, -0.11089949349995248]
[-0.10899233879579669, -0.45322934296252554, -0.7242604321259143, -0.6703996148440207, -0.16886050429974478, -0.06674479341901013, -0.4328739856592181, -0.3274914495937924, -0.5536312029952067, -0.6341879998289723]
[0.4939074377054753, -0.7714131759194829, 0.6436957810013065, -0.49140023970432356, -0.1808800003782814, -0.034679800082631954, 0.6898118147799531, 0.763974928530217, -1.2197046883227969, -0.7781447640040379]
[-0.14475809467309955, -0.3162299512762725, -0.8709103608433417, -0.2773558020654427, 0.21062402565869326, 0.5351915171757085, 0.7900422331966591, 0.18790821337002392, 0.4043207528435179, -0.3146148322831034]
[-0.07038183648325094, 0.17495781518541, -0.28036004953943205, -0.4342781315049901, -0.29882467966700904, -0.41655188148076167, 0.1415486830752666, -0.06396303212846328, -0.05952701070525832, -0.3427479231713225]
[0.04853524088088491, -0.2913768826180869, 0.9519256783194813, -0.9838223133499912, -0.5038434463924946, -0.28071656366592473, -0.44463694083237076, 0.7559173074612286, 0.6743139976625195, -0.2637188121023849]
[-0.19310831245552973, -0.22849371994034562, -0.0453492977909082, 0.9301739465923503, -0.39608409174186243, -0.048108816465319816, -0.5912199638423088, 0.3258497141664081, -0.5690147132976676, 0.03375838176791618]
[-1.6001306900467567, 0.06346745139114958, -1.3308041254319873, 0.6138828934835325, 0.05334797532632181, 1.243680043864522, 0.6849779883220839, 0.1001528921204415, 0.7777107464013688, -0.5667072640009344]
[-0.41506858157773024, -0.03042867143264906, -0.4522727830736696, 0.07099735262835113, -0.40755893492880574, -1.2066973518055173, 0.13060455479520164, -0.44915665471291777, -0.20947353315831824, -0.6000890706128708]
[-0.8722074960299222, 0.4400243749014749, 0.4287175484237829, 0.5883744292169385, 0.0199360728098118, -0.3924932927484428, 0.7588932173705496, 0.010665845719558913, -0.32122237221698147, -0.35997653621705916]
[0.05440996034366324, 0.2116688490638884, -0.22470006104758372, 0.8336206596081837, -0.3390575819626877, -0.14150037683723632, 0.0532834389689228, -0.18505519165709583, -0.707565357918147, -0.42929453839971093]
[0.7702101992164146, -0.5948882081154366, -0.7747781757261133, 0.9521585044379366, -0.6759676818127015, -0.2834686583271974, -0.7465347884122743, 1.0375676258789805, -1.0275561221365737, -1.0538302328072864]
[-0.4749097695699642, -0.30625417686036005, 0.52612187501906, -0.3883907799430845, 0.016106395637724487, 0.023756125938585098, -0.4459444603333266, 0.6289012953033603, -0.40618189504277036, -0.2693298526974072]
[-0.4063651197243864, -0.6649683969228055, 0.3154274010998176, 0.0851965830336783, -0.9062050352296164, 0.3757517127375837, -0.3184777288087582, -0.05357540254721385, -0.3788340494237767, -0.2160889356291587]
[0.15474052690203216, 0.09543213358048021, 0.8468338147536898, 0.49603337793351826, -0.7057550351959917, 0.36070233854343337, -0.8001868891940587, -0.6698944099495878, -1.464301758669801, -0.7696083018049614]
[0.13463990158858444, 0.7025965489932252, 0.3686022939433368, -0.35721013700097265, -0.4380401125627993, 0.9600429043782884, -0.03747894817084186, -0.20170613475741564, -1.3304430103683873, -0.24901471919353274]
[-0.16850750191262923, 0.14716213086372879, 0.2029973958604519, -0.5234208656620242, -0.5179487950152387, -0.5794695208072779, 0.06653195464706593, -0.019262323159846714, -0.8764394837793613, -0.01588027105438073]
[-0.8264458022730156, 0.2521018649180369, 0.36798594382949773, -0.19338827897743613, -0.3040429962804584, 1.3112584093281325, 0.25170363072564494, -0.7375850672709285, -0.39137491522346834, 0.20612918095398253]
[0.6182961149331455, -0.7135571390615595, 0.27994328306061345, -0.887836034542178, -0.4471596475626746, -0.07640344450984256, 0.371688560604069, -0.40244907381530004, -0.4193414923892432, 0.7497502950187208]
[0.14781377355232858, 0.7344787974734941, -1.1560590847874606, -0.5329229037346275, -0.2338466998377685, 0.5162215715214413, 0.10314210916062459, -0.2782785823794834, 0.3965330907798021, 0.32500416638973567]
[-1.172067826373052, 0.33555102985518, -0.6780597874927231, 0.06038774799128659, 1.7825845775493268, 0.08957846084115499, -1.6723363067897732, 0.9246979287619259, 0.24261697974603147, 0.7207556685990025]
[0.15912222856098024, 0.43774178148475695, -0.2109997719047202, -0.02849337440808033, -1.1616931655536191, 0.07949185730909836, -0.8128093611872305, -0.042782738174621165, 0.1310147479467913, 0.9091363950997193]
[0.7257313067551682, -0.5366804087485159, -0.15502850813496966, -0.21039482891944808, -0.8025666658222276, -0.5726956875758534, -0.11459367899647344, 0.2667226933288189, 0.13890962595717324, 0.25587689389064416]
[0.06446872666606421, 0.21285339105037887, -0.5337998835486927, -0.7571797711420057, 0.5193191521412007, -1.0622476861691914, 0.23904934215662144, -0.02999123117205511, 0.0341621101559467, -0.27423458062616124]
[-0.22110566318023428, 0.7589188818959487, 0.33425034742831466, -0.9827307422124976, 0.04930679877669701, -0.5081594870229955, 0.03733100242544779, 0.4758450842789041, 0.4673269612348728, -0.4851487349503035]
[-0.19603111339481724, -0.1062967931282426, 0.4831470653289315, 0.29510287296184734, -0.9324262886395603, 0.9667612854971851, -0.6175840853027558, -0.47760982831951254, -1.3793803728392784, -0.7953005712809126]
[-0.3520661070026559, -0.3747549383869015, -0.010198286643338385, -0.4221713610705496, -0.2164354227108935, -0.03401756245118648, 0.4130131141505439, -0.38109576791360067, 0.3365268041208667, -0.09590003294223219]
[-0.3353595361990923, -0.46867075808484393, 0.9033445932600774, 0.014787247368891483, -0.42562140399534054, -0.6849625075266377, -0.2986961089087946, 0.05644370265421168, -0.4703831516994013, -0.01709248606480109]
[0.5814197156847707, 1.4674282346608054, -1.1738572119448867, -0.14426759506480616, -0.227962527479924, -0.8345243633479683, 0.4834831291545904, -0.19829286348757422, -0.8319881881301444, -0.5528416647447579]
[-0.019598522866727617, -0.3221129776917451, -0.2715263759933717, -0.49200102528605916, 0.8554922304917918, 0.7784709485606841, -0.7309296053620918, -0.22533257059629655, -0.826238520933468, 0.9463872077872404]
[0.43935985924968174, 0.2195692838765498, -0.03672157787345391, -0.13961622822516687, -0.050286896934401, 0.3146828293180301, 0.06592582922560691, 0.028226722644769015, -0.4127085557029608, 0.3941703624394434]
[0.3532953345488165, -0.653352325786284, 0.3966389734406806, -0.10766234547163844, 0.335964707695178, 0.47552216960999294, -0.30589052196707184, -1.122463855347777, -0.07622055986476514, 0.06657924487459092]
[-0.17331633829094936, -0.14317802606878333, -0.5741140457699905, -0.375342890645254, 0.20787391012833195, -0.19106189029438536, -0.31292299537576973, -0.2809578803229282, -0.032532182607292695, -0.4310454958313277]
[-0.2442117603737843, -0.3310616532673497, -0.5138462903661897, -0.7776233945361241, 0.29659967193949144, 0.49774476917880983, -0.947839832900084, 0.7539653680128678, 0.3604123371951839, -0.7378063128417198]
[-0.4444712835396263, -1.123169466882159, 0.16746917004479256, -0.4375658651409075, -0.26447317439222007, -0.3118538844315119, -0.11485013311417401, -0.08151889683006062, 0.14567806260561525, -0.6632957984217632]
[-0.29834331769973255, 0.5571995811439259, -0.6845566331858194, -0.7035980651055268, -0.5803700297291559, 0.44156270566627037, -0.5500007397101185, -0.4210497203326825, 0.4447478191575346, 0.3292751976416866]
[0.12352772616900597, -0.1304659967856117, 0.6532972984079811, 0.29481743699437485, -1.1967290055189734, 0.2948943705547059, -1.015676824467291, -0.3743297220475912, 0.676705701008391, 1.4174544932513669]
[0.35032538143908104, -0.08488620897032084, -0.13570999744959839, 0.20886566142998175, -0.8536422473161057, 1.3716514641534405, 0.5738893100769483, -0.939278517303686, 1.0097800427613326, -1.013852895757967]
[-1.1634153298480907, -0.33550660163973356, 0.05268072365495571, 0.3285288524739491, 0.358089260529988, -0.5726557279796272, 0.013987852568569718, 0.197415879208849, -0.20051388778082474, -0.01871560982167185]
[-0.040599342976922435, -0.04152847748038883, -0.07963034208504731, 2.3857179748845703E-4, -0.08065304074385748, -0.061548697382656954, -0.04763057681831306, -0.005452312865152797, -0.24891093599706268, -0.09193334175331867]
