[-0.0872027899354878, 0.1552421885483557, 0.1963121163712278, 0.361499529311174, 0.1251261958218458, -0.3544175954849563, 0.05637958190779935, -0.40657969299197794, 0.283769534999777, 0.24582766497095376, 0.2225463359805575, -0.1239050323950045, -0.12426393015340598, -0.04353604504110964, 0.1445897070183706, 0.20584837830445957, -0.37233338180302467, -0.4326416452441423, -0.18514848814748053, -0.09786791405632522, 0.20954535500566118, -0.014441201154084204, -0.2080409597307339, -0.23880291728042147, 0.20969394829817112, -0.467312146490133, 0.19256053270221307, -0.03101264255638536, 0.4339361537478611, 0.15568641134038397, -0.23890852194028211, -0.03445405984292638, -0.01486043473167109, 0.3432965946510249, -0.2659674543038689, -0.37001759438346504, -0.361087574522017, 0.29555534315373866, -0.022184190979535834, -0.26194150483724177, -0.25294666722222436, -0.44529673470202413, -0.20151898287147452, -0.36629308496435, 0.272422024914887, -0.12670381989632595, -0.10362091687295094, 0.45130546063598487, -0.4127802747503183, -0.43106054341287103, 0.170665206653709, 0.027287112572705996, 0.3512380310179798, -0.005051931003665855, 0.46601935700259245, -0.15232591142683116, 0.12745534703448003, 0.04236839195353059, -0.10202296657325127, -0.0076184050043196505, 0.38943031758573265, -0.2188199871419405, 0.09344911017172164, 0.057645485891213544, 0.22826234529378497, 0.44712926609005554, -0.4605461589846519, 0.46468512015166097, 0.37645864818073904, -0.014471515004904068, 0.24578057114800078, 0.39572062852845213, 0.13186910541908292, 0.2744882541876581, 0.09624900218247479, -0.1622777060131012, 0.38691868606922775, -0.032567785269605576, -0.4115758934444801, -0.14022340929476684, 0.24668932351253214, -0.3816225664013517, 0.14309108646936264, 0.30171185258493827, -0.3460279844349844, 0.38334561233953224, -0.19750885686502462, -0.49036565396121157, 0.03023091181036941, 0.12740322141811777, -0.0697368632023222, -0.3817170128129189, 0.18849161761987965, 0.20921222992726685, 0.4762325299657465, 0.1506190687986454, -0.3225143695894169, -0.43639513767967386, 0.47563320270357, 0.3818250744777607, 0.27595375448930004]
[-0.04242084792795242, -0.2849559135742189, -0.002105566441745088, -0.42816877843968315, 0.4562451587410373, -0.08373267375489013, 0.0682518801194717, 0.43310784787658607, 0.20263378003522114, 0.3645699377469894, 0.24735208739825387, -0.29452324639984995, -0.411086297928866, -0.36084353652803847, 0.4219616201715747, -0.3435446722639214, -0.22355576136161714, -0.008564430047523941, -0.27116239334747916, -0.47351717583915365, 0.30822475969960017, -0.03941178287617464, -0.018226014369477683, 0.04456886477508715, 0.24968474294574072, 0.016141332693177635, 0.067494000593734, -0.08061234991531652, -0.10760967755964457, 0.37369500500753083, -0.20337440331778522, 0.1262831500997691, -0.4398730324095729, -0.3573520880116954, 0.0290042156106205, 0.2764703583908301, 0.4679501468060683, -0.36629034852197573, -0.36819513475583954, 0.4767885828905466, -0.09782119196430783, 0.4791849409714084, -0.025486141264199125, -0.13331721857163747, 0.21293955743375215, 0.20045973590048782, 0.21650778454221198, 0.45365899229936446, 0.24075170326978135, -0.005186019926169738, -0.3989846964962269, -0.04071905612348248, -0.16522329743576114, -0.1923678450945886, 0.3334956466512986, 0.13484456818986978, 0.06273799118181878, 0.20627714650606244, 0.3929743895473581, 0.40918749258171216, -0.43884984545979444, 0.17833862881682616, -0.19836380070565796, -0.2093383589971205, 0.22937917554485632, 0.23966267662284046, 0.4609811694847974, -0.3388837356584953, 0.13218825765220488, 0.15651400394629322, -0.3478907348194814, 0.47181006068511966, 0.042806642908633674, -0.3385814405285328, -0.30679416745056354, 0.37949053319767123, -0.46780846001953114, -0.22632180710843508, 0.0490580893078969, -0.4545502073881377, -0.10996391169217856, -0.2767542886262978, 0.3954409232380569, 0.161185662961996, 0.4492093158904541, 0.020593164948256026, -0.2445320483983272, 0.2613677263106051, 0.07769656969010186, -0.08459841602844365, -0.15448854618362928, 0.03812798220843083, -0.29925822652184153, 0.3433462087530541, 0.19505293033342275, -0.3197337819411309, -0.27922406574240066, 0.47294583204951957, 0.43783363407696596, -0.2732193403907136, 0.11384878538188281]
[0.13339075260693622, 0.4109321376257574, -0.45379568899080414, -0.20133657513269576, -0.27054095467773065, 0.3439040779585397, -0.16845175961308234, -0.4020532254906265, -0.2689241918652723, 0.4718769457871492, -0.06477685353615814, -0.2582289765805108, 0.4627659097300667, -0.13549970762190666, 0.4591306739126305, 0.3985747464371483, -0.28780437179672536, 0.12691019050518892, -0.2378133484867213, 0.1620144809407923, -0.37280595169995223, -0.10062616150165249, -0.04914154402862969, -0.2295891725184782, 0.47709054789701943, -0.24096136132495483, 0.47786889000112887, -0.4095642820491644, 0.1168996463452967, 0.2102174550697934, -0.3099600533080845, -0.44217942333967464, 0.41183026419712243, -0.06110003233829597, -0.4616809199267401, 0.33524738835686185, 0.45479129732442314, 0.4026873329039583, 0.1913520480768831, 0.42121825408264535, 0.14101106705530464, 0.12910574493843774, 0.47853582173585707, -0.17641892560157968, -0.44841668430544024, -0.19673816243211495, -0.07069421357999084, -0.30247766366268236, -0.3583021024710583, 0.34006114081001937, -0.3275182462529641, 0.04022047958129038, -0.07049054610839445, -0.3432821082918559, -0.38718241133576325, 0.13298648376924171, 0.2380427680203273, -0.2119566823514516, 0.11146946056049722, -0.07339945676971049, 0.05522882856417333, 0.3200062917426353, -0.13708195614276408, -0.02331269763168231, -0.2538891997337529, -0.14368100261759398, -0.21704938394441298, -0.1466458956295228, -0.32354523777293076, 0.37830719268024215, -0.49937112829733676, 0.1729501573141342, 0.288444812623752, -0.08991684188321536, 0.4817388792984587, -0.4703129390818588, 0.30683808469044205, -0.14095301634747015, -0.09796020749376333, -0.3590060735842059, -0.4520999226232789, -0.23400051171381797, 0.1356983279030246, -0.037136653582725665, 0.253636099619329, -0.030341996015613826, 0.12761623658177013, -0.11992326719903323, 0.4802803360712963, -0.13287557744256662, -0.022071631080511134, 0.33108127379995533, -0.16730154489406612, 0.03486189770470449, -0.21723071805755922, 0.3884228372883993, -0.2446936863748317, 0.46399545493889716, 0.14747654774069818, -0.11697809469532927, -0.3346989136435423]
[-0.44074159349870323, -0.1832808318756346, -0.3657868902224144, 0.44544799058214946, 0.3526654862591432, -0.4493896634848654, 0.22735124390015005, 0.2013596556393351, -0.40899954882480394, -0.2833167689246263, -0.4330807622619173, -0.26784811829240585, -0.02953588246240435, 0.06467944921665658, -0.3745427295728003, -0.13644646906317315, -0.18766304857874816, -0.19557984915155813, -0.09273627394627548, -0.3510053228463511, -0.09973282297609753, 0.416599489188331, 0.15070300340791887, 0.4568917507985609, 0.03280447985933688, -0.4078388441330044, -0.29591347569294246, 0.13129423361957393, 0.08405590651854411, 0.31798858806917063, -0.17252289507631602, -0.2617479012046383, 0.010849297000615543, 0.40495974022541825, -0.10360035714474725, -0.10829048239472383, 0.2965469829927446, -0.31101186750623677, 0.11332281463051186, 0.29042450410396037, -0.22033951690641773, -0.27350879910634973, -0.1310889368306053, -0.10863954906960649, -0.32032560866173454, 0.052798753185868574, 0.33742702588583184, 0.09519025669937453, -0.0970039213872298, -0.02466708201013912, 0.2392991026227277, 0.4259991190560386, 0.38870486815752847, 0.4329629336062891, -0.041249691592980975, 0.4499678886071016, 0.3367829716865791, -0.3312429201291488, 0.365518442342211, 0.09676328493096109, -0.34923238795031797, 0.3354254351278344, -0.24292061403808596, 0.12255745556107378, -0.17772806986293765, 0.1810666346431401, 0.3114192837827676, 0.1850440637800096, -0.21341995264171643, -0.3525972307621874, 0.32028311938084253, -0.11148605614035045, -0.013470745964398345, -0.4464937780015473, 0.2589606712752267, 0.20099811296078318, -0.0038494768992741735, -0.4649068254888087, 0.4410534959397763, -0.1543184259815097, -0.4239541719508825, 0.06277871051437389, -0.39470075495833556, -0.37476336810939015, -0.04076080984730257, -0.32774209582823255, 0.2864126083489269, 0.1504197930678246, 0.49924535495455147, -0.49480070451043945, 0.23303487171107917, 0.11322138460871156, -0.44864123457774785, 0.3817055278536472, 0.45326704244002647, 0.07005258553191729, -0.39632739824966967, 0.4035178346083388, -0.3081058737435375, -0.3181001462888243, 0.2260957182816179]
[-0.4782896709481421, 0.27329093245806657, 0.4960719917957923, 0.3636431640710671, -0.4065590630801723, 0.2801330947379409, -0.35188976258750493, -0.13546624064532264, 0.19939589837736482, -0.019581232225375222, 0.3126274713476076, -0.09586415889547018, -0.10311497368120426, 0.2639406431364065, 0.33828770556730003, 0.1425605171055362, -0.3568845265081071, -0.39577061870809516, 0.2648320219534731, 0.03670897025493913, -0.16100835085576692, -0.2768765795033651, -0.16099668068996065, -0.28316115725814306, -0.18414006042668973, -0.2974976699855134, 0.22141644638395108, 0.23322194041149813, -0.3840638646758614, -0.23864613167582338, 0.3078665607596567, -0.21977618485710926, -0.3982749215601228, 0.2962278372875935, -0.023736837963233115, -0.28685687869249443, -0.22943891615182133, 0.0692624075974746, -0.38567699589311044, -0.21259312112469997, -0.3525309825629792, -0.37964842576590063, -0.016649643520896817, 0.07022540547721234, 0.2828656851391692, 0.0786551721970421, 0.329878081981819, 0.40156826896309616, 0.19119136935739023, -0.44646436384640564, -0.330361527150126, 0.11433089086841863, 0.032382403259103576, 0.19613851226721513, 0.33727863488148635, -0.03718106059205428, 0.4601650815530792, -0.1597831948487799, 0.22042937365993298, -0.14581456876860832, -0.1605280216333882, -0.14556859465568095, -0.42181698870930595, 0.029213394995326714, 0.46985243335670546, 0.4682435218148179, -0.018269780915322165, -0.203155171788738, -0.45743183939713317, 0.3696471254266298, -0.29114873528522656, -0.20888561738752887, 0.30613649054287817, -0.18462742474828697, -0.12584710742525573, -0.010346287360555317, -0.18159655870337443, -0.15717456552015785, -0.31661337496063013, 0.40969116198853994, 0.22279888225203615, 0.4279070609635497, 0.4628803020740937, 0.48047812154144076, -0.29775294889561, -0.4060034503041231, -0.46594054484009884, -0.4196679486873557, 0.13627557418663772, -0.4552434511847253, -0.4217692005468777, 0.12199355596404438, 0.015186215304895945, -0.13294210977158216, -0.1317549434397457, -0.1282470547115816, 0.34972171956852194, -0.26979893726925275, -0.3686478864986812, -0.10419076443333186, 0.15548231584352057]
[-0.20625459938460455, -0.14849360677765344, -0.35841719344543677, -0.4115831481145107, 0.22863967281004327, 0.019575793217941784, 0.18221014881529785, -0.03896705710475923, -0.14501992536780406, -0.30364686520098383, -0.4207924327402558, -0.3214584469300137, -0.0953945420368768, 0.265963638701628, -0.348702020197763, -0.4000289093390409, 0.32787129052129904, -0.07379174020477475, 0.17665334486371453, 0.45135706230361783, -0.11867241239913295, -0.21242283146853236, -0.29868779494365116, -0.30356706534875477, 0.4566582295426348, -0.06588664108028153, -0.3217092408696638, -0.29518106326137117, 0.24112227302756672, 0.4370016828968458, -0.38008735746736855, 0.1485251695008296, 0.3358704747003013, -0.39429605359265696, 0.3101410979221767, 0.3046560579667277, 0.4008933147241356, 0.21165568079593944, -0.10579530600822984, 0.3455234563266053, -0.25601096076180896, 0.025986120639853838, -0.16043420161261146, -0.24305392682535043, 0.026023973814384815, -0.22458251886718394, 0.3452884511997951, -0.2586670785804295, 0.41588919743165276, -0.4605542596956248, -0.2338794202555835, -0.16578095089542966, -0.4040588602272138, -0.31290026102220303, 0.013112989114871354, -0.008757707463627029, 0.49234630021250725, -0.31697875864949443, -0.3056447006255316, 0.08711967525013098, -0.015367006325152088, 0.48030350565535307, -0.03258279724413249, 0.10900256242682282, 0.1348858363958373, -0.2385283739363122, -0.3106591539244481, 0.3236602786939201, -0.33059821275096535, -0.010817140799674552, 0.47053814584128006, 0.35126169880781055, -0.455741055602387, 0.08467063775712058, -0.3342955523381821, 0.38809511367704574, 0.4311324825459437, -0.43534853672590523, 0.16786836945418981, -0.2136134190073602, -0.12917532753552752, 0.13635854064112574, 0.11095432678240313, -0.17855235558574012, -0.340641105164591, 0.07556231204949004, 0.2317434944933111, -0.24529666779107728, -0.24487972573889127, 0.1938824364158599, -0.3061246421850067, 0.23572184303881139, -0.3745915811766294, -0.16060830121890535, -0.36545887871496274, -0.3228125561191125, 0.48690065157206597, 0.1684570214340243, -0.44122328913763487, 0.4838288114085595, 0.3369066008195737]
[-0.1230409097471653, -0.023227548322424352, -0.0803652806517896, 0.020928387425589223, -0.31452387261640635, 0.3563726961228725, -0.042739960769834884, -0.16307716188639054, 0.13571366914802596, -0.45405213144689427, -0.33065542514174295, 0.3377954739457516, -0.3255928643982662, 0.31207832365435695, -0.40646157903162305, 0.06103847564094067, -0.4238808852249454, -0.46800238288894414, 0.03134676255674629, -0.11194203782633849, -0.012200967346977731, -0.11749946896787122, 0.4254784855582634, -0.3843816050680867, 0.26566779397580187, -0.424971040481697, -0.19879738627053323, 0.10796500324242797, -0.18106452542317764, -0.19909342843124556, -0.2457132695805938, 0.09056770070152043, -0.12494446223078559, 0.07120105903809759, -0.37858739537246167, 0.24506320267288018, -0.06233585847301082, -0.4375494322496367, 0.2785337745602293, -0.2301457948078507, 0.2210484661297757, -0.08750138494376758, 0.478460754532981, -0.018042131066573597, 0.013933638450047026, -0.35006024018988935, -0.23897077027794156, -0.14692146830608366, -0.2494273733286524, -0.41381407020064875, -0.2524722596465283, -0.403487899617206, -0.451430918036015, 0.05092143174176855, 0.0656306541737971, -0.4486272316771832, 0.11055842372619573, -0.19027789221105207, 0.24190358758033714, -0.3532347157115484, 0.1808178004471651, -0.13312799257881947, -0.353982176617058, -0.3290911249168924, 0.1980704769298005, 0.12691919548582553, -0.025868662389073482, 0.4188518700830708, 0.3921962800489087, 0.0652693363914505, -0.18153631037559592, -0.45270162120882473, 0.33525428230423937, 0.14112416333423983, -0.414087009146334, -0.373797867887141, -0.12383041753442015, -0.32467037527329756, 0.40063298908137446, 0.4441642683146657, 0.46363133568028014, 0.3112058894599853, -0.34619119475802607, 0.09830570208373357, 0.09319458326056718, -0.02180999182146104, -0.45155984092765333, -0.2208333827464516, -0.49772670576114775, 0.48612882954261105, 0.3277613762352092, 0.44731940019465544, -0.21934181048324042, 0.49231848379035426, -0.12700263250365762, -0.2092369821197575, 0.26438705207886903, -0.3961057733577795, 0.009475644988054532, -0.04919929604236395, 0.43724189305049665]
[-0.19506821259830065, 0.16968425007522348, -0.4910148775025187, -0.4231585230445769, 0.23063022512607578, 0.027686119205480253, 0.13884772059206274, 0.05124375092036393, -0.4497970295192444, 0.3413705076624288, 0.14351259209787937, 0.4971676170401037, -0.13438772853331693, -0.4826574348766045, -0.17607275213798323, -0.4076107685837993, 0.08503995661111141, 0.347822415304635, 0.25232566652749133, -0.2274371359228654, 0.18799484568161573, -0.04025467152773754, -0.4383278009738395, 0.0366619800087874, -0.3367842194609658, 0.2633249094157375, 0.3042174101681683, -0.06456876803562817, -0.328964160868476, 0.0906617738317822, -0.2190707161351253, -0.056314064005000386, 0.15863248301142685, -0.2254499858229888, 0.4984474061345441, -0.32000988952701104, 0.2395949875250385, 0.13345472456244256, 0.0713386312361537, -0.14381000412007272, -0.36150068784340217, -0.2992967041254112, -0.045182456781474034, 0.4144754370680507, -0.10331260082446592, -0.4357454210134477, 0.36672620787203547, 0.041086214646490204, 0.33720685446074417, 0.3679792478491447, -0.3625485027862323, 0.13347620533734905, 0.4948734606985913, -0.13379408205067256, 0.012590696515335287, 0.3416934487592068, -0.16832185902694918, -0.07964287659442937, -0.3744409052546177, 0.004929530284384809, 0.07826654017473189, -0.02017974291908886, -0.04403427463863896, 0.1606368285556169, 0.46897818042895056, -0.10123169437795332, -0.40553320384107516, 0.3163077030829271, 0.47093949429478354, 0.40646588554976415, -0.4540612680752312, -0.15704499887508094, 0.34696282336341455, -0.3293335889686736, -0.37980449205435673, -0.3254716860119933, 0.0375114665676769, 0.17202613915450238, -0.3168918494916393, -0.02105390987913025, 0.3987486398718205, -0.45796829959862007, -0.3291330312913924, -0.39588116125213, -0.20830403924371343, 0.10775757853584, 0.30625942408302087, 0.39628372501263465, 0.38178476724432986, -0.3661593714902367, 0.3982201948181998, -0.06183312102954275, 0.2785918181821513, 0.15537887646333282, 0.4545418948340415, -0.1390658318229716, -0.1776919251448067, -0.14496794601520613, 0.09251874547383354, -0.3534127940802232, -0.09350216280447421]
[-0.346577958559228, 0.393427066732453, -0.24359381709152417, 0.21596272919278903, -0.4459988279240995, -0.08586943100813083, -0.0037630155397508913, -0.345967165185048, -0.1881229129412737, -0.4572698471744201, 0.2608645142879371, 0.0353658565890993, -0.3193471670127428, -0.23493854919308554, 0.18741049798774767, 0.3283418962833837, -0.16783851623455803, 0.194975750782724, -0.20836156027738306, 0.34540003635714167, -0.4589552501564751, 0.41372314700364143, -0.1387556587165203, -0.19982945451017298, 0.3794452566154367, 0.26238892609084574, -0.263343373823852, 0.07701410582822332, 0.47665265380258226, -0.263782142834339, 0.12256463309742915, -0.10841239564472815, 0.36436381817563757, -0.4592068500668254, -0.25766053967157376, 0.26031361349456394, 0.05028814625323008, 0.18741991919290868, -0.027292657942623588, -0.1578615631210265, 0.24114869234324388, 0.22869615507877994, 0.07748008123420758, -0.23227802293393973, -0.4292994319947302, -0.13486385109391363, 0.2968429871375752, -0.47079058700091303, 0.27920837471735593, -0.31015483573338365, -0.15735432339958622, 0.36799377950428647, 0.03789434321509855, -0.21937389802961638, -0.1996629925512251, -0.13161476419035356, -0.48481009003835573, -0.3024676616547639, 0.04462972835887702, 0.1418613268977289, -0.15880723222306736, 0.19876328607625204, -0.4613230044715557, 0.06958007904660257, 0.3425527985007517, -0.3510677660721909, -0.19451300037753483, -0.439904314825489, -0.20792026282429465, 0.16111899579022804, -0.06450184405188819, -0.32527600787960465, -0.05431371762572046, 0.4877521401753866, 0.22568220947164075, -0.22523634520726454, 0.32385049529045906, -0.4447505372625489, 0.43323798225099996, -0.4472144580404831, 0.035601391623049206, 0.3234765852791477, -0.3291162519248594, -0.07553831566213998, -0.05989733182371981, 0.343468149991065, 0.17095180460951298, 0.2779123799105401, -0.4057711468144408, -0.014512544050729437, -0.4980663308355293, -0.49569185508566715, 0.2440991038978516, -0.18561601981230436, 0.3338201043582085, -0.4335293640961587, -0.4156455998584816, 3.408044143310418E-4, -0.48247484409628794, 0.10147515252541883, 0.13103320874796465]
[-0.02951311334005957, 0.06887892741684587, -0.3012356561572428, -0.16777767748994554, -0.26951842982796614, -0.3708811761657983, 0.04704114426160255, -0.024771363799807378, 0.41506221471254034, 0.11150480684920283, 0.10121652313171814, -0.46016112060413283, -0.33732225451940745, -0.4623710399219625, -0.21505447784862608, -0.10569583950990014, 0.3517147588361398, -0.4828147192969058, -0.48520720007386586, 0.13400654035079262, 0.08445471264266691, 0.4314111146340339, 0.008826697154648455, 0.42233524099689923, -0.4402160146629497, 0.14310628871741393, 0.42544896205157845, 0.40912056398534224, -0.3631883826527006, -0.02491780489585671, -0.13247550302465794, 0.17404335518909209, 0.4589316657611767, -0.2259123094961739, -0.3176161994383788, 0.17075896365406662, 0.48150064768278955, 0.1087042795182912, -0.2099714690563258, 0.3320443306345223, -0.3738169540925729, 0.03739830054763571, 0.4798781326929571, -0.16290283291636665, 0.07115039018195413, 0.42686345505783574, -0.26934645730005957, 0.0391871785214708, 0.37870291736979833, -0.4990185930360167, 0.12850182857375914, -0.29482137906685535, -0.23948511497864877, 0.157175024005468, -0.11477688703766498, 0.028014472926708445, 0.2855878579644884, -0.4003777039862366, 0.29146947567358117, -0.1609272708880296, -0.25287070903440334, 0.007746109050280281, 0.1790427654623037, 0.06937536849520154, -0.27804432729489914, 0.28358884617295865, -0.3880735935068077, -0.21304894453034307, 0.0796536257161552, 0.4031270961333705, 0.07744408419916582, 0.07222299367138141, -0.1713863183380968, -0.4657233830977575, -0.09305401574701233, -0.41588657444765376, -0.2778142916774242, -0.12171694127858534, -0.4803192613647036, -0.08337305293177566, 0.49058661069672305, 0.14138945865763952, 0.3540198050231337, -0.25100520901495726, -0.08717549145476888, -0.34988352496629205, 0.026957868521412243, 0.35203253725650563, 0.19778584316815095, 0.3861871065419975, 0.34582156949305964, 0.22918449862473855, 0.30476535020249496, -0.36392750613118563, 0.28537594104009123, -0.45720234997733444, -0.09889917414846128, -0.4746690593997447, -0.06097372462712569, -0.49551116450568, -0.37179187876264463]
[0.43935787429181083, -0.24542944569118952, 0.09303896533403955, 0.2271942605085916, 0.21985896537632632, 0.07296580399928498, 0.3040684543893608, -0.1386404573443749, 0.07030505599394188, 0.10282912856727888, -0.3671817036988215, -0.33471796918676633, 0.3038217058246423, -0.016097768236369103, -0.35531842648053524, 0.14881113335848517, 0.4234124632339279, -0.48053392915094173, 0.29770054140801616, -0.41082071999828895, -0.4628902779831089, 0.49069990268170705, 0.14706454762568677, -0.04442618873718496, -0.2204077466964135, 0.20523721290121733, -0.31628535930220303, 0.22789392422973576, 0.23700449189105532, 0.07767792799911599, -0.16251919920675983, 0.19505044735707944, -0.14684305229686734, -0.4084245118683759, 0.10974828957804184, -0.05195134807381263, -0.06701644925219796, -0.049576156321980425, -0.10853049766581846, 0.3192277675716413, 0.15307601540778837, 0.0894281630598801, 0.26940841933065796, 0.4614129101930131, 0.4393113461686863, 0.49035018851657564, 0.026825117520314246, -0.3906313416590498, -0.32196628024880214, 0.4184777604148586, -0.39562228629727314, -0.17917412361322282, -0.010053071970783867, -0.2162251544943583, -0.49716058429332355, 0.1554862483847338, 0.21481955907759753, -0.1824726902701862, -0.018700449356309212, 0.31779198298672695, 0.33029980562137495, 0.1513065738979028, -0.06716349116768949, 0.2628809045420293, -0.24041761827975938, -0.31316846641319995, -0.49577841358959374, -0.3549702519843324, -0.08963470727567868, -0.1466829262170949, 0.36703306163222493, 0.274021581240406, -0.1685204274867499, 0.46315491083517557, -0.4553702323912451, -0.06274412600071655, -0.4262297073417467, 0.3972806008612203, 0.35275409008505165, 0.04405263908247514, -0.30174749684689195, -0.2216617080088472, 0.3211041730355991, -0.44651492284244665, 0.38726120923860785, 0.12276258496993209, -0.07096372663652595, -0.4417927184406045, -0.21674048304291404, 0.2021547920763327, -0.38937269885138515, -0.285872487043647, -0.4948351909942903, -0.010161603287461407, -0.237350647725879, 0.4294090904519189, -0.2265023820169173, 0.12023676276205586, 0.4235767042166917, 0.35616478870411306, 0.21335362378949396]
[-0.2532764556178916, -0.11743230408380656, 0.26434281637926493, 0.19814427661920442, -0.45214551287887883, -0.27556707974544137, -0.18031430828585537, -0.45275310965222915, -0.09760347251282808, -0.2800776214224783, 0.13627556978024358, 0.4971504396511678, -0.06967145958526444, -0.46976613381315413, 0.2290632272145332, 0.1283784745766251, 0.17999563651976447, 0.4104657666409326, -0.3470902002450881, -0.15058393994168728, 0.2308563782598606, -0.03119276805888993, -0.31794607683714393, 0.11406279938315911, 0.37677094762684615, -0.4334205432914744, 0.3575492731064088, 0.28007939100849855, -0.14346501615389196, 0.12881179304587143, -0.38989933912850216, 0.40469040998368944, -0.19362726523071083, -0.024143113286098528, 0.4518592547467406, -0.18354858854326594, 0.22336030691070585, -0.21638078131390526, -0.07687936319866806, -0.4968161246573616, -0.25074248922324593, -0.06670803958115679, 0.07850222846603094, -0.2878736776559897, 0.0109853037889448, 0.32106724063809744, -0.19794090396864716, -0.3288540946156092, -0.413006998160968, 0.16410488040462345, -0.34806970782621915, 0.008799741571508535, 0.4080172739957224, 0.46111594630083286, 0.2524906588288638, 0.2762303305392928, -0.45375662139911466, -0.4557635818042728, -0.024384411036602938, -0.04467448560509013, -0.10136394321356212, -0.40656209521666187, -0.21745072429142398, 0.47526762209038764, 0.2282158472352851, 0.07554179427442442, 0.13399991555911284, 0.05354277486455905, 0.39131443135336297, -0.18302631190038066, -0.18153220951038118, -0.372323915830196, 0.34934991621149813, -0.1772842382975709, 0.3974449961564297, -0.24959607091295022, -0.25957839389708914, 0.013484144631275674, -0.2789909964444177, 0.08368982217668364, 0.3690305985951159, -0.23102031387153055, -0.3715358167644044, 0.045935546111272596, -0.03850858365859067, -0.4628698550064738, -0.4839312545599831, 0.24193499844517796, -0.06989321635991097, -0.2024378958607026, -0.07248256156230459, -0.4634372994453785, -0.3090638171299751, 0.35211183546777736, -0.29726725881619853, 0.020885293669883676, 0.28799605986160337, 0.25600405192186027, -0.49334954805958287, -0.3366715079979199, -0.3090122013376191]
[-0.29960208202928207, -0.24793166387227758, 0.13872827118176, 0.1541571852287648, -0.18967962947731687, 0.029259135024881644, 0.18447994141893725, 0.44989716271742647, -0.3684234031576934, 0.15993227766035234, -0.15382663858377477, -0.3701976435508638, -0.4539518767900095, -0.09573888831960098, 0.14236874022793586, 0.18341828576380653, -0.023140595673363795, 0.16707587459888906, 0.00673318601821471, 0.15499452888852894, -0.47910407759020673, 0.2729943362118114, -0.1570456904249753, -0.22736172746482342, -0.400742306314978, -0.4901711637412388, -0.33099080030378114, -0.3491810977515071, 0.24224868334367144, -0.3233241997155089, -0.38050513790996465, 0.46466033776062665, 0.001977187151651087, -0.18535713831858291, -0.47448701070952337, 0.2772301864197816, -0.27211108205823786, -0.3552618771911722, 0.39793122361960864, 0.3638867513741441, -0.3727183508129074, 0.49977643219921064, -0.0974455906670032, 0.48553631337029246, 0.1880829181212903, -0.31225273465314174, 0.33468262249903047, 0.02106112531719162, 0.4268790026337028, 0.2974018810343888, 0.17572803512567814, 0.28939255664514907, 0.4549457093731727, 0.4376135522316461, 0.04600829606368473, -0.31892785934077694, -0.4622436081031971, -0.2405837495896792, -0.24440006915167067, -0.0692774097351776, -0.3352132297154238, -0.07452176446415815, 0.19851214927180194, -0.02435720494993243, 0.1434406733072658, 0.3602367517711933, 0.03657877831378852, 0.366257453121945, -0.11575611182417933, 0.22450906331337228, 0.48032367326623227, 0.1209115936366689, -0.14598586585651707, 0.059855286977538, -0.03765662444392581, 0.25047335088836686, -0.3604457162320982, -0.04041436850403035, 0.22248632198076723, -0.08035102111344608, 0.18646275048404048, 0.44042614871649916, 0.07782709448800573, 0.3407096484024109, -0.44400573667922794, 0.4133606698191311, 0.19008484543558724, 0.10501501800999602, -0.02253514355761611, -0.22008017312193973, 0.2515148418481473, -0.4997517695872017, -0.43548155744225925, 0.21996741645029494, 0.3126423921011503, -0.1303061258221997, -0.18935933296290797, -0.32483463032620874, 0.425727739789649, -0.27486433438231433, 0.38262985800074123]
[-0.11577230380523928, 0.3733190074512013, -0.4406736101697417, -0.20970046884398522, 0.07933072890032786, 0.05236098537191303, -0.13076478120782986, 0.2248707138408647, -0.3853585063388046, -0.07355725615613995, -0.0970552011853637, 0.24391469115743758, -0.13474796209545314, 0.13000017992363067, 0.00234345591571919, -0.03854938040737997, 0.2084396509588805, -0.03709561173363374, 0.28801162805306924, 0.18396267332075356, 0.27398120404225274, -0.05916874773707811, -0.449989748762955, 0.14761540564183484, -0.023043983939750184, 0.0929472018541263, -0.10475628172767293, -0.3846626827405336, -0.10304052212410697, -0.07645974901809935, -0.3139602484932529, -0.31286767396329185, -0.0503693789552856, 0.26588311662469233, -0.2580558568738121, 0.013406800272166008, -0.05141493715738865, 0.3184960437313686, -0.39168134394100407, 0.036470484989787604, -0.15459249581909332, 0.2962662219970299, -0.06537604103763806, -0.4382926179116412, 0.1200740262199037, 0.45247232917711905, -0.34922734038236547, 0.17068393142444582, -0.452334121693572, -0.28394481512159775, -0.3183053069687243, -0.022872315880281043, 0.20027804776988495, -0.15737612710100068, 0.3982666757362773, -0.20959585904764655, 0.07511681581848018, -0.2777043609279697, -0.1328314931716943, 0.0060071050956177485, 0.1833105326595702, -0.4972633396412227, 0.23149338244297868, 0.4448810123133876, 0.28244063064523806, 0.23985372142057582, 0.23275899950362686, -0.0770189574825586, -0.3092607782202914, 0.07746361835876525, -0.022364548181100542, -0.45169767861560256, -0.21816584773112868, 0.3687164276824595, 0.48852211086998454, -0.385396225822191, -0.1732987801567227, -0.2716937250708331, -0.40741661994970524, 0.4941509230975475, -0.1773782505372008, -0.2655264988530958, -0.15089489029188619, 0.07978046867677989, -0.17077861275442963, -0.10338407158627239, 0.05048939452507639, 0.29424848801155545, 0.11760191393151047, -0.48162808498424803, -0.11772801439437552, 0.42903951436576926, 0.13101701257170953, 0.34469030502138287, -0.13356086899831388, -0.4562085412696948, -0.1458372335970708, 0.16544822560320027, -0.36021538486653376, -0.2853234907473076, -0.3069382545459386]
[0.11856209128680795, -0.07197769883842053, -0.4879380837122612, 0.378597979865686, 0.07568611274374681, 0.3997434064526241, 0.1725070070255739, -0.27578699485771413, 0.3270107032567865, -0.4384164570501292, -0.2766701818051681, 0.2918521581774322, -0.23790939428416946, -0.381987603428545, -0.2836828748013849, 0.15014894072393226, -0.118671625177458, 0.008934506292515687, 0.3904323124942012, -0.05501371584434345, 0.2666833501651361, -0.2124824180908946, -0.26012973506114645, 0.44492440133691735, -0.40962797612750446, -0.2596910856057906, 0.4395891719035395, -0.4273563867463499, -0.1532285100287103, 0.35536809625388177, -0.39621069583909296, -0.31157874879204855, 0.25543171791527475, 0.27934129420997267, 0.07898064344011857, -0.447202944910169, 0.2020490562703091, -0.04657670394156873, 0.3440574714125052, -0.03703528423114677, -0.34055230296366346, 0.465850997280676, 0.11811862923976524, -0.46894025915759296, -0.23793808561201224, 0.48423483440266557, 0.46134199624005723, 0.4523963361512352, -0.4048936190427421, 0.3322126441097304, 0.4950426395496458, 0.3978396526333411, -0.19643199138195205, -0.10997802365762255, -0.13588598558032172, -0.14311871388117903, 0.32634738511628014, 0.0190942481927453, -0.28162833542374, 0.35662000049762155, 0.417323709731388, -0.36246714394624957, 0.29889023127672887, -0.013268197977520768, 0.12780507073515757, 0.4063441901302842, 0.18124324970578765, -0.4283539212875367, -0.4061723301267398, 0.2255488724699104, -0.15037265364842323, -0.3514719594607595, -0.20323425872067669, 0.3848084394965521, -0.445828892957295, 0.13330012675046976, -0.05244645147082657, 0.2649599383965645, 0.338300514615514, 0.1868173995916036, 0.282023403745982, -0.05614364685433616, -0.2861476980853457, 0.3294457685626311, -0.1507972912559784, -0.067808115712094, -0.291302787427006, 0.29467383329796026, -0.17558755238757864, -0.4925834813183869, -0.0850444664460025, 0.4610224005236775, -0.014490746671751072, -0.15323304284298767, -0.2745424465138888, -0.04360176640460578, 0.25330005803695366, 0.1732427137431295, 0.1619215262523797, -0.30982820508904235, -0.3838789892067368]
[-0.32622093624933257, -0.4296072893698599, -0.36435882158117827, 0.33372245448494386, -0.18370638096043646, -0.012193121165206211, -0.34087646933440335, 0.04711078205516063, 0.0020647253904156893, 0.1681120681329591, 0.07222932024340434, 0.30863901958705237, 0.19690505884243115, 0.0972027240272757, -0.13150184615522043, 0.0906106948358355, 0.2988510881359716, 0.32299094457169064, 0.3009765584120099, 0.030850433980101677, -0.479402606955738, -0.4197052315995571, 0.052177242895754206, -0.46986096349058615, -0.008337753754563137, -4.900813386830016E-4, -0.24423858938431653, 0.3291073682002482, 0.11827892919359828, -0.34515273057649787, 0.038908362872820845, -0.13887151490079824, -0.021734933873742257, 0.3279967602929954, -0.42784826560051636, -0.49705756583466043, 0.1736296162791997, 0.14388883924893442, -0.1629606395928942, -0.1738062710148881, 0.1154359550158871, 0.1678026742596651, 0.4518579830936499, 0.09075671474414493, -0.32655398066977226, 0.1448867871611199, -0.06820463580766865, -0.4853305683034579, 0.4873294859146038, 0.309943748167963, -0.29770353258258064, 0.3056917881732568, 0.006729024659309424, -0.40131428482665366, 0.033002367613566674, 0.045949279959089484, -0.4957694907260325, -0.3487609488962822, 0.31454359108862273, -0.21618131929878093, -0.11170446441441495, -0.28550485226350164, -0.2384074235808895, 0.10615765903834262, 0.13247028691255008, -0.07802347958079925, 0.19296249443347535, -0.4608249056244711, -0.46730471191036116, 0.4582059502395106, 0.013172629467020469, -0.1423149193592601, -0.19370949131324833, -0.20086204345046965, -0.10021664999882607, 0.27018176887524115, 0.25421400898455276, -0.43896834641855753, -0.013063718859746776, -0.008881448037256767, -0.17757031096235132, 0.48717251074984813, -0.47208147188912186, 0.41196973408740484, -0.08125554416302339, -0.2444943757850604, 0.11820224367999532, -0.06090166847577072, 0.2682238164704471, 0.0986425957233128, -0.4347062503241823, -0.42085066532201, -0.07669381812691466, 0.19586548319685415, 0.40285918781308505, -0.47836788118401863, -0.21600782270747787, 0.4158956529800113, -0.13602319068944352, 0.29355241828797374, -0.37100458087092025]
[0.269855987982651, -0.14800169064954016, -0.4576019883614737, -0.2895042723916055, -0.1327441434252078, 0.07738471039464834, 0.14147896347081246, 0.42314698622305125, 0.2589815199207126, 0.06501537817614245, 0.1055675836360016, 0.4222472867397925, -0.20169556367460229, 0.17885077274704342, -0.24502075156319492, -0.16351213963198585, -0.44576028844186644, 0.15946332550421483, -0.32731993427499073, -0.10254518205654706, 0.371157010647022, -0.0751671548429741, 0.2617030229929237, 0.39106554327511545, 0.38436712574611986, -0.4540637051039289, 0.129099259593626, -0.17462045723148134, -0.32652276138021386, 0.37604386305112414, 0.09784679217883929, 0.1047311748675872, 0.26362846850251986, 0.28626702502868484, 0.37958398070600663, -0.19811034979551734, -0.1307004865041953, -0.16021397489714428, 0.3287304579316731, -0.17204072254567282, -0.3838194767089165, 0.023318154430054694, 0.24250372604298087, 0.4139911589403602, 0.47369178285995617, -0.15323019328709142, -0.1284653715577273, -0.16121507609159613, 0.28404186399188414, -0.279350721080339, -0.33776952422721307, 0.2641170416979248, 0.08329025493601372, 0.02569915122191435, 0.264729819184196, 0.37164017083286316, -0.12429986228047485, -0.29965944686422663, -0.49076189198449716, 0.2349558584375887, 0.14473671117379794, -0.011096054975316516, -0.12127112237000193, 0.005870319921647771, 0.16238738616770165, -0.28274563858636304, 0.4874405072586768, -0.45439865732410856, -0.40695004635898935, -0.4076987856943908, -0.287706390233164, 0.08971190065207546, -0.020944572395263483, 0.058016288980634045, -0.08170025126983282, 0.39980385243704764, 0.44196266614895463, 0.18296599310191652, 0.16922727570211327, -0.374486906021125, 0.3370818799573687, -0.09700356555529188, 0.4212355212420791, 0.2771052120339066, -0.3417452666519385, -0.30240643881521534, 0.45988382071247014, 0.2919782740993905, -0.294261264651293, 0.43957254041130644, -0.24013292604573622, 0.16763810206993357, -0.09788550211189218, -0.27486616989833335, -0.477974707039996, -0.47078242577553153, -0.33054597072527814, 0.4649561843708081, 0.3736189613299731, 0.30137129288956654, -0.034440933065734036]
[-0.10312052098771618, -0.3944412759890398, -0.13761704774103778, 0.41789855203809234, 0.46686309690975614, 0.36422174507226734, 0.17258182671449462, -0.009055127537610064, 0.21728880492613656, -0.08431644169767405, -0.11032806200215206, -0.22407172771634898, 0.4203089760477323, -0.04336100563100631, -0.0896644296469179, -0.19840003829687025, 0.19882491132575042, -0.041018980549721085, -0.38951966342378685, -0.269585974626528, -0.21118791917996682, -0.29604808540171323, 0.2957572958745487, -0.07339103861204421, -0.08590795667869544, 0.48697656660114697, 0.019484898415757956, -0.3390101855513208, 0.46828387605043453, -0.044267493761846355, -0.023128415524741874, 0.1517822890242323, 0.32855061136447705, 0.18170695537870085, 0.14243780410077422, -0.2682494457902975, -0.3381112642372781, 0.359436964111705, -0.3182042071148856, -0.3211594674993187, -0.47290783384742996, 0.4778226021430221, -0.06054656946613857, 0.1509310448463136, -0.075845687548598, 0.41435030066798284, 0.48106620617806384, 0.22484550419515015, -0.30224469204279647, 0.16575713119321356, -0.24843076064623792, 0.255596864588138, -0.1373864426914687, 0.3476133446363985, 0.39987890690734407, -0.35609084834365534, -0.014135812110586565, -0.3295051144144159, 0.21636185746260483, -0.3716209497366373, 0.23525969315327, -0.16813631264939854, -0.0689736422303916, -0.09678851914584685, -0.4181296466325558, 0.15046805023157594, -0.17160047245673493, -0.29671682762005314, 0.43209559454767643, 0.3140216312222446, 0.24931104145405336, 0.49535883053241647, -0.3438202929422206, -0.18888591400932164, -0.4296877557167097, -0.43239545254281286, -0.420941577640065, -0.025247801429596706, 0.17821732624402986, -0.38088626438484496, 0.004245428413250152, 0.0776253841929192, 0.29026074673551894, -0.08301935139263894, -0.24739886137811573, -0.4118650220065665, 0.2096231170941033, -0.2894723488551172, -0.48479172309852514, -0.4785780926385991, -0.24841413120364308, 0.37061186849943184, 0.043212099119327, -0.19892749858942294, 0.12733200626462737, 0.15650773745111624, -0.1726343747636282, -0.3151218332240706, -0.4695808723408048, -0.39631787961236664, 0.45615353744870546]
[-0.3980312871067385, 0.03520769930363388, 0.2728489109724834, -0.21624985748290337, 0.19883607005800397, 0.18703611927915864, 0.004010334479369937, -0.1122989605011272, -0.0017912485953758273, -0.15930839817854303, -0.12123736289797737, -0.4489002189390484, -0.16256564388113526, 0.38673369756421805, -0.19003589564274903, -0.33483575160315937, 0.17197118388411659, 0.49448511187989486, 0.04993334910411007, -0.48449996101131665, 0.40478650082815504, -0.10398745641824281, -0.06333310909301482, 0.38897099573378036, -0.36609597744557587, -0.4628224742069288, -0.11786585916403935, 0.31797990647955454, -0.40196228611265405, -0.3701541294723707, -0.05247011799624046, 0.06509530027583388, 0.14419583425091387, -0.24639889038762208, 0.3474326694762033, -0.3566574651901673, 0.24133279850677403, 0.17581614641827703, -0.1218601516463973, -0.2338888903989529, 0.4205730297816844, -0.014305524939339564, -0.42498132987568116, -0.37448788195153093, -0.46477422995808126, 0.4709004088895953, -0.13046586900473733, 0.30915275485820193, -0.09724527692518281, 0.4046554620107403, 0.13868430904608176, -0.01732178721187616, 0.21606275931861219, -0.4433139980909514, -0.1821058916903232, -0.31093681802442164, 0.09289624067032332, -0.20683514746205045, 0.18298868057124662, 0.24551853129989498, -0.2301308361419665, -0.4112023857414747, 0.49768847920824233, 0.2550116969252203, 0.2415529618860267, -0.361537873907647, 0.4701375030552698, -0.3082184100478995, 0.09527253547827697, -0.4736829303851696, -0.1347026398303246, -0.1311379425972593, 0.3986949816190135, 0.08705442435814092, -0.32039050972534333, -0.1494893419365979, 0.2599922643408936, 0.17697685984400935, -0.49985140014810714, -0.4664277165502103, 0.09930473059730238, 0.06184034512780012, -0.4574394941782084, -0.31081015486176145, 0.24542760007325948, -0.47609077848630943, 0.3903977336318001, 0.22990748876579825, 0.2030879928893028, 0.09242917496500114, -0.35696304548290025, -0.15290607188295158, -0.17612514603166518, -0.49026884135622717, -0.47981765149993383, -0.0502529469179418, -0.34216971587763945, -0.34056263375167406, -0.03197080197057056, -0.4718769379369453, -0.03709462495327065]
[-0.2962523785184207, -0.034517324455456855, 0.16426702756281675, 0.20592920158131411, 0.10354339736099416, -0.46160315639672067, -0.08359653817197044, 0.40143531534599197, -0.4719468078322614, 0.4556192177023123, 0.21527959279534747, 0.3036344488680386, 0.4000819499007833, -0.29730326966334064, 0.22793565260422988, 0.292018710166816, -0.03168574388908396, -0.39258104565746665, 0.36801024526683856, -0.22747335451820105, 0.3499591600734919, -0.0740549478737228, -0.23842889876656237, 0.053894791783529405, -0.054987535576926594, 0.2890811166245937, -0.4864056245721329, -0.04723393479215121, -0.012330382626182357, 0.155344702494163, -0.4374010322586721, -0.1686790047066642, -0.22906919686829375, -0.17922594715800844, -0.24042570678008912, 0.37764277875254204, 0.25719693477222616, 0.0950093623688063, -0.43777629298828724, 0.20172289548664202, 0.3706637972270541, -0.031005755248323275, 0.3966778798789279, 0.23895905393975192, 0.2565787348750367, -0.02828468082262736, 0.3062152824206241, 0.02819225774145484, 0.18793265117067337, -0.05828125176987897, -0.019839504412839104, 0.16277592849112021, -0.39808257820911697, -0.3762876628436014, -0.36398724140231153, -0.3991355507252351, -0.04351300451560114, -0.15861760507267342, -0.48600916250254134, 0.06505438402183539, -0.28838190273916287, -0.005375037881698241, -0.06443706172279284, 0.4617065800184136, -0.23962575778824147, 0.2827109314024948, -0.023837510539020057, 0.10672307352736843, 0.061634700212711446, 0.36447537941543007, -0.19282498842792795, -0.4427525221086698, 0.0593578090889364, 0.13244136535733908, -0.3265879706540754, 0.017703500379439352, -0.28749427915375425, -0.10014099282668953, 0.28967268146725544, -0.38621918441842806, -0.39473433029723604, -0.4220392672963328, 0.16362533842061178, 0.3094238187956828, -0.3410393198315963, 0.3553042639097871, -0.017875288485741048, -0.12042736482891592, 0.42505012439438516, -0.018105333160074344, -0.26578705856435325, 0.1453529361122483, -0.1971212366616112, 0.007847714963450159, -0.3135644840145436, -0.37139547933861206, 0.2963404652529139, 0.22967681250997718, -0.3252639706709253, -0.11091438256277575, -0.3996193736217507]
[0.15685568667075867, 0.4320767459202933, 0.07038367218369468, 0.39126936290250225, -0.4728695120294527, -0.16793598445899327, -0.4004897791399411, -0.31616513853376815, -0.22887629082255057, -0.003758620436429272, -0.43964889040008914, 0.014354655877720002, -0.14490605668558632, 0.18634524060871271, -0.007409707213911543, 0.009560162720494203, 0.11528521209976361, 0.28270123337487285, 0.25541928162977534, -0.38978271166572276, -0.46188001462357575, 0.43607189209550434, -0.36070907113497075, 0.33200461063510944, 0.43756031983102217, 0.17264951386807315, -0.39082968433882537, 0.46691718864869836, -0.3657180645323922, -0.16947968505985345, 0.41918177828305403, 0.055183288439329736, 0.05087641657823838, -0.2891906511882766, 0.3512461322248106, -0.2093121131919552, 0.10311660840807613, -0.2621518705425907, 0.49924711259957155, -0.23784467183292635, 0.38939142478185085, -0.2599102533140951, -0.15453819914869937, 0.0778513576694898, -0.041264339294208474, -0.3128706157694372, 0.35743511256981275, -0.026678124620913013, -0.12754873416241375, 0.34807027310363325, -0.028826795170308617, -0.0403055234132913, -0.13486308722668838, -0.12739109964389428, -0.37952315371159595, -0.0656739371258378, -0.34198747127007834, -0.26140471040463054, -0.07756973507440468, -0.053912237630394766, -0.11925365517092357, 0.3584570566332729, -0.2644933027857378, 0.48433623646270496, -0.3824381770532619, 0.3917596171594352, -0.43055268143084646, -0.2563716173297973, 0.3092224980352155, 0.47230631371964227, -0.25498480030027104, 0.3054938435140009, 0.11456293814218144, -0.3744335523748602, 0.2769214053821343, 0.07408822342109023, -0.13644577361239807, 0.12585092801106368, -0.31533424998836446, 0.10430698148130857, 0.4184630559493242, -0.07746117866096236, 0.32372998849914714, 0.1689483790210662, -0.39951678946483327, 0.05079053486904106, 0.3735062622259263, -0.4742288264216744, -0.16371064752351805, -0.36543396188649635, 0.3185394660493075, 0.3658012746762982, 0.33228239511103486, 0.18839968525313966, -0.383892919478662, -0.14900174294755386, -0.10613290467225378, -0.07073392592111294, 0.2558553838551427, 0.48240182974570855, 0.4729216489937892]
[-0.27899642420270454, 0.08615652272756746, -0.22086508602454868, 0.14869065563797412, 0.09114558744527002, 0.1070459346830751, -0.10585135746909458, -0.4743481526656731, 0.4836423022567585, 0.41104506117962136, -0.15564797943030373, 0.4664785315122164, -0.4591617643621997, 0.09086976686098003, 0.49077677672272135, -0.33096121347467855, -0.2557960267779059, 0.22696959769016722, 0.2686860544177907, -0.156556144486112, 0.18570313268078575, 0.01803944172799432, -0.061956937110544286, 0.14847782547495314, -0.4096914702607647, 0.22408895045028676, 0.3015137430244176, 0.10631117711785787, -0.03493577855141505, 0.354351898008202, -0.07981455693518313, 0.4302210145392076, 0.411223106920911, 0.451261942615227, 0.3464412303311901, 0.07211146215934139, -0.29662788601300205, -0.10308308760391682, 0.2889373835793706, 0.32494741920989, 0.21309061182508904, 0.39989923273729144, 0.42638925012699636, -2.1414567438959864E-4, -0.36543049020068086, 0.20801501130290034, 0.29487887674291013, -0.46209165224140836, -0.24424765376482271, -0.36353992436321003, -0.21234491623416962, 0.415629939555729, 0.21094148453043515, 0.20111608382223056, 0.3269048851581994, 0.3526784060005923, -0.2505537631410857, 0.0031255040504797327, -0.306267067304408, -0.35539041261344695, 0.059731915405322855, -0.4764102589181166, -0.16440703465965645, 0.4055438425097768, -0.4003382227478255, -0.343821066616102, -0.29032600270008513, -0.3704204784856664, 0.20080716449197555, -0.36936096288113696, 0.36625085736701257, -0.24244067648461376, 0.4384328640050077, 0.461625448939023, 0.027767035739735824, -0.12956394131138838, -0.11135137857875987, -0.3050115600175781, -0.12257440903074424, -0.2786956301563175, 0.4303500263769111, -0.4824185887569854, -0.36467874690978985, -0.43476479453935346, -0.30804525765414503, -0.25314265217310195, -0.22934466562760936, 0.14937081120218476, -0.4084269543458615, -0.17703502425220574, 0.37533233171258906, 0.2853072017257806, -0.3258654481503812, -0.31124919389081407, 0.30724505200896346, 0.1416124827189773, -0.38987466324382636, 0.36201936369189724, 0.20081313278169854, -0.2336009343395734, -0.21202668835579297]
[0.07959805755085902, 0.3378473389742962, 0.37818822846210176, 0.40575131933217123, 0.12419983057164119, 0.17357005127198843, -0.3521239274691079, -0.15224817642433375, -0.16722933706381937, -0.47937016637725494, -0.46457022787233926, 0.41761799441230163, -0.171044374879339, 0.008206531971050257, 0.24201371452414522, -0.3078993257248691, 0.22251123418795427, 0.4538100769862845, 0.4915654376652605, -0.14185793438649064, 0.37493829502678844, 0.21213491508808746, -0.3345889035705223, 0.4008705536996646, -0.1566960111987723, 0.39833949608502506, 0.2793311831718701, 0.42122381351404226, 0.28316743111964726, 0.12237767944198086, -0.08544279743753924, -0.320700156860935, 0.41671857685873503, -0.48348252333117536, -0.0075000468255316255, 0.18316881632710125, -0.34631481609379533, 0.3899396466772045, -0.2824186451614016, -0.2272390299870204, -0.4097417965564254, -0.19768311791536197, 0.10336084988545768, -0.3154209094335827, 0.4052309645626123, -0.28746785256298957, 0.24421885780382113, -0.4746334612303408, 0.12274340081546142, 0.1292021849744397, -0.10182078949239803, 0.43149464797655734, -0.18253290943512845, -0.13356950312470095, 0.0060233218925738186, 0.4457165787485041, 0.10076279354101647, 0.09122159085010562, -0.012331050388560971, 0.304066707144638, -0.3547126829421181, 0.33824610081155926, -0.4711432424218076, -0.10693177620846916, 0.08072181606365958, -0.43684559779352317, 0.09950823131018072, -0.388955974547171, 0.3247388576832111, 0.10739417483184766, -0.37031123967703194, -0.25279115590904633, 0.3010210760808568, 0.15549465204170232, -0.39006998348043387, -0.22164661137735364, 0.04008957519482648, 0.38003882232328257, 0.3797361099605919, 0.17531423563064807, 0.35889513694977404, -0.009947543388241109, -0.4785816064345102, -0.08994434354480685, -0.32842862973377906, 0.3252960290619289, 0.08597381384573555, 0.35907283555462843, -0.0035566992696202115, 0.471954436663213, -0.15645768061674448, -0.2900415756299105, -0.10666887155679439, 0.11447652150722676, -0.12695091123318603, 0.2953572335441793, -0.10961646983450468, -0.01617584221777879, -0.41604244708859117, -0.4978331888940408, -0.058879515386197845]
[-0.18585070770800094, -0.3023705772846035, 0.033724402022188626, -0.409939169563483, -0.3220760087421025, -0.1933913909103263, 0.338853424734632, -0.18074460012894222, -0.06619277402887103, -0.122784123767816, -0.035974211393546174, -0.0017589423690447248, -0.20796024412002045, 0.4641613884040775, 0.433528786383933, -0.033622660868562027, -0.32108409581057573, 0.46545304009450006, 0.01740840305786351, 0.039221884542444796, 0.16488928129859914, -0.03830186097456556, 0.40809352459153814, -0.35045336539731375, 0.21012714999163284, 0.055966861219280184, -0.10601160767748419, 0.4087917491783424, -0.12316402230539314, -0.34129406452450417, 0.0919535675307015, -0.39380016908561166, 0.4594382488740909, -0.153238537026139, -0.31952178643806695, -0.4494318037793992, 0.1916890515771572, -0.2336102279266088, -0.13852039122256732, -0.29649797831177727, 0.3040781753329713, 0.04720628352726475, 0.4710485634943071, 0.25324702541089994, 0.2253712959948111, 0.3473415519542171, -0.24190809750342446, -0.36537467483937647, 0.14890232130215986, -0.040355021190754736, -0.14529343117829274, -0.48670687188549566, 0.017235729898413488, 0.37459649459549127, -0.12674797120518522, -0.07851491767045604, 0.21807655604682408, 0.3176568996197302, 0.3824712396039922, -0.44239547710862615, -0.07018741136329287, 0.05710781796023501, -0.26135754584993565, -0.2565353355322758, 0.10683216605976908, -0.28699716467491465, 0.3776276083979708, 0.17068095561673635, -0.44723242475550706, -0.11132883396166227, -0.29018456919228364, 0.36166033191312197, 0.39407297391322127, 0.193286034849511, -0.2976594355268647, -0.2791721179243464, -0.4631471031439607, 0.12733004767689837, -0.4184076642753145, 0.15817745566200359, 0.36661549170913876, 0.36235981741838796, 0.3439101113963139, -0.4700724959524064, 0.03363219706922549, -0.33770660759725013, -0.07650520821394757, -0.4399909108100635, 0.15584386256610672, -0.43448704487476575, -0.06605135248536442, 0.4813079673781838, -0.33323942668300255, 0.4753967498981807, -0.12651121636604923, 0.3670284776976628, -0.16243950206001967, -0.008535793165683092, -0.43623787571097616, 0.010241819359452564, 0.21060118495238955]
[0.1541378737546112, 0.3783228798655004, 0.25362654436116083, 0.29581378423672233, -0.22680280705883926, -0.4907841615301969, -0.12839471159885063, 0.40195943993801675, 0.16331858124368814, 0.11874215391904419, 0.4635255459021016, -0.0985159131104355, 0.41966684894196715, -0.2716333688897491, 0.3292292970499364, -0.439283890615902, -0.16767631811538053, -0.392141255957863, -0.03269969786354421, 0.30640928379790844, 0.1604085653777959, 0.24514210784864454, -0.3385262510126984, -0.05485941120608817, 0.26506830775366697, 0.20096023487860948, -0.39786165172034915, -0.09616881704003499, 0.03508164698529859, -0.21765124968781346, 0.12755606811820808, 0.017665707414811993, -0.37035485388022393, 0.005037657884926494, -0.03663017392983181, -0.24405614496912864, -0.1900220323481444, 0.2572897193378708, -0.21083449197040882, 0.04690502888222037, -0.4652977110459281, -0.07368641469199555, 0.06729887227191145, 0.03932542190280042, 0.05352717833542242, 0.0032738696863857664, -0.16810563360709074, -0.2783056946749545, 0.4495837288884217, 0.34405221179225576, 0.05486738767246058, 0.30903423518125417, -0.047170156264159435, -0.16970288777975673, 0.2810171979067654, -0.29706218794689165, 0.37526292559815, 0.1489323379322791, 0.45568272907070795, 0.13215100800579627, -0.29675044059588895, 0.288177293044942, 0.2561495403334171, 0.2890415155676651, 0.22310128591959266, 0.13426460594658152, -0.21805978517843128, -0.10845211375651942, -0.446904433362582, -0.25457587953487415, 0.15931731428041584, -0.37928660776632317, -0.3915374446277199, -0.021665807638607038, 0.4717720385853279, -0.18933413395896148, -0.16457331412159681, 0.14712498887957914, 0.44096795679577816, 0.10091321543336496, 0.01621440560289278, 0.30615031533054105, 0.45155374261963777, -0.4999182401690814, -0.43099168306552393, -0.434871642873109, -0.16154508118549316, -0.04426786400971716, -0.45485144930309374, -0.4311163949817466, -0.16330069863065855, -0.42335402378379017, 0.46045345339553023, -0.09619437273682252, 0.2315263853591879, 0.1119837850875749, -0.31164964349989843, -0.27072710416346935, -0.4595236235259277, 0.15597232328012367, 0.3895790050804361]
[0.3746728907110498, -0.490650352633194, -0.18271182930660967, -0.14345031432220745, -0.0087177122017158, -0.18962725820526005, 0.269061093294484, -0.28999136333900055, -0.39684608755568684, 0.09360252793688772, -0.3215706110880351, -0.3985162138082472, 0.062290147536587015, -0.038454716883341455, -0.496163205164905, -0.05294633783708347, 0.48076519115636185, 0.012162747980732025, 0.04376848832856428, -0.253696354452272, -0.3139090664958625, -0.1731172724073774, 0.4223815444092738, -0.2750973105976452, 0.12600503977145805, -0.33207316476748827, -0.09450714105590985, -0.11994489721874435, 0.43499141904573546, -0.30678651476805674, -0.44535433013206605, 0.005151889333814941, -0.4327728259304241, -0.3027103968369609, -0.2525167621016178, -0.07673409043332058, -7.177946915487565E-4, -0.2568103989634428, 0.019416425948799, -0.03129322936757983, 0.010780612222965669, -0.4371844272110206, 0.014579576918148596, -0.2783300644404685, 0.4623661945398355, 0.2723783118489319, 0.07332648598183844, 0.12308664158229143, -0.19230320230178777, -0.225366569026469, 0.12902725856932795, -0.12490011927947542, 0.29982492318942877, 0.2010925268878433, 0.13868296854247575, 0.467163347399312, 0.48220554715626784, -0.11491493042529011, 0.22988457097368908, 0.25857972698423026, 0.09070406028547273, -0.3495090413730523, 0.11089881954585368, -0.20463473610573535, 0.43536059424320206, -0.348839887227258, 0.06117296532237604, -0.05735189424383025, 0.1792996038014304, -0.39752006920261573, -0.0036928478944873167, 0.4733777705261938, 0.18705645756401845, 0.009247380075154799, -0.31544883769160503, 0.4699438359531358, -0.22427437400119887, -0.08705264079867392, 0.18114052111196022, 0.2673717872490048, 0.2697176048979578, -0.24326548729396602, -0.05770555445376402, -0.30491501956617406, 0.2335451377137422, 0.19786083526017273, -0.11754437690422037, 0.05879112881457704, 0.13694118746221984, 0.08498699481120298, -0.15363953112905038, -0.3551273617182986, 0.4927450492338501, 0.361760345237204, -0.4182146836256322, -0.4732695826024066, -0.2996253484413487, 0.3582377897352086, 0.3193226548145466, 0.10585056001683257, -0.07366319481680295]
[-0.2118223480840662, 0.49229880222423894, 0.12993440406291024, 0.3581095386632349, -0.21708106543941985, -0.037047511199698735, -0.10374790622871055, 0.07886354440210408, 0.4615129089268897, 0.3602514522960516, -0.029549701620358637, -0.3721274347739112, -0.1380338283957867, -0.21976787837104594, 0.02936555695541454, 0.03509545909729339, -0.46009978587091127, 0.1515052943776488, 0.3709639641533584, -0.25170462480180056, -0.22137192817994478, 0.026578219718942697, 0.22534934028386466, 0.40719425640296725, 0.14859302241622652, 0.42390175348097847, 0.24785164763580858, -0.1384559657991452, 0.10431078095700785, -0.38394130825850403, 0.47852784613933874, 0.1786280911546504, 0.4134009827928141, 0.43626748899482914, -0.3880218814647083, -0.3594101255791632, 0.47498964225554696, -0.2416168508436667, -0.36280018598796393, -0.1068816277947573, 0.003709276552476104, 0.2948349323298306, -0.2207271321646428, 0.47440242387121523, 0.13071895319184668, -0.24755135266758266, 0.2029899189259261, -0.07310056889448924, -0.29538843308177265, -0.31214150754247794, 0.12311505648044851, -0.42565387404165067, 0.4627711324046473, 0.11222188513446618, -0.19322473735489953, -0.1674275370709558, -0.2123118489329987, 0.009207996517035966, 0.45055916440995825, -0.3849380668277741, -0.03706346803808469, 0.4507389849765828, 0.06821769572535041, -0.007164981363452894, 0.19996037274418443, -0.0782797639663465, 0.3344319520429363, -0.226885137557448, 0.21951519345427384, -0.20199576761061844, -0.20406661096143452, 0.07236712348336782, -0.1594476276996314, -0.33890986623128694, -0.016667636680051445, 0.2766890951666304, -0.1454683435876165, 0.2785690237618377, -0.26466922090038814, 0.0061554573273263635, 0.4445917762484599, -0.3689171884729381, 0.4815654666920671, -0.17038847681307812, -0.4532958452118443, 0.3245722299408915, 0.3211484473843166, -0.4874632467028701, -0.15611957447490532, 0.09084757475263283, 0.4810418172943288, -0.47701468372625977, -0.46530036962805954, -0.14997679800171404, 0.14172364818628425, 0.36924176872204983, -0.3761337993378778, -0.014884779101794088, -0.3228267154604193, 0.09771450924853342, 0.24520538479551446]
[0.06210875350754175, 0.07202329107033045, -0.059279246184847145, 0.44644755714216233, 0.21805997797257914, -0.3492032045747263, -0.3287990764671245, -0.05965089553318814, -0.16469481082164283, 0.28246827873477587, -0.30496775860266445, -0.4418582975158708, -0.0783928401237558, -0.09184289515565236, 0.29149481613939376, -0.47100182305622695, -0.17592295053253926, -0.4194174779473556, -0.30142420741818776, 0.25314781226589156, -0.4810321178183071, 0.20097994633522254, -0.06781974948520986, -0.06353042139216125, -0.2600568432745316, -0.20750198260825103, 0.32695036524411425, 0.31083667111537616, -0.36581781426022775, 0.4586667416172644, -0.2087232761877864, -0.32281817416083336, 0.46869184856560786, 0.14134697270758168, -0.3197805606138516, -0.32280254212554704, 0.14845150198628054, -0.08535793411545267, 0.007438067354883393, -0.47522002101854066, -0.0464736509076874, -0.17042740152301017, 0.4408640372281517, -0.0902261716232925, -0.04595787229481274, 0.25888548678853485, 0.15672993880138297, 0.42426496033047967, 0.019921455870391847, 0.28218940840552365, 0.16270506270973384, 0.1556195307557019, 0.20654066547441274, -0.10132179332729718, 0.14326727295181296, 0.040658674623041624, -0.43202699263716193, -0.24197542107878867, 0.22907606098093947, -0.3181944497373632, 0.12624268776861558, -0.3404031364027952, 0.34699274893490006, -0.4112640377074429, -0.19197877323840595, 0.2859715327626142, -0.03147214018257305, 0.2280097412163331, -0.3505438602615296, -0.4912152059432693, 0.14187775247396228, -0.16164538680239748, 0.4653292951806308, 0.1332868560896605, -0.333654067229626, -0.29927977964187014, 0.4805003288589502, 0.1325324647291498, 0.1478267196084717, 0.4399149255750049, 0.12959825758624, 0.262962139108206, 0.4601622961624936, -0.021416349402031853, 0.34518212822480343, 0.4501983372829852, -0.17043338375940287, -0.035520237747572625, 0.1750997112914382, 0.48720151436069226, 0.3579426977843867, -0.15156993059613078, 0.49653042795025815, 0.39650112107267055, 0.30580234302592135, 0.3030866410260188, -0.07279267176467541, 0.2740366391360445, -0.13336939607119203, 0.3415049512368227, -0.22642996323195286]
[-0.44578494227075405, 0.48191955920739304, 0.31978281868868774, 0.0011086385225463902, 0.41410994830524284, -0.03027074329286561, -0.010559804463806666, -0.23608338782283056, 0.4692991999260251, -0.1304838157017134, -0.09708508693485385, -0.011521851204545408, 0.004657722870032521, 0.44210273459090543, -0.23050487546156417, -0.12902657364628733, -0.2695079771469143, -0.2939564279756698, -0.19079592530665213, -0.08210679943763477, 0.4577241358073355, -0.2597221530837299, -0.24140130185351294, 0.33651150892124704, 0.1454025020434705, 0.23783911461967389, -0.0548618741514052, 0.16477373891205338, 0.48963735111024953, -0.04347258468540083, -0.23427569419589356, -0.48058563132411325, -0.40487069844124723, 0.2798308323026042, -0.01978831399948, -0.2633727448231339, 0.29877929209361453, -0.42498321974232167, 0.46212827553731006, -0.018631514814756445, 0.39943884109840544, 0.4151959071913527, 0.4365459919718613, 0.10938014102980576, 0.3886799238970341, 0.018294465660351644, -0.2210165771357362, 0.18028085431275276, 0.27453365507263117, 0.4482538282446139, -0.35058096299153674, 0.040576799534356334, -0.2565323411972501, 0.22240834054012926, -0.40806109360434595, -0.17779512455585522, 0.21544249020592376, -0.026124079777394282, 0.2432377593811641, 0.03522746005976174, 0.31270684105996727, -0.2710715136518874, -0.03786247343761562, 0.17255566330186733, -0.11493686997207386, 0.176691886000383, 0.01748341881906501, 0.3900864821647838, 0.012653688865031376, 0.03215811642133193, 0.45322189075480945, -0.12260366710544923, 0.3418893555659517, 0.2233752916914319, 0.38716130279897276, -0.007858135605350758, -0.29903792512785543, 0.1698136593132995, 0.2938604546504865, 0.09557624362977502, 0.18845321686024918, -0.13871127922919702, -0.2277139574484559, 0.2970974823238943, -0.1681298123921009, -0.2045445953930607, 0.40532504927916657, -0.0074974947319296215, 0.47251380854954106, 0.08677010197271562, -0.41906610312424153, 0.16362924117639233, -0.2511007311001997, 0.2209498304172769, -0.4363493273659883, -0.10367390317513969, -0.0769759554771201, -0.0036585934615297466, -0.3196068728399424, 0.4691965108930811, -0.17790388210743413]
[0.16724497393514648, 0.21590926713646574, -0.33267616595694693, 0.35290642371967873, 0.18412094391811917, -0.4990561708476422, -0.316810231791645, -0.11315010633929568, 0.21173997166988068, -0.2798716413786845, 0.08125721616802317, 0.31066900640247597, 0.2987205334581178, 0.1667983672290141, -0.17680380641475257, -0.30868471302923195, 0.17053007858817448, 0.028386151489497635, 0.2774897676273026, 0.31289325608596374, -0.3770912262721723, 0.2987336351439134, 0.47016391660237233, 0.30947264535584773, -0.09619141662026687, 0.0826138737388018, -0.42735616170850443, 0.23962440765329862, -0.21067833533464864, 0.3829466242839007, -0.23175336470899355, -0.2731434516390018, 0.2827065341661238, 0.4426371676857036, 0.1905781426426103, -0.2753038415957494, -0.0044980989468839105, -0.14933575225976659, -0.4148904213132355, 0.05598425903777049, 0.30585177383982687, -0.08401271716442837, -0.2905325141859397, -0.3769794413669513, 0.33154792114033615, 0.2630388490682053, 0.2584781879169602, 0.08851501955531627, -0.39607155478093403, 0.2090137102522922, 0.27676575566285255, -0.11312552620261296, 0.08365424498960594, 0.24586066441959897, -0.39528937335086256, 0.14117147544520992, -0.17948176576258423, -0.1311707541474466, -0.10716672133907201, 0.433214038768829, 0.1268239702979157, 0.06861828694049854, 0.11517559307941116, 0.40245477004215835, -0.3924953321840421, 0.03561877179854456, 0.31401031167016524, -0.16595205276514613, -0.2299650024777532, 0.012438707592926312, -0.48378349296680045, 0.23718413915232928, 0.2233215930759519, -0.2251568170014332, 0.3759172980014368, -0.0880987126845727, -0.3328588722684801, -0.07856216026819651, 0.11848329848782957, 0.15589259966553126, -0.027672972120076578, 0.008869516921314213, -0.21223645193648, -0.42759915157927597, -0.34321074516223615, -0.4179869207560428, -0.3685867489307961, 0.4061097782098131, -0.0264159467484808, 0.3175586019746105, -0.3015545427100106, 0.4560132751367597, -0.35536616711881674, -0.17539115516642412, 0.36864194056749855, 0.39256316809091363, -0.0026706360326756995, 0.12734143911655438, -0.4147844285273943, 0.24096732844168567, -0.10886982470188156]
[0.49248667261257817, 0.02012561026537285, 0.3833292554958976, 0.35741125962970144, 0.058315728807405764, 0.26570353023294124, -0.32060848171920464, 0.31818728255883644, -0.3279690935621552, 0.41675626899281515, 0.20896530401451152, 0.09797807249345758, 0.4488934971998453, 0.08407054893804522, -0.30130180356035774, -0.30203779041043544, -0.17087885162815408, -0.03674940706821117, -0.08834626235350496, -0.037301655031180214, 0.32753136033580943, -0.4279216866703037, 0.15024554510667132, -0.1629236063057773, -0.2538968559920368, -0.3349058072437151, -0.44861040902658633, -0.11520609046428121, 0.35107458141320935, 0.13585361189691758, 0.037308691625795976, 0.11953575322458876, 0.40388872314465685, -0.07467790383705653, -0.3737570407873291, -0.01383264464478462, 0.4792460352076432, -0.43086978643934504, 0.30439113896116266, 0.021635819629961195, 0.20371664191313055, -0.4630829106657598, -0.18627277769393202, 0.3239048480485537, 0.4048114209769228, 0.4437488761160362, -0.4800922948783687, 0.46213272220783497, 0.1731052225141242, -0.45339315065421437, -0.009695389317879832, -0.12756423542206585, 0.008952277517781049, -0.32180302935062943, 0.03427034733172929, 0.10096162346278037, 0.05052807787494662, -0.08415864540245999, -0.2639399119898246, 0.47963035556864986, 0.3613773891939407, -0.16503107224972702, 0.44540816105415537, -0.05021618072418654, 0.3933443612747589, 0.15473161703920235, -0.21842488886503786, -0.21488355747873633, 0.034704442078714925, -0.052471299836571506, 0.4537524304616902, -0.09235632289164808, 0.10351461218238267, 0.35473126052247717, 0.10403210094858151, 0.339096906145852, -0.24735710098906938, -0.07234451504671657, 0.43871865376294206, 0.08501667859711182, 0.015633407386648757, 0.29584172828015876, -0.3704184952364644, 0.4099486379908661, -0.35849066569084465, -0.14604588410698216, 0.3387160698024938, 0.029529777016940484, 0.44181023884084525, -0.4458769612544934, -0.2509981854427692, 0.21888468924689708, -0.39539327406575797, -0.307688861816914, -0.33328360672695434, 0.21663546262781075, -0.18207016524813768, -0.21470934335498537, 0.10368475692767354, -0.4100395695410768, -0.4110015086402451]
[0.24907805816706552, -0.2565870370370481, 0.41852064952542545, -0.154176975039372, -0.38981981748878725, 0.3489761755929902, 0.2537055230825531, -0.23579103389403255, 0.4077626832925566, 0.4800012876704285, -0.1854683347470526, -0.22412047639337684, -0.2221390285590169, -0.14809582592602244, 0.29266227074868456, -0.11761853862571625, -0.04998973894829384, 0.2926126039897633, -0.04360344634914892, -0.27536608361241455, -0.4678200553382228, -0.46967426770369125, 0.4671122033261552, 0.3394248770314561, -0.48834472000496354, -0.019568606652097698, -0.04847387133539438, 0.17185593483454853, 0.35751668237947387, 0.2905230890801219, 0.4092718416264157, -0.29331947952948856, 0.47462533607934765, -0.35047169886661, 0.47767474371802443, 0.03167656568364441, -0.4704686628582535, -0.22971909691206072, -0.0757611076572271, -0.24735987005049842, -0.1545216925770161, 0.014439591560551746, 0.4922423112295371, -0.05771919790666413, 0.1466864934435813, 0.34447586417825227, -0.11402976914983254, 0.22424641765886244, 0.4213540842670409, -0.3404755604501335, -0.25050144076903524, -0.3313013034527853, -0.4316759565777617, -0.3997904483311139, 0.4665728693039689, -0.09269260811118218, -0.20587791023477708, 0.09213134972960813, 0.4890109181050202, -0.23677418723632515, 0.4350786439525529, -0.2614838854000695, -0.31281082919379577, -0.2644443531122552, -0.00649407964268478, -0.3303950632155206, -0.09144256581695376, -0.12199568823049556, -0.3025912122630352, -0.390324138927007, -0.47124248547171643, -0.03211602335951891, -0.18003388961902123, -0.26783590351400344, 0.2848055593268328, 0.3742957769092846, 0.3280267780296918, 0.33916611568972366, 0.09092973961386586, -0.29671138708379763, 0.16812271475528573, -0.4763167885877193, -0.14496152599365442, 0.12297749723537865, -0.3559910698379223, -0.24871957528421107, -0.4625734645019769, 0.2530509297247888, -0.1085016208854267, -0.26759261656089006, -0.17679009524408573, -0.3592071702373396, 0.4143671777498221, 0.0474475648507896, -0.18388784137958836, 0.13968948822601346, 0.009363762589388314, -0.2663670280685584, 0.10360896686084597, -0.04311263251665387, 0.17886329499041465]
[0.44628153208784804, 0.3920694718052552, -0.2577868475282368, 0.30646604967226193, -0.1336152797100998, -0.33458405899705446, -0.14583795228386043, 0.45384717370179983, -0.25760644323857074, 0.48195690235259625, -0.14279315544817772, -0.3735779189335896, 0.3261207125285367, -0.40856953743715496, 0.3799742049787377, -0.24909981975391804, -0.009002164642821109, -0.4720689326014641, -0.3047189952004469, 0.40955732428657776, -0.49450366992461675, 0.21425345334366389, -0.22939810858127577, -0.41593508076941366, -0.22465829519262082, -0.1006028865249855, 0.08225408219868988, 0.27597183392019664, -0.13478095600217188, -0.05679622904794224, 0.18481688995762469, -0.10855723559378459, -0.23602111809707904, 0.06092572097744886, -0.11426699328887258, -0.2953854213044299, -0.33297638821462805, -0.354749040680033, -0.11134587953819686, -0.45305350230852415, -0.4849912559940286, -0.3054779231157968, -0.06677779789389593, 0.10914721833499219, 0.15080161232319156, -0.3067545019043981, -0.21001840151026474, -0.11205439514390425, -0.2659636556137803, -0.4853760815644841, -0.05304017522622962, -0.1386212554478481, -0.01208608279553247, 0.044727548052092, 0.4633292909078295, 0.4347168786559559, 0.4433468948607003, -0.23594776277067464, 0.25934533372969326, 0.0630523000786356, 0.0927190461291375, -0.03540436395875696, 0.0619517166063035, 0.22726250374915213, -0.2311417566977899, -0.3707845501106548, 0.3318895659331246, 0.11676498665414858, 0.12434786454985236, 0.25491635640579213, -0.23915882271304556, 0.45549597991346624, 0.3021769624372139, 0.062845141458161, 0.34608578174714455, 0.3968025048254846, 0.2607562533758958, 0.10515654139521946, -0.37466093264959877, 0.30844560280332056, 0.24466853190312465, -0.24745518262759247, 0.38587696967063356, -0.4293305113520819, 0.07708684712505165, -0.0738809746186534, 0.0498766284250064, 0.21830067153059696, -0.20938557502058763, 0.2234329396896061, -0.01862843963229721, 0.3720969087474706, -0.3896290146578264, -0.21913689843860762, 0.16137629428755773, -0.07492444127410003, 0.45647004613153197, 0.3131614077522402, 0.032977258756923505, -0.12369230258962927, -0.057397631444787045]
[0.27589145914703755, -0.1681550008315047, 0.03767221353172989, 0.31326101424766467, -0.4924091441838029, 0.3860865982039918, -0.42167787437964954, -0.11578645876428006, 0.025884066285941643, 0.1946905281362803, 0.01712337830112587, 0.3291476454659454, -0.12459621373187835, -0.4247569169025447, -0.17491706287082126, -0.4100136720438786, 0.05526095814924792, -0.1906994980332607, -0.2422030684162938, 0.2791893300312801, -0.41006310880509683, -0.49231947839096174, 0.40184540869539953, 0.1894278294985322, -0.2501452245203555, -0.13164159642448725, 0.19139531794147097, -0.07066031845425547, 0.27651513488750346, 0.10564673368933289, 0.3259906168281408, -0.23635725943482103, 0.22193563628252733, 0.092597579363902, -0.4038351037550999, 0.45170407084645603, -0.32643592303473, 0.1770718501172881, 0.14189021228282173, 0.25075209139062477, 0.20214114175428266, 0.20724215055211104, -0.4828045527295509, 0.27809052009955126, 0.3457900068445523, 0.03402574783372514, 0.27954295614325664, 0.11176055480464064, -0.1792219965124492, 0.14494816484538764, -0.4932405109433031, -0.15111476605023366, 0.43770053861612335, -0.371242269995139, 0.2658151487603023, -0.16070974630474905, -0.10683622670536903, 0.3696074031200069, 0.07730427174760793, -0.0357156831705292, -0.2942476845955838, 0.22641271064887242, -0.1537606353923061, -0.3594320727848608, -0.42927228916094307, -0.03440081238429715, -0.43722160063024174, -0.30508750100636395, 0.31740526179843553, -0.11560777330484184, 0.315761284575692, -0.1226590048842574, 0.4725789052331386, 0.3870202064300059, -0.19255822740552508, 0.05886030853478352, 0.15536453450147225, 0.2576293428399131, -0.39044292903343714, 0.09436832377049392, -0.3404683875659946, 0.011412219050414785, -0.14116472705024083, -0.07782889944505701, -0.38470797198540885, 0.4993960095328039, -0.04529711074534881, -0.28136050531112355, 0.06492729731620017, -0.10746969657276895, 0.09104735849391388, -0.17019110353918954, 0.13526817830676097, 0.27716171662889655, 0.13347765886123208, -0.23864682251149427, 0.24492312390984683, 0.3566759612440883, 0.4332342790428318, -0.2758613840771802, -0.05471442889046807]
[0.17303466885724422, -0.34091947002720996, 0.10465683428521289, -0.43826815437707944, 0.3379824101964195, -0.37072387169874077, -0.24185421697486875, -0.2249447406450353, -0.011683243192800896, 0.41454385300260954, 0.20520788150860325, 0.1630654482932148, -0.40879783910494016, -0.29241271859885615, -0.3409606276046768, -0.49184696221765906, -0.2782965699298633, -0.4442597502933611, 0.29575684679564135, 0.37106340063308685, 0.19449289229774402, 0.0747536168442411, 0.3534889224952544, 0.022572634103932166, 0.2406599894985334, -0.2715523402896325, 0.41321920771881165, 0.3440174352861105, -0.04326215730848193, -0.05040335947904595, -0.19563652183520286, -0.29924964015716404, -0.08449466121215404, -0.09729593784450623, -0.1169677512513883, 0.12396307677585366, -0.34599187055360014, -0.038302304761280326, 0.27336224551445454, 0.35525352420829603, -0.2645522714326556, 0.371149750061686, -0.07424219106532781, 0.43405056578983964, 0.2215714080908735, 0.25555942538325427, 0.46195834696426746, -0.4474276306691489, -0.3222378004391542, -0.28377849854541426, -0.23627708222049437, -0.16191356273345492, 0.3020743389239661, 0.34589685043010243, 0.23935332808190624, -0.42651428687721, 0.3468242788967237, -0.20530977689542645, 0.2527691298587362, 0.125447387108919, -0.20646365802131472, -0.4580093618223191, -0.08582016224060966, -0.49832593946025894, 0.14989977588595504, 0.04001931059554609, -0.19131908341629045, 0.031000013183038667, 0.29169324892853227, -0.22104491867601955, 0.25728777866610414, 0.17600795275416817, -0.4535190889913166, -0.36368709801161936, 0.4002017141197711, -0.30726914072166134, -0.4287909917617052, 0.07435233588460799, -0.2693841405174825, -0.004162676993046783, 0.11438097425939553, 0.3444418895374079, -0.30658236808049655, 0.33139022904862436, -0.49967349866564914, 0.02205313744189, -0.3642428908481615, -0.18266711137939795, 0.4644166516953831, 0.14608176443746804, -0.31617867327013827, 0.23637530426235787, 0.03362965810513765, 0.0012606871215378177, 0.12567480526378272, 0.429436408122839, 0.28789824284691934, -0.3322347151851912, 0.4165274501963799, -0.05207212218154189, 0.1760633614171948]
[0.02642914481249887, 0.30702474324447565, 0.34727737204486797, 0.029167646757091645, -0.4965222282714758, -0.4659348618573223, 0.13368369946192857, 0.06683027630364287, 0.4139409648793436, -0.13305879250945765, -0.08858632068089711, -0.027421917314595607, -0.3442131663710055, -0.0470390875775382, -0.27423674797330605, -0.4288246314002902, -0.30876154849055887, -0.04924298916684854, -0.0702910041749276, -0.24582821341180705, -0.4733288594367185, -0.3290431285775097, 0.19483422181155224, 0.033414168244266504, 0.42400525711910225, 0.23431272239529105, 0.3535125600925058, -0.42677311284805447, -0.423147114951053, -0.32049168795401534, 0.06303872669596702, 0.0696795413573624, -0.11497781447653052, 0.4105379826953943, -0.24116644210704874, -0.3837477265980664, 0.2953010507442342, 0.3341503799564709, 0.030688376349823243, -0.42904286619366144, -0.23811472308914536, -0.47008160329404314, 0.46051037011246043, 0.4742642604073697, 0.22781420806593367, -0.13609644168055102, 0.3228022389715134, 0.28696068292116117, 0.25851842089946664, -0.07781403936521103, -0.17992203137639015, -0.44064636364840987, 0.13757459360333896, -0.278852047146798, 0.12132321875120755, -0.35859537111554773, 0.3944635763802361, -0.3609542896860384, -0.12125091821169272, -0.21260080689920668, -0.40681475322389177, -0.12186943186217636, 0.19587297834233477, -0.3167834559767278, 0.27697774311825063, -0.3653050651876196, 0.2810500783021805, 0.08295176555264022, -0.46434301756603696, -0.4493450920667628, 0.0972909774409779, 0.3085270283831851, -0.34861089528155603, 0.14011211377176777, 0.404883355985783, 0.4531099737355374, -0.3753033026010374, -0.38507547614065174, -0.47950419213877365, 0.14115045113978433, 0.07950920419424656, -0.09139527763993026, -0.06871589966255115, -0.4582256991893646, 0.4158818446559284, -0.01826276034476496, -0.27831796855920254, -0.24898003870248753, 0.41262933552871756, 0.4713101798974716, 0.35972517985432895, 0.21225628081104486, -0.3313873601287612, -0.46307884656048376, 0.05911667416423947, 0.045344395104313984, -0.4236168940746217, 0.07147208612199434, 0.22674732147445215, 0.3622398898128303, 0.3354482798249231]
[0.4388282658464147, 0.0851798530972653, 0.03715344187771431, -0.2668784845924525, -0.36153872032451567, -0.13040266679339685, -0.06162889603132505, 0.03152620212840083, -0.07786617583586666, -0.2678196829065127, 0.34605346546459825, 0.32012750308219745, -0.40417128185611534, 0.3431255455177719, 0.10313361530771453, 0.06234362742383067, -0.13280494312013466, -0.48871649370044545, 0.09796588342454168, -0.4099698906711602, -0.07654506356046754, 0.4142390633136036, -0.16655766204701067, 0.22425183241600083, -0.23582206065277359, -0.19104369216196523, 0.10927083053126772, -0.35226823016641007, 0.027860977631584013, -0.006245739978296477, 0.47008046015553745, 0.03767287285725119, -0.07444040973330356, -0.34680421386374255, 0.48765543081353857, 0.05696911271532094, 0.47717234060156405, 0.35475928683315544, -0.012525241765355744, 0.2572445757704947, -0.06371286159032788, -0.44460345131496976, 0.06802011409425023, -0.41250051542582306, 0.4996280699780492, 0.07712143503026088, 0.0038345365596209593, 0.32295467055279675, -0.3101508766602632, 0.3110476977558714, 0.32657545361414525, -0.41331004640960095, 0.14123576570144933, -0.46713186167352555, -0.19932142938335096, -0.2732202107971228, -0.1723288420274028, -0.16097423296329955, -0.36950189973433234, 0.059622652869635084, 0.46905994988934363, 0.12099026451212198, -0.12842683532422575, 0.20304984356035616, 0.009679003875953385, 0.4584588748850511, 0.029606166841323445, -0.3288159679263182, -0.1010345631731948, 0.003013110084174142, -0.22935090475723569, -0.08926244772910134, 0.4135360606774765, 0.19084973957115334, -0.08266366180810177, -0.19596412356079296, 0.40606084522256214, -0.3148443814648615, 0.27206633447366285, -0.489375800190291, -0.3327872577804647, -0.043933584728935035, 0.2597210393481379, -0.25498752247721523, -0.4224601505209704, -0.13183942775554738, 0.13662795266042377, -0.4403097942026132, -0.18062129395617071, -0.1746806578154119, 0.2584275143353655, -0.3862453384533451, -0.29945775753336973, 0.39973064089724614, -0.04628567617127939, -0.40503654869573613, 0.17893107802767277, -0.4731557203405703, -0.39023587346764727, 0.3800257386995328, 0.41906158588905873]
[0.10303080850855759, -0.10276679989364615, -0.1155313298527875, 0.11556340044791175, 0.11256650130136506, -0.3124460638242991, 0.322426791945072, 0.43866822216452367, 0.06709585947530433, 0.3464814006525923, -0.2106029485695391, 0.13745632837846877, 0.3328917107004284, 0.49107194552017797, -0.3705100973873714, -0.3516700014792897, -0.46559785386178815, -0.31165193081482184, 0.08267605953616193, -0.18681621356651024, 8.154713128673108E-4, -0.08211430801173705, 0.06393003707708599, 0.3656524897359784, 0.3399073198906136, -0.19454584592585036, -0.24962658369469995, 0.4496757156030992, -0.147826734622672, -0.11195004880710528, -0.13806620412356546, -0.4121016747278697, -0.15866784242501397, 0.013687216143083346, 0.0972460545860224, 0.4818541651058787, -0.019135957509902872, 0.3446369361284605, 0.3016804909446221, -0.25659487510356943, -0.4562716224679056, 0.47102618086596354, 0.20156929406838045, 0.027500503651074024, 0.48800074200014043, 0.15558377724596817, -0.3914850142719953, -0.1511003018028515, -0.15558185941138705, 0.3486051242961994, -0.009971171810295948, 0.09784711514209334, -0.21805479129061017, 0.4399362052801701, 0.12721128302414936, -0.4832603140723832, -0.06857033528195426, 0.238199414585591, -0.44576716203135336, 0.36688589704327423, 0.2505265810798725, -0.2629467944711216, -0.0638315522493813, 0.012003808420248488, 0.40640628743901985, -0.3848489517533409, 0.4312980378586063, -0.4698954531638485, -0.17682554268663916, 0.267005838432239, 0.32920694842649584, 0.22190446895198843, 0.19418897309485, 0.3424782932610174, -0.05569249021894103, -0.4109986116492615, 0.27217812452622603, -0.001756988109059332, -0.16263832914278947, 0.4437541872273074, 0.04403730586750323, 0.4910779198828464, -0.10642199469879354, -0.28776608142683313, 0.4057677193751468, 0.3675691712322617, -0.2717936362135175, 0.19860688467834675, 0.4714881415097988, 0.05687095795666345, 0.1482363234199381, 0.37869611958483396, 0.4709555129472425, -0.1359877534033066, 0.1391839912039398, -0.42887828201146205, 0.06407597480607814, 0.15313360327514988, -0.050776126267249644, 0.013186482650764058, 0.441129977794412]
[-0.2643187999908059, 0.288589856864205, -0.3286481306264048, 0.41511534859862464, 0.0028618452178148512, -0.10237255544662839, 0.36642661518856867, -0.05072581164250516, -0.31960082784176647, 0.4399450827397428, 0.31601278027331225, 0.1783098928266879, -0.26616179662939704, 0.17014290125281992, 0.2396703744169521, 0.11881837867466918, 0.1501470060291885, 0.49551730779408354, 0.046916865964047684, -0.10130521634432738, -0.43319005352521267, 0.06008454049101799, 0.4281287864156765, -0.43534918958179325, -0.2601452009777952, -0.4684043253402177, -0.045529498755353, -0.14360784782853317, 0.3388072447922836, 0.3337973764701181, -0.14038620642848385, 0.08543819277637012, -0.3423703820978432, 0.5052512767198528, 0.06978352208393226, -0.2387899090087773, -0.011701383916005203, 0.4104488516228815, 0.4152055046585792, 0.22974925190733939, 0.26401676806799607, -0.08115954115966748, 0.15582070834463785, 0.17819877503564233, -0.2097770488772412, 0.033673718234099925, -0.1437160518277034, 0.4400505229470893, 0.43092091559019907, -0.4895144723853788, 0.26784322726028953, 0.1674708359579349, 0.40523021926922936, -0.22152838247737625, -0.19467542745575836, 0.4359970720550954, -0.16485020184564106, -0.2423550508709312, 0.43580371689469083, 0.2718584245557647, -0.23770130596288463, -0.3056838990520308, -0.19864840259766883, 0.37567975333871445, -0.39643007914694395, 0.04154951209451398, 0.15755748067544786, 0.004995750421775821, -0.2764077826724653, 0.31164297493569215, -0.21664099687304733, 0.4829741361417983, 0.17104718767700902, -0.11222485768150185, -0.21209444533956254, 0.32979952037998994, -0.20352552836194154, -0.0546381365611196, -0.4140413253111463, -0.36413895178374756, -0.28720435855200005, 0.2934156303919141, -0.17994534213745256, -0.05473470755590469, 0.44214592980459894, 0.056431906776819786, 0.24076851519191064, -0.1871333943952912, -0.11428286409566128, 0.35577398063965465, -0.20901467261863185, 0.27653618620950304, -0.31419326277446924, 0.43341242734662055, 0.2967609370412589, 0.45955761081151936, -0.025556926978252778, 0.43614422926318214, 0.232273691076848, 0.47583604596041024, 0.16071135599023323]
[0.21132816498207077, 0.23064996060797735, 0.23438232178599497, 0.05457917534927927, -0.0422401367060794, -0.20014906414742728, -0.1318353763557663, -0.31082859088853043, 0.07582500579272158, -0.15086018591159356, -0.43451621759388726, 0.19579262138088266, 0.09471472129430301, -0.13962056147636773, -0.3901541120225031, 0.1650329766917821, 0.1620473965879065, 0.27617287075221403, 0.1958960151297076, -0.17373871295685553, 0.3130210455413467, -0.37017527479657064, -0.42329101444336514, 0.1738403270523789, -0.49159223991767803, -0.3029739675017684, 0.43948190930080316, -0.4479064396316824, -0.46675771666722937, 0.18383647148695081, -0.37863904836082407, -0.30953896987844326, 4.7106663328841554E-4, 0.20329959419760443, -0.11458590462731584, 0.1986724346366825, -0.053974533677888195, 0.483585336484491, -0.15428707135873376, -0.01878486869902892, 0.25017485969747427, 0.2828405232663836, -0.23744489754751594, -0.07119867048367494, 0.31064327192880337, 0.424959778554636, 0.4147875193034503, 0.17314178099180857, -0.13115043050312722, -0.18048045224926135, 0.38101476361855546, 0.4971676914518668, -0.11356441540016034, -0.008553078354926974, 0.13174046811547807, 0.361443901544278, -0.10532414567391042, -0.34865988834320744, 0.08451313182419708, 0.2054052571325431, 0.4867800399450955, -0.0055742254714966815, -0.1339476774891062, 0.2735034834390489, -0.32672255035816206, 0.058793502168997085, -0.299266327800906, 0.07619415119867207, 0.3116894813757677, -0.1109688412856572, 0.3137251390314506, -0.38285185527587823, 0.0333607549746034, -0.27771506078189906, -0.338686771359329, 0.10078044908078541, 0.2982034525608945, 0.42259594338011197, -0.06768599072353472, -0.10758704585043237, -0.15149118427349847, 0.030186351068255596, -0.08258963073828847, -0.11528236859922668, -0.35024345488341935, -0.20018700676013956, -0.09011905819357757, 0.12117127803591066, 0.2924875362956936, -0.22961625251357162, -0.38359897156305384, -0.10175839692836142, 0.34589507984714846, 0.006997825514793144, -0.3774593356919676, -0.1651942155738626, 0.28870584960490514, -0.48285967815829917, 0.04305183058555918, 0.09511699476221336, -0.18914158234983425]
[0.25040213152984725, -0.31847185436099945, 0.284622990032293, 0.019054111164938145, -0.4706579210079288, 0.1447492791650746, -0.25227244107516844, 0.3454039119081894, -0.2610441548396186, -0.2375920112667718, -0.3594285893821184, 0.39804512209589266, 0.426612120051664, 0.06977739330148623, -0.3852655931843518, -0.1929354372063851, 0.18930038160073145, -0.06589178756323616, -0.2072489455835487, 0.10200273846619745, -0.47228332700643794, -0.013805376573648928, -0.0856993802431331, 0.4873114391456668, -0.00590124529079299, -0.31891418946440697, -0.10746700432095023, 0.33530583978571155, 0.4878189820679765, -0.18661847658193276, -0.28518704813162493, 0.4901733929044034, -0.4062918106898616, 0.3545137920223143, -0.17480463221396628, 0.4558117150484298, 0.09666700671572535, 0.4049881814826775, -0.461846558765876, -0.025571217656081804, -0.30166830653521526, -0.4682274851538444, -0.07649780444228471, 0.3089843059475355, 0.181388236054026, -0.12246443983815482, -0.44963076306057265, -0.2409971390935016, -0.37703586643309217, 0.4748687310320615, 0.4051117156370288, -0.36160504093522655, 0.46332449061894754, -0.49234895258633493, 0.35552643298725306, -0.42209566096821755, 0.11441751482203628, -0.24747936087183509, -0.39741991502932134, 0.16026046830858098, -0.19212516093259044, 0.29483224872764435, -0.32299661203376306, -0.18728602238639122, -0.34393769760320175, -0.36061669605721364, -0.06535632256886828, 0.08662244209698845, -0.3217298906659288, -0.08158033371122231, -0.06820672208078944, 0.30112892041775907, -0.0849927861929105, 0.002415994864721492, -0.10033211247247814, -0.036042581646322396, -0.2235317566493713, -0.4826505526597116, -0.3096088337147737, -0.0894608420552658, 0.2938625633149921, -0.356472314087662, -0.16433103582291161, -0.42616580063557397, -0.48937424831347465, -0.1118499567174844, -0.12367990613729839, -0.26174662881152666, 0.2535936284373422, 0.3005781086679724, -0.4431922700503662, -0.15146682801903533, -0.1748769465533535, -0.022711787417184385, -0.37217847293286155, 0.11863759336619484, -0.07271053276233375, -0.12036815737351654, 0.16013444875174798, 0.201079860548979, 0.32026284291792406]
[-0.23599415788045747, -0.46587238003154263, -0.07472515666531832, -0.037713560246706634, -0.39698266439896646, 0.17809672330364826, -0.14052491937134856, -0.18066653401626698, -0.08076879845303002, -0.49924499055377447, -0.30693344098788666, 0.15673434474673556, 0.10810839460120376, -0.457101452681776, -0.29763647280931876, -0.2584948982831857, -0.16540881639712943, -0.32624299962491987, -0.2268155692690231, -0.41503568317269235, -0.41047303855527195, -0.43140876969308617, 0.17065209046856442, 0.4647606822651579, -0.08929042980542931, -0.12835004098758626, 0.301394456122033, 0.15798821293465876, -0.1970312021744952, 0.042074352397122636, 0.09669155549239099, 0.33010188521200795, 0.16242444735419667, -0.3103907058423798, -0.13645583199471958, -0.23765540884698536, 0.06585398741020679, -0.15853611754022304, 0.1597442248275761, 0.16303715286676446, -0.4117704936568664, 0.19237059370513865, -0.0373340844276262, -0.3323338946312466, 0.10180051847163736, 0.32784324240301305, -0.13226113572491427, 0.24669044656772848, -0.12696574014102507, -0.2716808704815119, -0.05116737929520402, 0.3964581043943554, 0.13777810490866585, 0.17899513286405658, -0.08768146801231606, 0.25828519410102113, 0.1404939667464332, 0.4414964935781939, -0.21272133547464459, -0.13339077057555349, 0.21797980243748505, -0.3279603938087875, 0.461942573099832, -0.3437110036741708, 0.3043270342280634, 0.3849745417961401, -0.20211735571861666, 0.012517579077839309, 0.43359968816931227, -0.28900471340528355, -0.37937259538790463, 0.22860873214941058, -0.187053093486446, 0.42851170800970445, 0.4676947073820318, 0.10348087537207215, -0.2865525062624028, 0.42867948792754385, 0.16051360057096617, 0.28916240903614887, -0.18831136686136313, 0.28881254788903477, -0.24267098965601883, 0.1373779277552855, 0.03996974199237652, 0.327311515779914, 0.36640793867980204, 0.21898465917612742, 0.4274864084281982, 0.37744381929959653, -0.3952923964256006, 0.3033506007302197, -0.09574106075518013, 0.27710863799532365, 0.41468844024261114, -0.3150690811240945, 0.3231245485953106, 0.33694078132798017, -0.4077144621121904, -0.23942234554901887, 0.2086317861842052]
[-0.13626521762800403, -0.2213829474247625, -0.3733482730419672, -0.15083332202709063, 0.299497187443831, -0.29523669515824047, 0.20338424341491046, 0.3808318173214388, -0.14018955889931545, 0.4473399120944516, -0.32382905652137717, 0.475113554227746, -0.35134777475739876, 0.09598528972540499, -0.23923604744878893, 0.05592237251615028, -0.1453797460529148, 0.13423531843419956, 0.01411297266105775, 0.2715131367978676, 0.35993094026578715, -0.03539428417841001, -0.46816271275859117, -0.3462552526732613, 0.28350509226673487, 0.49467259057467033, 0.37558534505462154, -0.3410070752056878, 0.34863002149386374, -0.001175631613876564, -0.49438022049018304, -0.1508730256794368, 0.4049901080473904, 0.31225580543137865, 0.001639320960779588, -0.3169069023602265, 0.4479671580145233, -0.0318785778115263, -0.24838120920635776, -0.3595288414925408, -0.012967465687954717, 0.06028164191072046, -0.45062839493718965, -0.43264180526171375, 0.043711590446020215, -0.38595336739445874, 0.3125899348526559, -0.4885583674245055, -0.30713191550528657, 0.15264832527143046, -0.4783020722073009, 0.09800095310651331, 0.43624531516931714, -0.12126362330893259, -0.15853985436473877, -0.25212387426438776, 0.47640946880602686, 0.02503157982694181, 0.47575017076164605, -0.4331770565750073, -0.04311210977409387, -0.27101786899644015, 0.24245166116709585, 0.458864334600729, -0.4932922724302906, -0.27544677240222326, 0.10802055977677248, -0.16076600155993015, -0.47454706616300846, -0.3362584463669651, -0.33731904966871357, 0.2575528799959479, 0.3721118605034694, -0.28989945106668225, 0.15154712822184688, -0.19722572118006618, -0.013643434762857584, 0.3433838123307492, -0.35282932781198495, -0.2528856248131897, -0.4625773021053803, -0.04332223521591619, 0.491976913165302, -0.2564103682856547, -0.06508799485782764, 0.0070110328337548745, 0.3460444735406295, -0.3815592957980666, 0.44100904313808087, -0.3472142167011399, 0.03729561151453463, -0.08342296688180817, 0.2651381126633325, -0.39062107281146297, 0.010159539520019889, -0.32684889858108224, -0.3208914577920336, 0.2337011249800786, 0.2122654811553989, 0.4356318932712565, -0.13608817893006664]
[-0.13974848699366968, 0.23568074771851685, 0.22450736933753115, -0.1655099715829819, -0.22933531916420724, 0.0643500582383157, 0.47215198494267596, -0.2873325887617587, -0.4337253192045637, -0.3800789415537014, -0.4426385233367891, -0.2228619542891199, 0.24348830965759852, -0.44067194148457617, 0.24477065630020456, 0.15556931790598144, 0.0011792018967287303, -0.11100524717807198, -0.37082550434006595, 0.32647175762962116, 0.43187712230069447, 0.2608916640925898, 0.239127552293024, 0.08703938412747737, 0.149611122404071, -0.46380472975672415, -0.03881982707963994, 0.12547757959700465, -0.07458427021669434, -0.413406573189581, -0.39131037764552423, 0.39549597377534573, 0.11473562345100353, -0.366660315746372, -0.4277825573385855, -0.18569326464254282, -0.27060248646368695, -0.3993071207867907, -0.04693749744225373, -0.1271797283832218, -0.056986729297689435, 0.33367950931442714, 0.1624841367025366, -0.35805481834207753, -0.3993518210607878, 0.44462840674825316, -0.22425630364419133, -0.4874557820727321, -0.15616228178852193, 0.15244053535864524, 0.3161096501099566, -0.23706682274003818, 0.5084997531011716, 0.4945200375207084, 0.022620414691787143, 0.22620014666525173, 0.26553330421435856, 0.1893608059067885, 0.039520772928985634, -0.09492649915385737, 0.1617645608292031, -0.4482719488320937, 0.08911551032629236, -0.16504904113557906, 0.48614836867910394, -0.3290193051493161, -0.07707129081324689, -0.06676696964659928, -0.14676596182984813, 0.47059626841937, -0.29124865181386034, -0.20890191477464445, -0.11032833074060418, -0.2776318553759101, 0.166290520517119, -0.4875069917596345, -0.44163559393928575, 0.4414295330042568, -0.2008217157470853, -0.3999600415679947, -0.4511269908323715, 0.05713761598360285, -0.2949833273453212, 0.05095589443760296, -0.38287216646557665, -0.46777264853372313, 0.24656092268546928, 0.2703507368407099, 0.24561280471117555, 0.15946215684924497, 0.4834440759954649, -0.45775784055503144, 0.2273375079064556, 0.31895508869411476, 0.056231003307626, 0.10163404058631065, -0.009070931470574809, -0.20836584281126613, -0.35162917883128514, -0.16981803052009933, 0.24275008330172643]
[-0.31352297825306424, 0.44392932089605514, 0.1503793962752743, 0.16556665469964985, 0.35944652045250836, -0.057988353077913016, -0.3062291656214426, -0.11366816929068842, 0.12681682043454368, -0.27839595298690484, 0.10702539061758987, 0.07457494612268524, 0.4411445273242511, 0.002001696211906234, -0.29730874065629215, 0.006142921129724975, 0.1495060392290428, 0.19985084563785016, 0.24891914414181673, 0.0589687136158346, -0.04889216977450491, -0.16117137855323227, -0.49152863381610334, 0.25500569348589053, -0.45693765153560495, 0.2662912457968874, -0.02682935364114459, -0.21810262652052534, 0.33487368599055095, -0.035676858262375495, 0.2375402732604861, -0.019584728964982718, -0.24000010726346657, -0.4880322048660738, 0.08151053132051964, -0.20389593011135837, -0.4457596393693595, 0.19008619232801632, 0.21804298290603763, 0.061101908123763544, 0.34888976540595434, 0.49151884726994455, 0.17810085475264056, -0.33979548139383225, -0.2334397791859185, 0.4260027314292288, 0.049513791109618475, -0.1799288975233614, -0.11931966096856428, 0.4555110684016951, -0.1144741263797604, -0.1720954744133778, 0.04354306784246469, -0.3089362564922358, -0.30342952983923765, 0.3008119839587865, -0.1542452619129717, 0.369943134031086, 0.16023241691288106, -0.4116620479281097, 0.039155444321504654, -0.32032049291554854, 0.3508485610850324, -0.38847759098647183, -0.040086965553678335, -0.3927599916936755, -0.4765258667693744, 0.15937242121207085, -0.38322998764661087, -0.23695938764657593, 0.029750723102406514, 0.22153049847031428, 0.46160636045155207, -0.3762887037710829, -0.060325921130444216, -0.08153858976765437, 0.4357661660430056, 0.4304477535739669, 0.24077884114426165, 0.40406384312439547, 0.07883655937023978, 0.26114735602178324, -0.10707541082867612, -0.4713857633305163, -0.35627084953559646, 0.17415151113080107, 0.19503989974961783, -0.08991046895161729, -0.38502457730759165, -0.4424238109755149, 0.1512653107809962, 0.17886899073495696, -0.20699346965863558, -0.3002017896133216, 0.3595190771478263, -0.13327720158797918, 0.27307093975555446, -0.3412055669911165, 0.37204490604072127, 0.3783659403119456, 0.48091461271684155]
[-0.2526401306621792, 0.36937937700854856, -0.13855620125427737, -0.26408116625804257, 0.4561429451152462, 0.32949245425124635, -0.08884320773702349, 0.09937437105048864, 7.588087065666386E-4, 0.4797316865928451, -0.3900529139580644, 0.15956793337915523, 0.1525926065860375, -0.35984250517429206, 0.05604418262135644, 0.33343829900841965, -0.3459514120991461, 0.3106172156108832, -0.4224584873745819, 0.2561513970719877, 0.3895859101891826, 0.023519792317337238, -0.03340674995004504, -0.34819383402363446, 0.2181340443383995, 0.33555596056823433, -0.3949007274885304, 0.0032902413828039324, 0.01840512249760906, -0.34562118259934527, -0.09875139843387522, -0.49662103925536566, -0.21325164738299687, 0.41226553118908754, 0.46960372805252193, 0.16077716924566338, -0.4400870300748143, 0.1219456150218198, -0.1610403316389578, 0.2737475781211166, 0.24903642956942115, 0.45222932311016417, 0.40018420523091525, 0.20489352497760832, 0.36537196938535027, -0.042367345115964725, 0.4371497978674802, 0.09944107117663215, -0.3176974215472241, -0.17984910035611668, -0.2165207666921638, 0.346619792143461, -0.03848317953949005, -0.1202302930430815, -0.49196494134080837, 0.07004792552587599, -0.07479980661868017, 0.24876553538545956, 0.13754766208165228, 0.12824960058340593, -0.13387262600806565, 0.06769860402145036, 0.4546413556753479, -0.49081489960604213, -0.3507313429744082, 0.19185027558363632, -0.17920821855469227, 0.3926642883468249, -0.45465540253712616, 0.24266452733431385, 0.30806287651045977, 0.24554078341270114, -0.43478056620414846, 0.018175447443349018, -0.33081094954066304, -0.3653675506981061, 0.3444352981327795, 0.3092582301034601, 0.32836210463181065, 0.16807421491500776, 0.21718364522527914, -0.4687889097831323, 0.0933988517513294, 0.3661505840641208, 0.06934875197866437, -0.1571291311460468, 0.31256521042383023, 0.44147520978954896, 0.450377663715916, 0.3629134408416239, 0.4717719313324516, -0.37737462973845465, -0.12340788388835451, -0.33134082792064995, 0.08007701696993087, 0.13148880145405473, 0.03773869080505703, -0.2974252041473311, -0.1364916083518562, -0.055697150064398245, -0.009297385862701457]
