[0.4191883635158574, 0.42906880763233235, 0.49896642953913717, 0.2718066592457711, -0.45924755159370856, -0.37177992723086395, -0.4037875474527983, -0.43327233934163656, 0.38322572449241277, -0.13475344282623014, 0.2616367737686751, 0.06825677158570054, 0.47207035455995405, -0.04988996944086532, 0.10953689426886692, 0.03866231143772658, 0.4541639181328131, 0.22379751944964432, -0.3701874919091511, 0.02271480992424124, 0.1319890701442613, -0.13854587903266602, -0.27561654449467266, -0.41086709698566226, 0.1042162277846217, 0.21248872306251632, -0.22334841057863097, -0.36608031629437265, -0.1552592226929963, -0.3777365624884734, 0.14124404799269696, -0.2663426922735628, -0.07959935986984912, -0.16279618146730102, 0.45006448832854196, -0.040320811654821154, 0.4470144731449056, -0.46635662735861105, -0.3292818574355192, -0.23185989305198929, -0.1859561437044055, -0.26955699918258536, 0.4246651397918275, 0.06635689451508142, 0.17009804304266618, -0.15359796574793094, -0.32500375677201865, 0.3223936640947277, 0.1546629544860616, -0.05429587139078329, -0.4724864920581183, -0.3672834485048937, -0.11414915916729695, 0.2781182751608616, -0.4461619324614122, -0.008154512165179484, 0.2696305982066646, -0.43459865155328736, -0.25844413533547417, -0.38171887805937244, 0.28291315598613875, -0.3886748388450838, -0.09604853203819042, 0.08258753695552545, 0.0010302242969103537, -0.2800221665808571, 0.1406690495891485, 0.15636181080855904, -0.21044127174656047, 0.09546569041985009, -0.26932134582114986, -0.2450756709449433, 0.2611075146204781, -0.13413161429569365, -0.3397848980833742, 0.08191409403485939, 0.3095966229100169, -0.3747233876910453, -0.15910433093080512, 0.1005757652810556, -0.22227589865010589, 0.41996847546848304, -0.04298781857002165, -0.2456236295254507, 0.0877285301676567, -0.08174332602487289, -0.2039684781361829, -0.061309129816186414, 0.4712202492724443, 0.09826589005094033, -0.13737149558102324, 0.08564799682872881, 0.2707680775785679, 0.1638756718164367, 0.054113221775118014, 0.3658289027975947, 0.15409220428651083, -0.4437087991167763, 0.18390496599275485, -0.06663742506130177, -0.018871892765795484]
[-0.13281952020473076, 0.17974289953036893, 0.34506414977706423, 0.4948908546571279, 0.17904333382452653, -0.1453865498168757, 0.26961306490715686, -0.03101779888814926, -0.14054584408952597, 0.2509133867746416, -0.13062977659720143, 0.43774796789464887, 0.11804651741856609, -0.3078438657657995, -0.2147154587274821, 0.15950689065886214, -0.30141517212632163, -0.15843164118639286, 0.4844405999659791, -0.4810642218926111, -0.07680526170893287, 0.2632129747455487, -0.1598485288298822, -0.3383893373958038, -0.06820008462318694, 0.20881332870580394, 0.20610133310495138, -0.2281331204038679, 0.3670402389636015, -0.38775704226405805, -0.08110495886628288, 0.05455595121796797, -0.05657742373347252, -0.4363161261537638, 0.1174724168334319, 0.16194008978265761, 0.30918180732327527, -0.14325427339976593, 0.00319744872397143, 0.018880534482467626, 0.3603063884979538, -0.4456228479170934, 0.18103375518478837, -0.25736123214640416, -0.30159028660102394, -0.09681043509278997, -0.4799311280982137, -0.371975497956366, 0.23760431326789222, 0.34085300655175677, 0.05075241437784761, -0.0257119803784287, 0.06026315444238195, -0.2124876892419838, -0.22343627314057013, -0.13293110796854413, 0.49752859940038807, -0.11028878453948154, -0.08057310163817688, -0.1031234924248583, 0.0676563263569655, 0.39410118710361086, 0.041042277404604754, 0.19499263400487044, 0.34375751792258047, 0.3682504036959886, -0.3135948391012817, 0.09834978090722835, 0.042230033005058676, -0.44284219563412697, -0.31886599455532305, 0.2168535747346687, -0.37585468876768857, -0.23338414951193587, -0.01916774849701186, -0.33021913315471074, 0.48408416912524876, -0.20164507674216148, 0.018558738611038184, -0.2176997535682842, 0.36439177478659723, 0.12694149393821175, -0.17441581826305108, -0.4111754462148086, -0.02245184024647462, 0.20469061574951075, -0.18903797347281448, 0.07682029569502857, -0.05467264347644896, 0.008393135677711383, -0.022956157873509908, 0.22286169614790075, 0.0706450271565755, 0.2004467026473602, -0.4790790519749899, -0.47786780446588384, -0.35352962178862646, 0.06701854134412, 0.22587565305312662, -0.10676031911169681, -0.024094286314770286]
[0.21715741120776277, -0.21772344975976443, -0.4478739977220685, -0.4714876243042909, -0.12068892493715633, 0.19395487674449485, -0.30798471128227367, 0.19018960722793932, -0.4845056063549874, -0.2760508757567607, -0.41924012341761074, -0.12261194951972376, 0.38839285419491, 0.4126080725536524, -0.007393693963685721, 0.38116777101241717, -0.33702537635113483, 0.061392808708840896, -0.27168160888088166, -0.317414297047801, -0.39827609392436425, -0.28267928049316604, 0.34575802377927634, 0.13812501069983696, 0.42139722981586103, 0.1158454208074855, 0.12243881516618049, -0.1276450101357638, 0.4192432608512151, 0.24406846595828102, -0.29776893887045097, 0.43473693034243466, 0.0479157309553202, 0.1715301026789564, -0.1596881915346412, 0.2784675113068855, -0.27915130689407364, -0.4375719175141375, 0.15361632992592578, -0.09852153967380362, 0.2636515161074202, -0.1690352502737329, -0.19153735248847958, -0.44681281845873033, 0.0921208303201414, -0.26937541468331594, -0.3673159081907442, 0.2553200014188953, 0.3937553099057317, 0.27853568243099824, 0.2265192601764643, -0.4888938056004152, -0.1828016964010657, 0.30767043505304925, 0.2646726631654456, 0.4843672731643899, 0.43282251827568685, -0.387508270906592, 0.3313733929984367, -0.38149708077417144, 0.017709919481794456, -0.3922464761428689, 0.3109233846317365, -0.3648986688815882, 0.03956888962755123, -0.34448509447290543, -0.43185914823640414, -0.397121888241704, 0.06667035690988588, -0.2679702856963152, -0.103731911772172, 0.29987501253010984, -0.2853273228919828, -0.09597595462394182, 0.48432778791112174, 0.40532555985972085, -0.3437546690915433, 0.16297656110277392, -0.038424775607097894, 0.15232189498496784, -0.33431058330597707, -0.473632425465479, -0.08639176621922628, -0.05160660796564043, 0.14829273451141978, -0.04353573052551596, 0.13286082983605507, 0.12833406486626475, 0.1129459760794953, -0.4299382539155525, 0.2656201349060723, 0.44209256351866666, 0.08658587184906152, -0.18329982879969164, 0.44837092316428595, 0.10026511542682437, 0.040319638961329285, -0.21176946331829338, -0.011814492944995814, 0.20070820399247502, -3.7490723977351426E-4]
[-0.41079696709649993, 0.13504111431477628, 0.14201430624976985, -0.3551912767868878, -0.25459673996450305, -0.4816388756941826, 0.19307082598506942, -0.1270559463913592, -0.043036634175633304, -0.12426002249729262, -0.26735143533964545, -0.011198958554711091, 0.11282667210668029, 0.2887262673800586, -0.20105697413099932, -0.08018321199514666, 0.37494598458757666, 0.2587024132956046, 0.4962180597019076, -0.3910536775393372, 0.31344716918423077, -0.3946868586917037, 0.494178177327132, -0.4707279569185434, -0.4719087550022273, 0.35055919934816826, 0.32542212609551147, 0.0855388052463858, -0.07328009438049177, 0.4635870057407414, 0.43730744208975714, -0.47967910634028943, -0.15202915671788575, -0.41563118615245254, -0.013218634345999125, -0.1736834662067397, -0.48659941116024497, -0.38111836557120815, 0.18021114334186672, 0.0813040079988474, -0.1267451771171184, 0.4040582750954006, -0.4450276466073907, -0.4314168304972621, -0.22952336314050514, 0.47769663309964905, -0.024469046742725764, 0.02326473392837125, 0.48914590218676013, 0.3566785820878, 0.2739813495015604, 0.3535589463299851, 0.17639361237342288, -0.37373710464829213, 0.40347902201606156, 0.22625446101101743, 0.3309371061922659, -0.42611841852429067, -0.3072670398648085, -0.02313309420163634, -0.46326662721969036, 0.06278230110977312, 0.2907002240905754, 0.4074762710744937, -0.11315059590220189, -0.16597584875910298, 0.17285012583116277, 0.16906055274596155, 0.09050009609066478, 0.44974797452070747, 0.14384410364185085, -0.40982688330716976, 0.08530535816352014, -0.3536938535095968, 0.11620182009859736, 0.010099240302872126, 0.08717055501245852, -0.047248518499954595, -0.4294976553655956, -0.09783285654751117, 0.4017948674313676, 0.04834822867242139, -0.4901054386827771, 0.3316777155325028, -0.005335342393383624, 0.48218288892940664, 0.41016829535720956, -0.4170441632094867, -0.22951026563730004, 0.058615926759166714, -0.3636360657781572, 0.11131573935483885, -0.25160723163238463, 0.40423032648556567, -0.4521253215673986, 0.32827172099858193, -0.1642372420017142, -0.024903836541701585, 0.04622260409382084, 0.11211435374597312, -0.29846410482387675]
[0.03758506995855648, -0.3668341702635928, 0.3510117754679808, 0.3287680444472356, -0.03836763596952952, 0.1415208187682312, 0.27208474708473407, 0.18671502501100967, -0.4977417121492288, 0.17706060476163266, -0.2125575461462481, -0.3957615456235929, -0.3866753733562597, -0.032924200378031565, -0.4030436721063775, -0.1507940602631681, -0.2630838816850579, -0.25033766689809844, 0.32758707473006454, -0.3773432185506481, 0.4424010643918256, 0.057526173113664814, -0.4396301390126577, 0.16185548938031824, -0.2488611766578055, 0.251071818025947, 0.1987014768656431, -0.0870435154712208, 0.4759664924331346, 0.43776789619477197, 0.2653621943197507, -0.21814386150030907, 0.42901069470864195, 0.47826008219432015, -0.119255627584827, 0.30090858994334746, 0.4070349205548517, 0.12442759619465649, -0.12895124908252265, -0.34046573612854814, 0.4504466001527405, 0.4605565957192911, 0.18274849232119406, 0.4383509070077253, -0.009748027535063986, -0.27397010974222435, 0.03841000871723321, 0.059309160659504756, 0.14666174743432625, 0.286409560959238, -0.4410010502281758, 0.418415644105511, -0.3762866431598114, -0.010485238602025548, 0.399088224651446, -0.09702144433379856, 0.35619072611090796, 0.3940745192397236, -0.20607510634292237, 0.011911993207044613, 0.308286010622147, 0.3907612507741671, 0.3011006332498245, 0.09548714524593149, -0.4021380200009562, -0.4511127347033139, 0.4346108853197036, 0.3100195689660262, 0.42583773411515735, 0.11677375931927925, 0.33537548786019455, -0.2566659019581252, 0.12713438855456327, -0.020222508903864678, -0.4001659369072711, -0.19155075208476546, 0.02778191602664193, 0.03718731518426399, 0.39701703319518056, 0.4257762412922108, -0.30779841885175807, 0.39767962911352295, 0.044533565172532485, 0.21822749507093164, -0.4246567053362196, -0.4872523245540258, 0.2852057400551715, -0.07101734520043124, 0.0562707444270758, -0.13150333147333648, -0.3913819109448796, -0.4617395075017471, 0.3229513012725619, 0.13842311772960136, 0.09564004739633669, 0.10329736895826902, -0.3975779391721751, -0.23672650363823888, 0.4290184082617179, 0.17483431360936041, -0.21383297140902935]
[-0.23119653018050024, -0.09057409465877098, -0.24623393770350543, -0.41254518427334574, 0.25823606603764326, -0.4561094914854892, 0.14320737579026854, -0.014449845464573619, 0.42344329996433305, -0.46767976235913045, -0.27591673133657246, -0.13887336833349262, 0.10735244615885431, -0.23212406687934795, -0.36354863702593954, 0.4078720652579191, -0.08019501268628737, 0.2882347587468834, -0.41588379441467294, 0.11719203850939575, -0.3399278809420633, -0.03267447128341183, 0.49669703702091783, -0.12391869367271857, 0.3314582897184619, 0.12090615224387113, -0.4188383927392858, -0.007353467518566914, 0.3468997234985842, 0.1143928309535367, 0.37394107736861504, -0.23057195414370435, -0.3808075959968412, -0.4923608126383835, -0.23490849764471589, -0.4184173615683975, 0.10545960358941309, -0.2510967112732535, -0.3924299376598991, 0.28515303012756477, 0.03269687517276809, -0.06097133144139244, 0.44754465534284094, 0.18006379299596054, 0.4697072316601658, -0.2730944111188859, 0.1157581860572321, -0.31685193428286706, 0.13046774454278842, -0.03143325725759338, 0.4053194550906811, 0.3284226598458111, 0.2949438447983538, 0.38481151096378907, -0.17210536191723314, -0.29500612625276446, -0.48440514632952936, 0.0860416751851828, 0.48812490238049555, 0.4673901193946489, 0.3412907427777605, 0.49803020887788907, 0.4451970087716861, -0.3912184618461223, -0.36491317926359845, -0.08136558246573256, -0.45915442307923504, -0.22553913386042812, 0.18827904318442956, -0.33699655413449237, -0.43533294276411816, -0.4888760327046726, 0.24038998623362073, -0.48638092847453407, -0.19952284641466878, -0.0030977789095907315, 0.20321157243955945, -0.0184518956427715, 0.45154494413295976, -0.022236461366841875, 0.3567572262153754, -0.29342625683766066, 0.17788848999515128, 0.34781218931981417, -0.4640470209024311, 0.1764118340146561, -0.0045816816627402, 0.05418221915205823, -0.14087669006170989, -0.17099217608603756, 0.0845666987157222, -0.2183668608804319, 0.3628042340286969, -0.48305152012185726, -0.36485764774673823, 0.17762032379945936, 0.0021427374049609593, 0.25931203723218244, -0.2854986769552651, 0.21552725945621742, -0.1478820608594732]
[0.18381935511189684, 0.2877271371812201, -0.338089832641701, -0.49795351222641004, -0.4290624969922797, -0.05863608209626714, -0.4869799544485821, -0.42568945780742806, -0.048373335017473096, -0.4336514143507393, -0.30346893739338654, 0.01797387490899016, 0.281710001803945, 0.24113934107284918, 0.2963182449515892, 0.3289278421054119, 0.3183852285195923, -0.1773608745380869, 0.051291659406954015, 0.130435650469936, 0.4581858777521809, 0.30036491472136917, -0.09629185116619188, -0.38858012513206575, 0.4607389758575676, -0.20158563036778776, -0.07195410868519048, 0.16456481157750702, -0.3210445137241065, 0.2201337699237692, 0.058440936584022274, 0.19228166130171864, -0.3561718930625267, -0.07800781149162195, -0.3491508721539456, 0.4558112609099826, 0.11080087139677564, 0.476018601169206, 0.06551089133928922, -0.46878429437955615, -0.035286379464424145, -0.4657397583976658, 0.13596016569325609, -0.0942635888095138, -0.2983864584628255, 0.044072016894237565, -0.39726691722858676, -0.001026953581682255, -0.44173492305433093, -0.42035173122879665, 0.33309597740582664, -0.07443561889816441, -0.2560212321984381, 0.3530599291135853, 0.422526461463554, 0.1295283988481244, -0.3555820021914644, -0.45283851116831253, 0.07934494768139844, 0.11514558402215513, 0.31333271323574363, -0.026916047888116634, -0.46919106119456067, 0.3752463162827584, 0.045707161295870935, -0.3033687661048877, 0.05714518050728412, 0.2749892150546751, 0.33459851157270415, 0.2007493650299329, -0.34058959579066395, 0.08769420079348311, 0.05398208438356189, -0.1446608697498558, -0.2022661468314405, -0.40097910776930845, 0.2812076263155264, -0.04896541404333643, 0.09841014181370145, -0.30324145315360007, -0.22478919113943197, 0.32017111054315117, -0.0785258219901126, 0.14572163698414342, -0.23958739878429902, -0.3839813099914181, 0.20480469533421752, 0.31072061262881434, 0.33127832006120295, -0.3495426777859456, 0.05646597031936329, -0.06469560237728111, 0.48879774906410167, -0.19937704373919063, 0.1539127400866802, 0.20994797046221103, -0.4523141285707444, 0.3866545075102876, 0.12684607774769585, 0.27058439775149434, 0.41189374829191183]
[0.09552298346206967, -0.2500771605219114, -0.043142189661441455, 0.006057447044201081, -0.01997322152432146, -0.04781480137777294, 0.1291997294408549, -0.02819756647154459, 0.2973872476390218, 0.3619906077375049, 0.09480867900465428, -0.40964040203496244, 0.4684812802804824, 0.3493869347871701, -0.2751618323791034, -0.22326173629671986, -0.2634011722131884, 0.3022914020521924, -0.34142349372051206, -0.09425915273090313, -0.3162852666553919, 0.1784957478906023, -0.41487347136349095, 0.1763922993540299, -0.3773839092051491, 0.21243489451724396, -0.03092848092705125, 0.19889708590587907, 0.02482751898362101, 0.02381953808972148, -0.2561609066622743, 0.49702538879429004, -0.4328711095586544, 0.27464763961363003, 0.43495197674723896, -0.34113101712009464, 0.08356096375343491, 0.4517738791733509, -0.10491912625284605, -0.05980340403137985, -0.3048336527229374, 0.31412998017229865, 0.33379124633293555, 0.2271778393332211, -0.34368529670988546, 0.03685317458778581, -0.3928975402540893, 0.39903298105309004, 0.004312607769663579, 0.10899353419912627, -0.20454569229674735, 0.2962061112072173, -0.07190000311245948, -0.40286403046935704, -0.0565977230260597, -0.30405274908372704, -0.1178131940087106, 0.47418550866080245, 0.46033994644812615, -0.0752713350240447, -0.13641483419580158, 0.3307298400609979, 0.08877276141814083, -0.00429057224808671, -0.05765673885772615, -0.06419402915226013, -0.4648550593814881, 0.44950135620911147, 0.09038982375397009, -0.20543725578681626, -0.17205327853156815, 0.3977787028209371, -0.4112515007278813, 0.06222465869022065, 0.21880661084122555, -0.37818722061011145, -0.1902162776051003, -0.08307336395785292, -0.02550018077951688, -0.03819814541798083, -0.03100888986113204, -0.2315968597310989, -0.2787204741153443, -0.3520941541987632, -0.480053350697186, 0.485179817805801, 0.09766595589529858, -0.3298156838080112, 0.22638085620465886, 0.15982885174182615, 0.34780321746341747, -0.23782489503904347, -0.4130543144684906, -0.19998565469766705, 0.14472126218637626, 0.0816404728209651, 0.21109303725800777, -0.2675326917831896, 0.3713167783186643, 0.212046280154511, -0.051414060128582295]
[0.437694417675523, -0.193406767464519, -0.3203710913149461, 0.0605145947158332, -0.004861542002204899, -0.3343233167279379, -0.2165559844974937, 0.4862910445567231, 0.31167243178448056, -0.2756486774540641, 0.16957940030833385, 0.30894817516261086, -0.1692762495944803, 0.3223339978627908, 0.24575456588198896, -0.14983022459799944, 0.47498847598866156, -0.11576499535791018, 0.22881753237915847, 0.4368303317058607, 0.1626099397551788, -0.27687254417339424, 0.3451890322577479, -0.22757516475080997, 0.3548600701044444, -0.20112425725510352, 0.46309339743637234, 0.01962001565013327, -0.2572240352765913, -0.2081515864358694, 0.22545394079799275, 0.15426036487165162, 0.3608678146254185, 0.32236908223793836, -0.42637949838037137, -0.11348608295169449, 0.12792917155643058, 0.3972340510987096, 0.4046350887055652, 0.46144394454463333, 0.05814365910511543, 0.196853025421188, -0.011468803841623187, -0.05085543923680358, 0.1600970936918268, 0.13004504373782322, -0.31279889503823455, 0.21367991119921936, 0.346967728465819, -0.32175098461328955, 0.46265479408660715, -0.38958232065459286, -0.4819189661059654, -0.07311600801798845, -0.35996720952502015, -0.3970501189710398, 0.34018032027463474, -0.1611781450242078, 0.3995248334189557, -0.08635510397973367, 0.15617771363009658, 0.2634107221366001, -0.48861527691590123, -0.474023315931939, -0.12018527882218555, 0.3942146080802159, -0.10047855489042179, -0.15787182796543853, -0.3034248014671479, -0.11038902386183103, -0.2783149198498006, -0.4340318107938006, -0.11564210488122917, 0.15261489190355693, -0.21194463101421723, 0.42935195479838784, 0.09182962544842721, 0.32977440188538687, 0.30508020143938497, -0.29120276639057163, -0.03195550963490035, 0.4337088384132153, 0.1276995238237676, -0.41006012404643255, 0.12382827681353603, -0.38016165976559313, -0.06936996870522871, -0.17122633437434287, 0.023591076409015255, 0.055078723817129305, -0.031825228383999704, -0.1684685931872516, -0.44435374943423245, 0.004753610521089469, 0.38206062752438563, 0.2291650951237778, -0.2902236814631616, -0.2662990757245064, 0.3380959684620991, 0.2577355065651513, 0.0027020552655345753]
[-0.43147144019774875, -0.37501993773251807, -0.22737776631494033, 0.03527379996626334, 2.0001041691197763E-4, -0.2676158103758869, -0.4776829493273178, -0.16038103114907454, 0.019607361611368224, -0.1595359710740909, 0.3866655005522647, 0.48014341541388206, -0.026484368581270012, -0.4007478922028458, -0.35522766275509754, -0.2908018312930303, 0.10423934351099173, 0.053917234553876536, -0.020611275398956574, 0.34638780012253456, -0.4063619317237994, -0.41933180393056246, -0.15254975887246447, 0.44990988287469147, 0.37049505356582435, 0.23811691414449399, 0.05053649157919449, 0.2789798299696682, 0.16006896545919624, -0.48979392847898795, -0.17562527510286585, -0.49169109464241245, 0.2555856587542008, 0.019344821877913976, -0.466888817054818, 0.14876764923569763, 0.2736634856595722, 0.4221856269612967, 0.10192561177271597, 0.1527806880980025, -0.2808581600726653, 0.3655138495049379, -0.349333796602567, -0.2613366116865823, -0.47049008745984555, 0.07601160365302861, 0.4015331284713137, 0.05502422592116629, -0.10489175265714512, -0.11480469344405142, -0.17455874283870698, -0.07547823283286159, -0.44149680794238433, -0.2503835612127444, 0.16454320497463437, 0.05567799917343208, 0.4849101358674103, -0.38354636905278117, -0.07750353930219556, 0.29211499269175645, 0.26526857883124555, 0.30591315231568716, -0.3505908341063546, 0.18049521270421975, -0.13545188278500575, 0.43439430390414024, 0.3650009060320266, 0.38160992971359353, 0.3600915875572348, -0.21383509426063874, 0.26136655452912094, 0.22347467787459196, 0.128277402446609, 0.4563314024972934, -0.09416744077738937, 9.54140047730534E-4, -0.4674894275973275, 0.034177153922132275, 0.024746940381803695, 0.46335349428557926, -0.4584723118352413, 0.07348110760328674, 0.09064530933602355, 0.2995767917054115, -0.13577188797286677, 0.10521898527503537, 0.3580873096491852, 0.3298676469411833, 0.12572017138709957, 0.4880872206066761, -0.3024405957533778, -0.45618930260988244, 0.32899754551779525, 0.463579563929452, -0.4378091626915054, 0.08618720453039896, 0.34763769007054446, -0.11511482198175482, -0.3113679353479688, -0.21455812074334302, 0.4771408294353878]
[0.2226660829806163, -0.31870405420329684, -0.15606820504107433, 0.13600433270911805, -0.38418933051997584, 0.4582636856105775, -0.13520713308219123, -0.34764594619367417, -0.06845035839171176, -0.35249082678434585, 0.4771730512654918, -0.30206919545049704, 0.026859057759680893, 0.41369667776055763, 0.4397457009897695, 0.3384565860926546, -0.3381351185385748, -0.13134123647629514, 0.25183015853887925, -0.142118277515779, -0.19399798832153015, 0.17276258849608894, -0.017888502638545023, 0.48374066526290227, 0.3989700707851628, -0.33027544620394667, 0.23686456167121894, -0.10817885148187079, -0.018932531381016138, -0.08596579491796796, -0.0672479249076734, -0.09942296498414838, -0.008726401663195826, 0.24800113807036395, -0.18631958095093704, 0.0791927499350139, -0.05351071459716894, -0.33546147414810423, 0.4568606148825056, 0.0879333116204587, 0.16163321539184206, 0.052150009519734475, -0.14986327954322787, 0.4453903223652569, 0.14783265693157865, -0.4398128251886577, 0.4908069180750686, 0.07446123421747453, 0.33473435296516174, -0.2547029430274117, 0.3555775872384985, 0.4173756524772213, 0.3030018476456008, 0.36408021284642833, 0.021954166079061088, 0.12980884484548738, 0.2843536215804501, 0.16233185512901582, -0.3167131854456662, 0.36509940433927135, 0.2890360544238523, -0.2221601759983477, -0.20714703376003585, 0.44181430483048334, -0.1455861420341371, -0.0784351958818178, -0.4032270273887725, 0.25138156659081445, 0.07340014714487908, 0.33112998648913683, -0.12878095984623783, 0.10723694031622799, 0.25773689306419967, -0.3991015838147062, -0.23370852311846724, -0.13709246064994718, 0.318676083180348, -0.11548150486469366, -0.22289896664465503, 0.03368246944372777, -0.2935996464184242, -0.36133096387926034, -0.48799059970259995, 0.3449962415346425, -0.46043838461846365, 0.030837392772325778, 0.10864433299081544, -0.3996218842842193, 0.3776046789134201, 0.3693152112635125, -0.13977995906909346, 0.012796473985136059, -0.0589177239054236, -0.06980162155366387, -0.14214260524382472, 0.175454194976427, -0.031043237470664176, -0.1459710097590523, 0.2290126083662073, -0.3384323417029117, 0.31692301089573793]
[0.3638189891794309, -0.14221313940726588, -0.162611813984887, 0.34707606437952676, 0.4165463290239777, 0.3098040944276599, -0.1512985226756558, -0.36321429464713495, 0.04181638392773224, 0.052507394727006274, -0.10173228423681269, 0.0434301174943883, 0.04423296541633093, -0.038861017957146915, -0.12985978311557844, 0.201678822042055, 0.4501243700103168, -0.4686670557714635, 0.07652870006054091, -0.39869503013384167, 0.06462200761209602, 0.18116335871559042, 0.40384858049766925, 0.496045473082086, -0.22830959620619828, -0.4813446855794843, 0.41682472078272026, 0.02781725381623168, -0.24244082674301448, 0.47517957267549815, 0.04299487354865961, 0.11563604855813003, -0.3328914588165308, -0.23918356995950107, 0.3046840069661986, -0.14512591296129418, -0.1868874271517661, 0.18468772250782695, 0.19149788911724086, 0.4000317037455178, -0.05015529537270991, 0.001420597169183524, 0.17361036149245246, -0.4370132549848814, -0.2045974060711474, -0.4056797997134979, 0.04459580164964261, -0.35127485411994164, 0.4412104582505627, 0.48649290585656013, -0.24771587470295175, 0.37184488268565563, 0.022508563844339413, -0.11692444333774832, -0.3729067259428126, 0.049664553999100525, -0.4597583943265384, -0.30910984448138146, -0.050480546390840764, -0.34844300079737345, -0.4773916340842457, 0.2362579600829291, 0.1119430769624229, -0.3008326815309995, 0.2936378095797948, -0.29262968362594655, -0.2753657579431218, 0.45846385659626065, -0.0234929316009288, -0.3154716229631692, -0.10818168607848122, 0.34210961998769696, 9.194507317166201E-4, -0.010272904741335354, -0.45911110481263884, -0.05056922285337728, -0.19328880442986895, 0.48647394666180044, 0.1263317674095782, -0.28870202411548807, -0.3600418733356314, 0.3913956265374786, 0.2496502081819375, -0.3214748347867511, -0.17679564987217944, 0.12110156485221013, -0.26244159275635426, -0.40507047398547835, -0.3519632083116392, -0.3090644490215182, -0.4970634978388373, 0.029985781813331114, 0.08608112172860594, 0.2066621437560323, 0.07651722605277311, 0.011046478264457704, -0.1564039051037427, 0.045797898188762454, 0.04200049992678412, 0.2913893651914107, -0.10480524012295478]
[-0.08778846055765199, -0.2667308189225964, 0.11789183614476872, -0.47617717905657053, 0.06578180450895543, 0.4596058962710804, 0.12092168446495388, 0.06697559813947551, -0.32168527460978336, 0.21328657989298916, -0.2609279256460332, 0.02323708715699091, 0.4475875341208486, 0.2836541767557713, 0.4126584780277389, -0.09142413563231, 0.31329906301821975, 0.45275121833132503, -0.36756686771875424, 0.2684340899844676, 0.36187176820882083, 0.47981770614618446, -0.18623682246908768, -0.45050235216703594, -0.21853658173104173, 0.39543652623812997, -0.11844378165205949, 0.11413701708301272, 0.03421180129332513, -0.279164635268608, 0.39750724910325397, -0.4591402153828855, 0.2496487892033019, 0.10383085797699954, 0.03877932576724097, 0.49571734274391566, 0.211384542521859, 0.020127118794454613, 0.2460195236392868, -0.11753961999311169, 0.2085772457727324, 0.12715736958277957, -0.10134902502553078, -0.31666162955542543, 0.45436667046299406, -0.4226162784929013, -0.0533291976978123, -0.11220917390408713, -0.26463490740625983, 0.09894743320997035, 0.03072234407765262, 0.17287887352203046, 0.4494623830812913, -0.06621241966432478, 0.25600008671839225, -0.45284219762749633, 0.2136165120002328, -0.21317669354930924, 0.4505838629964499, -0.0012074587019582639, -0.22103531834326184, -0.21547860298533927, 0.4350883400312403, 0.2990694229713684, 0.0775042165961034, 0.06714667189168655, 0.05805297653154451, -0.49594016421936293, -0.1572432728159152, 0.046220653427450076, 0.010286433764359115, 0.3700417873995032, 0.3962429439008236, -0.45281098964592903, -0.27858127265053234, -0.14761165374826468, -0.12774069512673747, 0.02702603536064152, -0.036796761183803706, 0.09298218037070627, 0.3653625085747252, -0.19251968857342572, 0.1366499609825147, -0.1821820586080336, 0.22813074902174513, -0.20310758863605316, -0.3961396707281174, -0.13569474048460628, 0.02118617776160847, 0.4869922710005036, -0.15952698010444633, -0.3631130670878481, 0.42312553524339225, 0.10581019791160617, -0.3690807053932589, -0.35006169476321436, -0.25507892241523944, -0.3161879452659031, 0.006225348739779091, -0.0414844869103238, -0.438482144928269]
[0.4476201211762593, 0.13289102824938992, 0.2001535067097726, 0.3732821788213533, 0.3938547814347619, -0.09848231393418154, 0.1767700588308587, 0.13649008574262086, 0.11684726784566961, -0.46556319158892, 0.38491453484059984, -0.021163538327797868, -0.0389754044998117, 0.13572390119144057, -0.3186257755013928, 0.3770274232339842, 0.3571413486873908, -0.2596289310408762, 0.3052916500894613, -0.3555512472473127, -0.2408537396849447, 0.07888121308474794, -0.18704556713688086, -0.4150264032772364, -0.05315725998717255, -0.015868554691670714, 0.09889561615361016, -0.21075420867923206, -0.4173385623683328, 0.07641177834044792, -0.44713294556825783, 0.1556652909007793, -0.17768633795169242, 0.13360035371222867, -0.4089513066058845, -0.13568113742404495, 0.4632643520636301, 0.3431058309988878, 0.24150145014648014, 0.22053027391847052, -0.4154149996945065, 0.4499896929919635, 0.2084259423635782, 0.49178300950937454, -0.11008764962608013, -0.3375256703504899, -0.14853612586240716, 0.10555660877648737, -0.0137490829985196, 0.08722231199349026, -0.1882595916840001, 0.35363379552987456, -0.34722444953122467, 0.2716016146305203, -0.3938659546905333, 0.04610120902772987, -0.25070480370307135, -0.27833944061566607, 0.3566835255674422, 0.40570292822600673, -0.21800588654484004, -0.44024105057036694, -0.023027086173084233, -0.14945249722961465, 0.3099682389090987, 0.3473840484201868, -0.45035101020583024, 0.22391946889137454, 0.3094931411768822, 0.4587423238688874, 0.3447545636227613, 0.4491476687528812, 0.33571410555866044, -0.2013293442716358, -0.1009267781623008, -0.4416994993476771, -0.18170836287216902, -0.3392555468772729, -0.13969584431631085, -0.4697593781098842, 0.11612742442751413, -0.31271919833664863, -0.16900611458170503, 0.4054970782003881, 0.010837078713894771, 0.025447993021007895, 0.2896276275855407, -0.3085860742445774, 0.1742124848140437, -3.505536896967948E-4, -0.22812633870229063, 0.16772248445748922, -0.2387830697624603, -0.16978298952496007, -0.121604113570799, -0.19006224902721372, -0.3072047018272886, 0.19482546731255887, 0.3674299501911339, -0.28611138133781755, 0.38018102891991434]
[-0.2809378160194108, -0.47796908777251984, -0.4368364619604, -0.39085986700218395, -0.20555037233492207, 0.237282463686551, 0.41342358026437986, 0.06084429638096137, 0.4941435154976448, -0.22624481955573672, 0.29983232798530757, 0.4686377213768785, -0.28365574904016, -0.06713977620600231, 0.450462759765582, -0.2692969103384941, 0.12117187915300606, 0.4801103196478102, -0.3050067486591169, 0.3921042712230408, -0.13977386357284677, 0.008611509600780705, -0.005459997751483896, -0.21861358079127394, -0.4190549894739317, 0.07525371135230052, -0.11341173446861925, -0.24976592971838849, -0.3042239996836543, 0.36155965224010406, 0.03778233113725242, 0.3990997056739748, 0.4454591570342366, -0.17896179029497397, 0.030869460324797596, 0.3923690985547315, -0.14197292188911365, 0.25451398946509896, -0.032321422335406226, 0.4682729060686315, 0.30642006743106365, -0.4732344771283777, 0.4716841381673506, -0.4694793952251076, 0.0037439048656836707, -0.31938140904182055, 0.19078514432797347, 0.2714691924627068, 0.43622312826648746, -0.45087840974085897, -0.03933345710088556, -0.3767074280290627, 0.43445247361146183, -0.019835520618736894, 0.374530127267357, 0.457213326734729, 0.3090151463335726, 0.01653578020189908, -0.3762458346607851, -0.14066080369034667, 0.23578509943949144, -0.13096783657432154, 0.1228614959556117, 3.458285391186721E-4, -0.13657919413311367, -0.17471803539330194, -0.38679203233893433, 0.08591233094399973, -0.05609665592889208, 0.290043780426227, 0.1526326579168528, 0.1244784598544525, -0.368488591283636, -0.4886521040518059, -0.3622857590190381, 0.28293615940990796, -0.015455401820649271, -0.25364594103004795, 0.286959527520122, 0.4131210214418428, 0.11721304309867878, 0.21205936749489582, -0.19011862500574833, -0.07236507889184049, 0.3957850525861532, 0.02772413231296486, -0.16829728896526466, -0.4218454947019213, 0.05062652710126395, 0.49548626759779063, -0.49377797887386893, -0.1510820428851111, -0.4155264160895512, 0.48968404017583844, 0.15210918907883006, -0.387809162273483, 0.39761265717988126, 0.42958995859162113, 0.17700658746122058, 0.41874771749750067, 0.1214116010006614]
[0.29532598434055124, -0.48478872408464446, 0.2922569122484916, 0.2542965813683469, 0.41234644849139, 0.30028457307157097, 0.17791698705482728, -0.17087921715059784, 0.28043365573633394, -0.48494761481746695, 0.26543595212494153, 0.0039024914634108177, -0.45122140188885873, -0.07989660183240399, 0.24439192867548964, -0.3339563341573979, 0.35182875395707514, -0.3531093254359571, 0.17975053834790444, 0.3667067307480075, -0.3891825484714734, 0.4605469320221819, 0.1014158384383208, 0.16109888729220923, -0.42087065633704057, -0.15328690784021448, -0.40968188474008305, 0.22041733593228907, -0.13628928168149046, -0.24262774015800148, -0.3867330007020987, 0.40249752092489166, 0.3900842193134838, 0.06259429148954965, -0.39022636277219813, 0.32074562594856504, 0.2951293794852816, 0.4982606876809331, 0.36627338829804346, -0.16527411371835443, -0.47035791306086006, 0.17425327121386447, -0.4733440623435552, 0.3008119541084048, 0.031787103131962424, -0.4867453441421451, -0.31726264802091286, 0.36760097582227513, -0.30708988460408226, -0.1727781830970907, -0.1357154459640979, -0.4216723957226711, -0.02122326526784024, -0.39324071356582524, -0.09457099594058471, -0.44869490491920505, -0.007842407627714376, -0.001969035123465246, -0.39721611856364314, 0.049458556557857025, -0.033219544047541016, -0.12748460986607013, -0.1996952795205471, -0.17869440031263928, -0.33197847317047935, 0.3568218459741914, -0.46308976581029027, -0.3017222244310358, -0.0576902522357986, -0.3170503110691957, 0.17510712552286356, 0.06706607873362158, -0.29493004450321514, -0.2562129675797271, -0.007661483191034102, -0.49928796261464314, -0.01386879209876224, -0.20569115128318383, 0.06150257902475853, 0.02845557610225391, 0.26187957903498393, 0.3258488276000553, 0.373064672480073, 0.25188977686126524, 0.19503490229440246, 0.2589834433555319, 0.058412416820601054, 0.2737614467289313, 0.07578367175531786, 0.2499803909437417, 0.2625799768780216, 0.19579585964345603, -0.28789897513209073, 0.08642809435725096, -0.31580554636547964, -0.236787270009866, 0.25244670424204774, -0.1404234971877567, 0.05147359151102038, -0.41386005313732366, 0.4406215080755129]
[-0.1559159062564638, -0.16466923040727988, 0.25192000226349975, 0.10042189843686855, -0.2097204885950833, 0.3141197349172036, -0.44265569534583193, 0.22683258952963614, -0.360289417024822, -0.3007218967038193, 0.03613782344432037, -0.07915209133474876, -0.48833254715259533, 0.40710529732181333, -0.06544232565759955, -0.4533852985701765, 0.17653084138012887, -0.2808630007017905, -0.20324365703808622, -0.08755905498030458, 0.13121002804083182, 0.0120547413670552, -0.13839896691108233, -0.018684185196408132, -0.17740026539624587, 0.45779621918555546, -0.45607190187691327, -0.3980615046726512, -0.47310108665955997, -0.4044921015442692, 0.3757520023994807, 0.01785465742010406, -0.11420156306631934, 0.4592083778441245, -0.08326367554273806, 0.46015102917216266, 0.12495876664775007, 0.008507585277232388, 0.3082737119376584, -0.04174004025852396, -0.46413690358022186, 0.4544532023493052, 0.34181104185848143, -0.3862221821527022, -0.11095513790804978, -0.3014473722947364, 0.13959452586375898, -0.02619805339353165, 0.06485323626658868, -0.4897552747607712, -0.19520087555985, -0.18685675374263233, 0.33733394585259824, 0.2565730899759978, -0.31195491265323083, -0.4111276145264342, 0.42746655396816047, -0.032461674676766306, 0.2385945359413466, 0.06600957928288109, -0.34608565684311676, 0.27158358690868456, -0.23894154483115893, 0.12976932696180754, 0.25260578500273, 0.2678945312808867, -0.2177646814198242, -0.40237709119624154, 0.21088160352973062, -0.2843289029021968, 0.14774018295076508, -0.07645681620749911, -0.2323951635504088, 0.015254987113771379, 0.4143730478064097, 0.04714804272860962, 0.06754606450728484, 0.33197359442302943, -0.4182860117418997, 0.28205962076850555, 0.32651923894740875, -0.1292124680417024, -0.28477856229355836, 0.06064893556677353, 0.2631583303194083, -0.25169452377813917, -0.4468502347411485, -0.4435635691145553, 0.4838883235219881, 0.12845638191760878, -0.23910975090294362, -0.30922924283406206, -0.030440782884912698, 0.2890863960438078, 0.09887989366617, -0.20299012233788827, -0.19462558242808026, 0.06897340529594753, 0.40401050705820274, 0.2632797148645999, -0.17983983131303816]
[-0.29177058772422926, -0.05048987174961206, -0.19601268629402235, -0.14331397304414473, 0.43978733571032014, 0.444557768537143, -0.3793826112161436, -0.01833943239099911, 0.3156450382057706, -0.33756850895955737, -0.39605810912280404, 0.06219084236221617, -0.3412333761098192, 0.4447790518933914, -0.09737499739620648, -0.21509206170704032, 0.22001699305594224, -0.38036091457944865, -0.3626941036044721, 0.37462488870458155, -0.4107676073396356, 0.19213029567668605, 0.27459485893553803, -0.018692242549717242, -0.3394934847765597, 0.01926460441947908, 0.19201885062854995, -0.05269577058174013, -0.016002155881499336, 0.06413017457424575, 0.2628042498755333, -0.058811481712196856, -0.3499591341031858, 0.2397281171221355, -0.13151328535894768, 0.25024525382865004, -0.05392985608211731, -0.20096322525889454, -0.39231120381838047, 0.36052890548493066, 0.4028427278243083, 0.20541603216071225, 0.11100824638644224, 0.3216000265221205, 0.003671273228055716, 0.4262531278131356, -0.20518891554897334, 0.2924527347312612, 0.2688564328754496, -0.36720903622387135, 0.09082501008225308, 0.09581268963710987, -0.35276616396880556, 0.360368143069442, -0.326219003053687, -0.43010155318292387, 0.14772756671018483, 0.2858401237355138, 0.47595112980463716, -9.659554324281672E-5, 0.42602840918408325, -0.08726110020915134, -0.17471600166986812, -0.06413086956937386, -0.39500803384668315, -0.38023171502853914, -0.12706099872869858, 0.25928594988063636, -0.047921763360747494, -0.27547910856477387, -0.41362654642010754, 0.44766921545415905, 0.16313041171934362, 0.44184161985381387, -0.024262522469144288, -0.3954746923052894, 0.4090180266184391, -0.12494792808234478, -0.10581651278764415, -0.028465615392707755, 0.49014532145808987, 0.46828868992772277, -0.29320160764925407, 0.3204413298653379, 0.4135526903848288, -0.3305027118343893, 0.3582184208363326, -0.1659392814301831, 0.45831572621449645, -0.0938351770264989, -0.11441202572535458, -0.17103505556368404, 0.32717243122995643, 0.3596591355016696, 0.22137518740481033, -0.05316047442501126, 0.29578657170263434, 0.4390859977598278, 0.20965924610947373, 0.2471530623100212, 0.36578052151062646]
[0.3018616337594128, 0.1198548113387441, -0.02929621135099425, 0.3036489478622736, 0.24573885232544268, -0.41655817874811396, -0.38823167888333476, 0.10488982617443943, 0.3058128426414114, -0.1978805949520992, 0.33599285285108027, -0.13883292516875967, -0.06992738421409439, 0.07990502025104873, -0.2881698064688277, 0.22804455217031694, 0.17835277697206486, 0.21705076357041153, 0.18524136764619303, -0.30819128694288755, 0.49207940813721884, 0.07025105429367051, -0.2794567390344257, -0.38387687427957895, -0.284007147887111, -0.3685331039022872, -0.44530124341235044, -0.38726516566792857, -0.2819305990431219, 0.3067939382377831, 0.0680095152725555, 0.12517898232366353, -0.34984704057729843, -0.31284737173940524, 0.36108559451997413, 0.24040522872504066, -0.3806534988368132, -0.005819067964692781, 0.24613036272817024, -0.3495251042042822, 0.299002692602947, -0.4424391699901252, 0.009992978214746984, 0.3749559363489906, -0.20180843517653768, 0.1341124190390558, 0.48710493215904593, 0.32436757906166724, -0.07018721244229631, -0.3856600068145172, -0.3076687964053041, 0.03600491816722251, -0.12994138309254655, -0.3212834046488835, -0.49306934794525925, -0.05430142211302702, 0.08572296133249013, 0.26384506378476325, -0.3147659335733546, 0.37254235396540836, 0.320890972217888, 0.2777350798739424, -0.2446871450072431, -0.011652159914393612, 0.380832652345667, -0.13621288853725066, 0.22382497297876414, -0.08043860690266591, 0.4284630686705969, -0.3453239796132327, -0.1366110355650525, -0.2133940409607118, -0.48247932388680137, -0.11982135558233287, -0.2397489640383168, -0.07591391859275076, 0.1266545430776863, -0.10290938095583912, 0.2306740743768836, -0.25497828006416046, -0.47009984288046014, -0.3052695125294492, -0.323608367178431, -0.2867475088975544, -0.0584373935246395, 0.19612931734321415, -0.057366009001021956, -0.32961913439580093, -0.4926850179965906, -0.27714343789434914, -0.2333526143621143, 0.32709924798774825, 0.37835907778651623, -0.17946572823867457, 0.4602917644899721, -0.42652753551504685, 0.301784008051346, -0.24755714864103573, 0.057216017342190284, -0.11127618188833466, 0.3877982893219024]
[0.3602239354279829, -0.22672560141023013, -0.4617008075052955, -0.026700854492061277, -0.3364632532394628, -0.22173874042246988, 0.4344607705876232, -0.20871781434293746, -0.4753737347261927, -0.04229436063764347, -0.49361233454603526, -0.023116012720117984, -0.060886872726904406, -0.44461881504159795, 0.17673828178248607, -0.20661138667798185, 0.03091660098824789, 0.3303511805684982, 0.07385508168283572, 0.34531859045268687, -0.3729266996225721, 0.13678190808284374, 0.4222691050863663, -0.03923045247599699, 0.36731671287745316, -0.35957737326678674, -0.3511113979931949, 0.3714372992640341, -0.33636698631395534, 0.22256325902461382, -0.3817678403027842, 0.2963248286571123, 0.46661110220661295, -0.00955366478912345, -0.43270662340036614, -0.4560945699805593, -0.28174395278485065, 0.21252242581109648, 0.2491012532068484, 0.2875583708860153, -0.4249633288613174, 0.4276035155958491, 0.013765891774822792, -0.2596188362981593, -0.029710621370393264, -0.06111795704498346, -0.4432229607321805, 0.05802255711862636, -0.1482974910445395, 0.3969477450343981, -0.15345156560607676, -0.06803089993989819, 0.47745623042526975, -0.2996513296084624, 0.30667813653194476, 7.572089601756149E-4, 0.483695367780543, 0.49790609152128407, -0.3268786902497205, -0.09712853124920928, 0.04636332663947573, 0.16390822184521447, 0.07244844146245932, -0.4773703121208165, 0.35202765644651723, 0.23547035391406812, -0.22541106902856856, -0.26085669024282054, -0.234821428803475, -0.04923554165827371, -0.2380639975829445, -0.22151817672621588, -0.4664161091956345, -0.29251572452760977, -0.2735841429947784, 0.09045798373825253, -0.3913647256867212, -0.027173348596553737, 0.3571003609439285, -0.4760095304619387, 0.17422184052157086, 0.4194334706232701, -0.1868307376887164, 0.4587891680695153, -0.22448054055334632, -0.16384695426616513, 0.09050427158045304, 0.46614751447671166, -0.48181508583607, -0.33185629430715824, -0.415075898412529, 0.01791554276617091, -0.3312037792540443, -0.12224404974176994, -0.4689538377957635, -0.259734134503781, 0.12898162772679, 0.18579448937241372, 0.15298690876052123, -0.28234537247572844, -0.3214685078715195]
[-0.3478251138396543, 0.30158958150229753, 0.3924175711969784, -0.413111219632899, -0.01434646829712205, 0.07259485864896031, -0.32326834630455537, 0.17776553321744815, -0.06577571611627475, 0.40114583914592516, -0.0037898049873781314, 0.19823421975490452, -0.3990611887214778, -0.08975384281258358, 0.11819017829995826, 0.3914942473915377, -0.4456785500676963, 0.3542660777863842, -0.2171919767959194, -0.49838415685260884, 0.15821433844549193, -0.15668205096390952, 0.3512502717396664, 0.04891473404264046, -0.3671984586915137, -0.3397007120671717, -0.08689605181684923, -0.39378723124178583, -0.023274144992945445, -0.11037185625932111, -0.4464792148500828, -0.020908787357162062, 0.029625544094378897, 0.2651719162317192, -0.22905138307632122, -0.35265496704745514, -0.36491743433850443, -0.3854026730852438, 0.3574718792292557, 0.06019763876083595, 0.07588756933148222, 0.028346077398012315, 0.4063429015019715, -0.10556185727866951, -0.30330840382978586, 0.4136669862465574, 0.49507400011103886, 0.1824931570794428, -0.09647227652519152, 0.4076120128668278, -0.4924999792457736, 0.29654859309608195, -0.46464913630008564, -0.2823695949333166, 0.004509715083791055, 0.135186763708386, -0.06034318557733165, -0.1656286778718722, -0.4693164734452214, -0.4993932241848026, -0.04759287860831407, -0.28146768828236113, -0.24713557763893446, -0.42265253559491245, 0.38189903863937513, -0.49793281649217447, -0.13327259825342708, -0.3724667228555585, -0.47311504054158104, 0.46379370451694946, 0.2787024147628646, -0.49698410878424015, -0.27884088846220756, -0.45958218531363626, 0.1731445651840472, 0.3413850135143278, -0.11000646768607425, 0.4162179629065105, 0.2084343785646099, -0.13932597077210995, -0.371780140020897, -0.2018906624358745, 0.2507300383704121, -0.0033124767480106065, 0.3654166524741834, -0.17246537267298867, -0.24961725967950932, 0.23722900849589523, -0.2294232385915368, -0.2933955755754156, 0.09356491268732259, -0.1008906510197749, -0.3332068675072203, -0.47686306394165445, 0.020450846059631544, -0.23333276714859363, 0.3759153069228931, -0.052277013137896455, -0.00867254634468495, -0.035364895367212434, -0.4062069321749605]
[-0.054330416478762356, 0.20330266133339225, -0.3264645958430097, -0.3913620515384527, -0.10234914025780129, -0.187182302710162, 0.31239328831847, -0.08180322948043928, -0.44487732347771336, -0.19704137366504837, 0.11140414002006294, 0.07584645526065104, 0.0700331812454289, -0.15039850498835627, -0.42370501950235584, -0.09861779690617001, -0.06691159490827758, 0.48671464514213136, 0.20647104899960744, 0.029186178992928746, 0.030808428713310132, -0.15131934725098972, -0.02935983329336267, 0.134627495832776, 0.1888364714513019, 0.2762897166447422, 0.46645901347651364, 0.07895825389948263, -0.49256062823683855, 0.11309493442604734, 0.39484720589541333, -0.3563653721650698, -0.48513521368894363, 0.09010917875682689, -0.03503376125365121, 0.4869062387845309, -0.33480270272895063, -0.2006372531620919, 0.11246242948310514, 0.4486804750654415, -0.010418769836838981, -0.10937090417317408, -0.03857586111965816, 0.35408330913734964, -0.2268442546620012, -0.2093338654538709, -0.21039457055023403, 0.021801611214419703, -0.02522670575455821, -0.059391350912671115, -0.13318055344996294, 0.2702061858768615, -0.2674501350305224, -0.2253129864463692, -0.07199300178285484, 0.3324190720704351, -0.29447859370663143, -0.07776348545714429, -0.28466328578105315, 0.2409022442593427, 0.19015784465015784, 0.40500013083156805, -0.02220468411024068, 0.4228092829431326, -0.07978762422655605, -0.0769826941736319, -0.44792253276321026, -0.04074425642446866, 0.20936045948873816, -0.3250702693883726, -0.3348129578647403, -0.29517264760579054, -0.37169073709426814, -0.45767524067305054, 0.3970122283937084, -0.2619400137439414, -0.2784647726322682, -0.11722428001023422, 0.32023945216774985, 0.41928920748219556, 0.363533696386506, -0.37747243224399885, -0.3046782137712396, -0.3308191670785763, 0.2304411487177792, -0.18268431854436384, 0.2398198196276391, -0.05058139758306823, -0.4798827206051125, 0.35859409987013824, 0.414283829792531, -0.17356132743192187, 0.4922505596042941, 0.04248906878607772, 0.3709483571850385, -0.07023482964461947, -0.38022222648167525, -0.20991737967671253, 0.19686121039945081, -0.42158556911096823, 0.14388402059193572]
[0.4101698370593705, -0.15032905998797275, 0.3420002729409837, -0.3929230539500541, -0.07057714751459798, 0.23214818403766602, 0.3275864104467432, -0.49769510226541114, 0.1799334632490187, 0.18061782609324806, 0.03899612441420408, -0.4791842073556225, 0.030395237429971966, -0.24716926149014817, 0.2422036276530921, 0.0074295209034384024, 0.37472519674963156, 0.09240476988351332, 0.38859517586446624, 0.13912371531125534, -0.24928561987174147, 0.31981739622571903, -0.20269741816477194, 0.03130925542585694, 0.25133514611637875, 0.3540325123138829, -0.021524487877386256, 0.44589776261379366, 0.2126226858751431, 0.304196678675993, 0.19127299468222392, 0.02624106515168656, 0.014586899809555076, 0.08744115541360287, -0.4264812076213188, 0.01624819167667202, 0.215400298004907, 0.22667736273829064, -0.04562067130854397, 0.2344622845214428, 0.15414572680998895, 0.36137563551736485, -0.23291322240325496, -0.3313932505567506, 0.10369816693628198, -0.13533192007687245, 0.31564410719738134, 0.43208611069779956, 0.03285261531257411, 0.10171831903753792, 0.017612938558744573, -0.018846387588599578, 0.04559980281153975, 0.28715215774248004, 0.14449918149995788, 0.4299343901516477, -0.3945094544590544, -0.3965547895576865, 0.011915120553813607, -0.47978040164518154, -0.27568164449555244, 0.22751429156203706, -0.4663885629380432, 0.3039231453310638, 0.396889068626066, 0.17936205718973552, -0.45336429360904995, -0.12168040329033725, -0.3025645987236958, 0.45447489396550544, 0.3392890321383495, -0.4223419806984907, 0.11827349073419469, -0.26922377713963164, 0.3692155294230456, -0.1305263104276374, -0.07241286636885402, 0.05128885155313101, 0.24587440003669625, -0.17010483405801868, -0.4492350048426732, 0.2752612018344416, -0.3301924613241525, 0.4794720664506481, 0.2385048666405617, -0.2366354265442958, 0.17053036914204034, 0.44952417498957153, -0.42506208040481197, -0.2833307034210659, 0.165536996761098, 0.4187400631525887, -0.2996843697544084, -0.17554031849339824, 0.07482565425697663, -0.48927067307304695, 0.4753402456703909, 0.39254933834102046, -0.031486331224962694, 0.37545950991209676, 0.19800934112305546]
[-0.07839042346957792, 0.49952575301543267, -0.009014851392936563, -0.10111607231223008, 0.18412538209527196, -0.3209968520600316, 0.3166027712897408, -0.3130213808035731, 0.20894534244947294, 0.3889957914934745, -0.19545714481785348, 0.09601103572311565, 0.22399265304400873, 0.3951627538383251, 0.43453546178164915, -0.11046221446733429, -0.46944311260945715, 0.021621419830901045, 0.3740636268796802, 0.3235418855669089, 0.4866869809919989, -0.4192511117733785, -0.41315551955432994, 0.4363269552429315, 0.26255779094379783, 0.11265399651313357, -0.28694477576403454, -0.46188828079585886, -0.20271581384058368, -0.017798291038180758, 0.32704719201537735, -0.29349229102547536, 0.4345080771311962, 0.4058863334905194, 0.24176798718745152, -0.24089797360056298, 0.04318533237928801, 0.036513478036266145, -0.12616168414530038, -0.12934352732118182, 0.04035118107059088, 0.3205652929386196, -0.19079344973278034, -0.27002745792265814, -0.37575571110840134, 0.46128697324496803, -0.38346934430243373, -0.10973800761502295, -0.30097881266812165, 0.4699473811767295, -0.35608630071368996, -0.2430993864359814, 0.4263940009680256, -0.031610164806394336, 0.0043458813480621306, 0.4777329517078418, 0.07487695814865203, 0.11790375720807333, 0.20618220255841402, -0.1463662138842976, -0.1460727227198818, 0.2926117532611213, -0.08278824394419526, 0.27082214117151493, -0.2818810312886, -0.11001923585398343, 0.16435127301561592, -0.42853794506900245, -0.2944112151824614, -0.02327004755664619, -0.13427824002828825, -0.2746265419549734, 0.23534535594699313, 0.3053221998240625, -0.03215621515365108, 0.14321608655778073, -0.07036566505933828, -0.3956101674625174, -0.3820861762261569, 0.4802977061873618, -0.04959654750407849, -0.05414021496873356, -0.2603997620984242, -0.179802581692459, -0.4569863776170735, 0.42220676548614233, 0.10052395150512827, 0.1986838992813188, 0.46569291741125485, 0.3291778594063145, 0.4605662417008729, -0.46905286024640414, 0.24983280626104254, -0.4575047011560589, -0.3276286948483671, 0.1389518804912908, -0.2159233019621204, -0.19854127382099795, -0.33111068888125095, 0.24075920648704607, -0.45574694234445856]
[0.1680321064613708, 0.11753083547698051, -0.04004722434007646, -0.09844362581975663, 0.01691463853945363, 0.14648130599862508, -0.35915551957502556, 0.3329815298750003, -0.4697412072121895, -0.04405025893106196, -0.4860764971393261, 0.030867724136390717, -0.17988689040585992, 0.3156031039869287, 0.04605225034178029, 0.36251070460307455, 0.4823310185484818, -0.08083583951125084, -0.36879865866883743, -0.1338471076568356, -0.40239869227896297, 0.31812714593073443, -0.3699453510846785, -0.013737392705429063, -0.06158013206745694, -0.311228015401549, 0.15060522218860017, -0.4511342343798418, 0.4152361522277547, 1.3480820985323216E-4, 0.37690109993836407, 0.05679410579001709, -0.3993277992813381, 0.24531851433172414, -0.3006102933007243, 0.24506624485330153, -0.49237385320353433, 0.27450423389622014, 0.3778484578561727, -0.021780683871618023, -0.334764351295067, 0.42525069452131903, -0.023322110179706423, 0.4942599520504337, -0.06390859084273315, -0.4158547432634798, 0.3523733250802299, 0.2040057840128212, 0.4487549179130951, -0.4664032093903602, -0.45572038053135555, -0.26006033689322117, 0.48154779291277305, 0.4385375490397997, -0.47772727667102266, -0.2846997501577391, 0.1267456445297782, 0.11002703768985356, 0.3788012319828886, -0.2980152396564807, 0.08872183562705793, 0.24622820278290936, 0.21775941818105327, 0.26494056890614914, 0.025251817854226144, 0.19595216595700737, -0.3110469324273295, -0.49892545932803956, 0.42810225773838817, -0.08405501322576392, -0.15554191945749962, 0.4223098554255097, 0.15719305546812712, -0.29968434760851204, -0.24803916043852836, -0.3047277230564851, 0.3920348581675748, -0.051018205337626577, 0.09020865126864208, -0.2958108536338575, -0.055191622803651974, -0.2882639411380771, -0.2270125435060525, -0.3610643328276778, -0.40863369978661224, -0.004488017262195831, -0.4994169744131228, 0.32676498898323514, 0.3196020105655657, -0.1453441645389204, 0.021471229352224896, -0.17588967667842714, 0.16904392417950398, 0.09748649229385609, -0.1979785987906516, 0.3639478829447792, -0.358801700987317, 0.037152584183412496, -0.2517131680154946, 0.11456250803505719, 0.497076998368045]
[0.09077247784674591, -0.39850557086652183, 0.34715803314711946, 0.1265112530006065, 0.188069169208395, -0.3623646283265528, 0.032606988694046435, -0.42673377549078917, -0.110811014196317, 0.34159759297571135, -0.4082651418399077, -0.2693646242909843, -0.16888092131978039, -0.2024304867354243, -0.4911130750138152, 0.1841075723637393, -0.37690405122876625, -0.36001603671295956, -0.21487407189588237, -0.329135929132497, -0.40637698553392987, -0.4569396956451611, -0.24473863120614736, 0.1502765666637006, -0.14480748889830508, 0.39204144722184864, -0.37798773881555947, 0.0352414522854303, -0.002466967172837786, 0.47551174181910594, 0.17095704671952294, 0.22109948110796873, 0.34618104772722347, 0.2657211046917386, -0.4784743249633727, 0.1670544065382632, 0.13040066697017239, -0.38737089122346535, 0.44214059265143857, 0.43441761473194085, 0.09295337616721155, 0.4674224502102088, -0.2882851535629698, -0.23332935359165619, 0.04394504893944895, -0.42745209541443074, 0.2450673120912623, 0.008250770091723258, -0.3880450201337303, -0.09215778529770513, 0.21641602140148775, -0.09787072873626523, -0.022122545632957125, 0.0661290169898846, 0.21296302562664116, 0.08066638425383377, -0.30961621999878997, 0.1466926429472324, -0.47031515703854376, 0.36988999665619027, -0.24336166030498418, 0.20132674293719988, 0.07679491680814254, -0.13573947111181206, 0.07787963899284256, -0.254804176720001, 0.01294542490535644, 0.09714736815621139, -0.04329668226119354, 0.3535358659868222, 0.14008784985711664, 0.031656865376970655, -0.15863918751399053, -0.09473998653891558, 0.3000129525098162, -0.4728838857443405, -0.30788580663982335, -0.39417611726221624, 0.49794241774007153, 0.39842995750167454, 0.35566365969354075, -0.4757556226160413, 0.24514616951659074, 0.1786939757076269, 0.11589140826096878, 0.012954787359107933, -0.339589238646981, 0.2198590797749711, 0.15264174691117138, 0.044218342398747, 0.19928571200487655, -0.1780917817118961, -0.01501606529018873, 0.19311067801742166, 0.4903866215170559, -0.3320808450523066, 0.10138082546245453, -0.27537806023248124, -0.3503650908148802, -0.039447900706084615, -0.11358681672015958]
[0.001217154699193812, -0.3838340747010417, 0.3049142211501199, -0.3578144269884478, 0.21723310706169874, -0.49226098078538183, -0.4365825126891151, -0.027733087744488683, 0.28777925651055747, -0.27116626494129725, -0.3798392896016518, 0.046994765767454316, -0.4276515136196375, -0.4187807407093057, 0.23552992791844252, 0.30119951752205, -0.0028663528183264786, 0.4246343907289156, -0.05387394931634426, -0.07111923693307531, 0.055083779156310575, 0.014317948299028327, 0.2707924666233412, 0.134094936464781, 0.10902375960568977, -0.49751933372241786, 0.3204291208669997, 0.47328983029869487, 0.40070004986765295, -0.26758918420087574, 0.2774443205230247, -0.21845173097960024, 0.17740379440377052, -0.12324160912059212, 0.11010876350054666, 0.11367933811839681, 0.3878621958839892, 0.17564290738320487, 0.3177408813546636, -0.14917721100832126, 0.470378022575927, -0.48441729407554956, 0.4645666836327068, -0.37579173294079327, -0.1412644340170156, -0.1431557331496197, -0.24673907463643563, -0.010062080223545156, -0.0348184072970702, 0.0646622221248997, -0.0864091879413047, -0.1478628774570826, -0.43517251134119084, -0.471118241822838, 0.23724771381264764, 0.47654515309619117, -0.2978908040985139, 0.06692738940965703, -0.3231344271681962, -0.43740636275765266, 0.4674795362960519, -0.0033970828464792158, -0.4546099541687888, 0.2492475817325086, 0.25129746862299573, -0.061920767891118444, -0.4986248441508535, 0.11836031364573862, 0.37191689144979867, -0.14147140945366665, 0.18644934392764778, 0.22901965977853178, 0.2962679558846475, 0.10821469506292791, 0.09310615237067688, -0.03265958525794943, 0.023761244802519066, -0.28654972498884035, -0.015860696749087633, 0.02838325629421501, -0.41186364143902243, -0.010314971170672704, 0.45945572134046464, 0.16035819490748238, 0.04691307694839064, -0.38291158557470784, 0.07166419237598576, 0.39599626569520496, -0.22560532874218664, -0.3186567415434405, -0.2712484375873562, 0.37195000126387, 0.35171010375298895, -0.17603188824459393, -0.009677894269866316, -0.005689794157142658, -0.14382776012947096, -0.43066296266160287, 0.26329006471669647, 0.14680228345845336, -0.10773240412205476]
[0.09966823846126738, -0.16642060300376094, 0.35795276169115586, 0.2778820994793775, 0.23460319138789099, 0.13229857198835548, 0.34449280685953043, -0.09809275954021235, 0.13860053910986025, -0.37197741384057614, 0.13049178741454082, -0.09684120695282294, 0.3272201879895521, 0.2612284087722754, 0.005191457294782653, -0.014419394290141052, -0.12752556147009209, 0.392593887576856, -0.07276323787470329, 0.3809940241215387, 0.31777478281473626, -0.1762153991278288, 0.1089766268529847, -0.30180662276437553, -0.2953954708392408, -0.4324832365043383, 0.4217343238632152, -0.3440237677517979, 0.2858989821012373, -0.3069012366087771, -0.048576364068892874, 0.4877369111380023, -0.04478377014122148, -0.24568238685406052, -0.4963863391006528, -0.3734595631529142, 0.1561337448454495, 0.01845112679134675, 0.1081213971143632, 0.13213296721122636, 0.052906571463467666, -0.04165006522143122, -0.39456159261170076, 0.20513457981865213, 0.041275674266814555, 0.24394842018329144, 0.21077351530088617, 0.048698189651614765, 0.2574156078370393, -0.2247728770711256, -0.45377893171994943, 0.2842087051816098, -0.39663742089947074, 0.13556323209887333, 0.007540066911494114, 0.10513447427323652, -0.05113440605581465, 0.2125702755287433, 0.48925632995310153, 0.36193303464620286, -0.4075451381166132, -0.36705832028398466, 0.43027652826770724, -0.1890485754415997, -0.23137672677643295, 0.08847721040115597, -0.13807062166252315, -0.168448715125312, -0.02663185459785089, -0.40761462813364446, -0.35867431380345605, 0.018227102596182765, 0.14694219975093303, 0.19811880498941026, 0.33515578215507125, 0.18827566531286133, 0.30051416152454946, -0.2625862259102304, 0.2825192319132588, -0.4893863427834686, 0.0025410260412592756, -0.31013089527584226, 0.2101086085604451, -0.34237061174582717, 0.25100555945148306, 0.383313579463765, 0.39904492339461306, 0.10949355108542058, -0.350725936408373, 0.34237542563924184, -0.19011015710038237, -8.566390117101808E-4, 0.47618124782854976, -0.2479189629901022, -0.2391641987729971, 0.1761930510249814, 0.1950503673871995, -0.31602543863667276, -0.2761984958015161, 0.4893130630590018, 0.18170835243860262]
[-0.055836329958185216, -0.44586238118648225, -0.3608408272893373, -0.03184235597856766, 0.14586144675818358, 0.0018732822292429896, 0.3377219432071993, 0.09641711334082326, -0.11659253708305639, -0.3340892292414198, -0.07499399359813574, -0.2438528175011866, -0.30958349991067924, -0.35269715972489557, 0.04023752528833602, -0.25997517447028207, -0.19838405889414634, 0.03372281325901094, 0.4223373226632562, -0.10756390007931216, -0.3939019220437766, 0.004464856933020678, 0.4231866247953303, 0.14990549715684442, 0.07912730499769449, -0.21621184910718338, 0.3572507514338754, 0.47578297446259343, 0.4103057805801462, -0.1098548626607756, 0.3824156790118022, 0.4770606811881517, -0.4921841290076179, 0.12981078246886613, 0.20943099219475636, 0.257793508020949, 0.051621496162132074, -0.4343438124677118, -0.4288573256170125, 0.1114487431356096, 0.2929240920566507, 0.25528662817468906, 0.0477370282172237, -0.016387969832797444, -0.14716593652975307, -0.1025096486295145, -0.45949309490277623, 0.24682787917497917, 0.3601313293382493, -0.3480784830499212, 0.41419067598273196, 0.2209552995227636, -0.11384619193065837, 0.30416668765133037, 0.0867224280671609, 0.04526976730878962, -0.21573418162124103, -0.36317884484194574, -0.3647279686477528, -0.03735495250781995, -0.27797671416224823, 0.3369280817308511, -0.191257843891254, -0.188500200814276, 0.406065815254793, 0.021109371547703648, -0.3105715940314222, -0.46220504694191844, -0.25706942885936646, -0.008055312665914638, 0.13033823844030046, -0.16277975375574172, -0.046603596559042004, 0.15263072861246418, 0.009702799757387637, -0.38319100723575095, 0.4636310433247328, 0.10167987247938726, 0.290505215814321, -0.17442743143792516, 0.23332805848304972, -0.1946060481994475, -0.14961174285886225, 0.3453468769420752, -0.45081564091842297, 0.403075070681839, 0.05609218800018945, 0.05589516792503102, 0.21148335441731103, -0.36158765136251125, 0.09661448810781914, -0.10758692327748065, 0.4722123929805324, 0.13020980821590444, 0.16057026486358683, -0.3010672437556974, 0.045057871771325364, 0.19659731904013955, -0.35422724842856723, -0.05227433302111606, 7.847517623268407E-4]
[0.22909288391952376, -0.2771584835909462, -0.05734635171393765, 0.3859218028410799, -0.323638550742812, -0.26031468488914544, -0.046478875335934644, -0.04166210943635462, -0.4577586178982812, 0.14999564087742967, -0.1611687831024622, -0.47979176787661415, -0.07141267203163992, -0.12357405699054214, 0.10595152375444561, -0.05296567509531391, -0.43929666142628365, 0.2779206929244812, 0.03054581224322983, 0.16079463975225639, 0.4216182715035113, 0.18069740630716602, 0.4112301396042046, -0.024032189851908692, -0.4088194160965333, -0.24632603568741596, -0.2292368179305414, -0.04091641653331557, 0.13692732768189952, 0.3616723997320822, 0.3316819411751252, 0.18562121322914193, 0.4359079936954965, -0.08648046949487831, -0.10785392550937123, 0.052489025002035894, -0.37987924731666933, -0.3627959247097956, -0.19314488939446006, 0.1099827471999526, -0.06705479939060477, -0.33946163066905066, -0.3617453047630659, 0.2140344277958549, -0.3400678856153352, 0.25331254012747273, -0.3151503262972808, 0.16772759886136002, -0.04546271150847914, 0.09571761726265215, -0.4837072469890473, 0.42046899504274826, 0.3178635220471737, 0.4778533123758182, -0.15097998587829786, 0.32387028474911483, -0.28879951391968284, -0.09357494425953983, -0.41844481042404935, -0.09469184736259684, 0.28112996442488436, 0.19727432846661863, -0.42479317417635465, 0.11329474339632917, 0.4591892539999589, -0.2338249868940604, -0.18626631997716647, 0.013204564084020043, -0.23843682577698833, 0.49536751797497547, -0.09534471597272587, 0.46756805793233325, -0.0409990461339258, 0.24959215455693096, 0.4952364245216546, 0.422056132088502, 0.41313117233997043, -0.15707884050139564, 0.0677754288307647, 0.036444034628931865, 0.28257441126186955, 0.016479144522180023, -0.2483217500506032, -0.45074318057373375, -0.009270157233157272, -0.22282048207750782, 0.24390120644151436, -0.054536939554564734, -0.18316150564681688, 0.268894676218874, -0.33530247965180615, 0.20849701947350163, -0.27709734567511113, 0.2000158052097616, 0.19220405043242217, 0.18105438322706957, -0.4387328981428198, -0.2648520205486038, -0.38274428185648446, -0.16648060904887663, -0.378855067730959]
[-0.32627526589810507, -0.4610821869594164, 0.044547051343626465, 0.06709671938611617, -0.31538406366393446, -0.21842354415319565, -0.1647635970184893, 0.19844881828971173, 0.34334096763908173, -0.2439692871398148, 0.36649591719327723, -0.3841371440755039, -0.272710540097444, -0.09012031668546139, -0.0913838169898864, 0.3197451803798227, 0.3643897264332582, 0.11660096738447245, 0.4227285166753174, 0.4849115418127985, 0.4019549448817964, -0.16193238067978766, 0.35574248900891925, 0.15689878246274058, -0.03502425515410368, 0.16185215672818531, -0.25648016744620417, 0.3975421776443493, -0.19308278533695022, 0.3625187164035908, -0.2585446685413614, 0.470912937995123, -0.47888309494166315, 0.46520465170920944, 0.25730043344082887, -0.4945619578916153, -0.22282965257532528, 0.40014562896018613, 0.44797837200041046, -0.3060001990218323, 0.27422862842801166, -0.2716007505216148, 0.4603046014407798, -0.49895948278211, 0.3619224105404989, -0.40812639470597856, -0.05506059181295675, -0.465827265341893, -0.43033446061713243, 0.49486949143725234, -0.4464352626037691, -0.2924764449779095, -0.393619580788918, -0.24030437622608414, -0.15880980211553586, 0.07501682939305099, -0.2547735411044054, 0.015518620368159097, -0.26134178280732756, 0.24402443679160069, -0.10829804179627067, -0.12253961165744487, 0.03483182099468596, -0.4067060421870382, 0.048528967118487976, 0.05205764406593305, 0.11361277199599551, -0.38621297159885704, 0.3370193430662797, 0.4655494811668365, -0.4721481604984582, -0.43296149419491636, 0.21215992749667456, -0.3469393215376221, -0.13962297963486536, 0.31287411188906356, 0.017442960864203827, -0.4304000558590527, -0.2782204049284698, -0.403199974109419, -0.434491929620499, 0.18789383636711954, -0.3347379611505714, 0.30710460203778556, 0.0019497785647472066, -0.26657146512339946, 0.2607657040453434, 0.21268928680083876, -0.18781493429928198, 0.17367378266200084, -0.4362395276468255, 0.47487211619571823, 0.4650633685450086, -0.3736862126691446, -0.26150770978190174, -0.2101164439627604, -0.1480589290114518, -0.3195873830466812, -0.3488507577596981, 0.3635014139899182, 0.37623168521684913]
[0.23479239837742893, -0.16468017102067223, 0.04524786489435828, 0.27598126623265906, 0.34950464572556084, 0.3502823162087334, -0.14320172637022877, -0.47919113971086336, -0.22087405618794398, -0.29792278973402186, -0.16227203392948375, 0.41458947362783793, 0.31071201047473684, 0.1779795308521368, -0.39855019426127347, -0.14345271208687826, -0.23540583057367825, -0.343098875132534, 0.24517181530202226, 0.06596520235803494, -0.46719496066123156, 0.20141799799385962, 0.2899309427777079, 0.45950608096693746, -0.17222865507173712, -0.48846913255401747, 0.14023523499098034, 0.28518026859463774, 0.3930133573804583, -0.37406793664099114, 0.1475735760060115, -0.4367175099000169, 0.2879416953761631, 0.09346511529651413, -0.2619714608910759, -0.13783867657793913, -0.49955525192183015, 0.20562829651540349, 0.22145450272640665, 0.4454720911217023, -0.43618975855835374, -0.21961332064778316, -0.16184008109280834, 0.3676045059197398, 0.0586271827815521, 0.4182217116173599, 0.3187585887050257, 0.16526436960841917, -0.13433469096234651, 0.11326160019510234, -0.26616768343776376, -0.10427157254625585, 0.30233077971944, -0.4045007715035387, -0.307726937356401, 0.4060798882923532, -0.17685104232898075, -0.1954811238496854, 0.010649474528075964, -0.11722806462490531, -0.20617422758106096, 0.450817117525654, -0.17933034693157357, -0.07284505659984142, -0.0412083895930242, -0.2922831390521732, -0.2922121048253392, -0.36985747309812445, -0.38626725006607543, -0.30496186767298183, -0.11876962724506868, 0.37798052880445887, 0.167466963441948, -0.43489718080448314, -0.4358092513383536, 0.4111220923502238, -0.26837847558655414, -0.31768502310799307, -0.2373264209041982, 0.4795012533854025, -0.38807631086003547, -0.40052810678571493, 0.3224399644374537, 0.2900359404476719, 0.09151459783562288, 0.27712613155946797, -0.2842638472155308, -0.17401887267674188, -0.3054499969215324, 0.2667313808833073, 0.31296279018226325, 0.032791464518962754, 0.19745190381249134, 0.38397049815572626, -0.010831435217040664, -0.18855832354544055, 0.015527407793171744, -0.2644229227650129, -0.20877083465646717, -0.2623073220507055, 0.2342725355210632]
[-0.16887323791782805, 0.04879847278019067, 0.4345794419738497, 0.47752975082297844, -0.08931238329939872, -0.2494041123911177, 0.06543695536337035, 0.008770396436377892, -0.4501157777727245, 0.2273197586707857, -0.01393154872659319, -0.05287588908972585, 0.06584296524917677, 0.18345422493873842, 0.19720002166069828, 0.24637922415149227, 0.24065083002628118, -0.09753746349823944, -0.12784558827080506, 0.1330294338907798, 0.40337378163155335, 0.013336809942553152, -0.10028428838996928, 0.028543961213086777, -0.03265496791669087, -0.44879890542877465, 0.0784464590945807, -0.40861054551997844, 0.1063473275855944, 0.17064038726459996, 0.3262564601870006, 0.40593421383027894, 0.3714775972633714, 0.27765554699561723, 0.027813115452514525, 0.018215907446979207, -0.30010345064304833, -0.4653795927746429, 0.4324210538084269, 0.4726564222080335, 0.4473294340731657, -0.33765651957323484, -0.16371167435938105, 0.2391585122279153, -0.2119014606174322, -0.2856859859672626, 0.13563568460372988, 0.4366206398249536, 0.06963213803169721, 0.030438108842789746, 0.22089404083536623, -0.44324215377034903, 0.48280839699429656, -0.10895266014721172, -0.4027253185852605, 0.4712184634504555, -0.28484301572305204, 0.48668897622497387, -0.4367143273047941, 0.36533724069800566, 0.09085512167291587, 0.1951835710977362, 0.2563070416207225, 0.3834681527821411, 0.0696190082520971, 0.31466150397777226, -0.1168736273412363, 0.19369034339188607, -0.12399464345576072, 0.3397680931017687, 0.49337523433745767, 0.3837835187512766, 0.4613021802901556, -0.4120484206337115, -0.2749033241351916, -0.41427998744783523, -0.037898376901819186, 0.4837266803535295, 0.05421213831686689, 0.4925221499906114, 0.31281213067600133, 0.09103157868593381, 0.21344571015926794, 0.47918550678080185, -0.3062190383199733, -0.4527266411693145, -0.38869703492435903, 0.36847021961411996, 0.05236240865293906, -0.10261609032011121, -0.2220100640387136, -0.0072864764393624215, 0.021180626185350437, 0.45218370643986483, 0.09269765059975565, -0.40558087857206504, 0.17600090331612372, 0.20257853397430736, 0.3054660868401803, -0.21877031404713798, -0.274963513262499]
[0.009590449075322693, -0.3431192475821664, -0.29500909794942887, 0.4021822235954555, 0.25995041248585105, -0.2798556414683284, 0.36996691682168104, -0.45141889084592957, 0.4279571555525381, 0.44260447695127925, 0.49186843096570654, 0.11009267272086842, -0.4834666430767621, 0.24760798725403455, 0.12720647310873734, -0.4473527232600236, -0.3361138039738971, 0.47259137474524104, 0.37158644797117124, -0.4968661248570606, 0.296906625218163, -0.13439435496785612, -0.21409176403100139, 0.26038311110028145, 0.08841781767996881, 0.3400130809969685, -0.14895978764162632, 0.1889712964209691, -0.36738987439091353, -0.3041171400547137, -0.3256136056308784, 0.40798562294341123, 0.1914758540989029, -0.44334908372069826, 0.3758673046899498, 0.1175540642287487, 0.08478485778588962, 0.3408987027422091, 0.06618690189316612, 0.3678583652801536, 0.2971168550539931, -0.3083548951445292, 0.09685956628018266, 0.06851207021984407, -0.3423052387073021, 0.4193338359805574, 0.3093225686851847, -0.43940035999050964, -0.48776148181049894, -0.32026147765951074, 0.3395608241035276, 0.1293369620682867, 0.15078599609984566, -0.19570346778737602, -0.35497728783405136, 0.4222275933983163, 0.3814041273875183, -0.07207870947893424, -0.18779297884265878, -0.14424712123336636, -0.45305988388507823, 0.31813252640656486, -0.1238472409332445, -0.2569515795218994, -0.029561441077241235, 0.09938248126660476, -0.16283514551043576, 0.05568350124438193, 0.28457752562232264, -0.11225478773254383, 0.2954609384844161, 0.4445737083917395, 0.3514529401635522, -0.29632455149110315, 0.14102519074017072, 0.38822153215902, -0.48873298368042284, 0.414332308417667, -0.4661924446420834, 0.1108935633967475, -0.28804657492617636, -0.12799765758208603, -0.011492482130675663, 0.21900684164657758, -0.3335019791909698, -0.13855475666939787, 0.23853366369588558, -0.15908859000299092, -0.43930907459703394, -0.05347504194934105, -0.30466828962836445, 0.42341953444498526, -0.008728150400272305, 0.31527767554993347, -0.2578750357685108, 0.23784686104007446, -0.24709228369619463, -0.23739257955357929, -0.1947867153069266, 0.07899421243000748, -0.18783233914100317]
[0.021361274790064607, 0.13133431126091274, -0.3975813337275743, 0.3077878600652983, -0.24715923960255184, 0.46617254919721546, 0.2385042399512218, -0.3024592917777137, -0.35034236388274925, 0.3770417761873487, -0.35392300118674025, 0.2398941151606386, 0.2521413094486601, -0.2089246675997176, 0.22461686435113698, -0.1664468757759537, 0.29775716769904925, 0.4341048447973814, 0.2907868898484052, -0.1208622818359785, -0.3682936054934917, 0.23803894859542007, 0.13987804947801333, 0.21736708251439837, -0.023710801215887825, 0.47354324467275305, 0.37192152423449504, 0.40051676203233866, 0.1424928786213942, 0.2963338166804228, -0.47246941015199695, -0.4838436137964336, -0.40953691073537585, -0.34440843532460663, 0.30884036717751306, -0.464945445633164, -0.40427520186763105, 0.009234936141259116, 0.38354008264750494, -0.3121376868398452, -0.33455530202400824, 0.10068802965987125, 0.06508461443419158, -0.31172831302766146, 0.25931771062962694, 0.125911752289135, -0.04740496033307554, -0.28670442277496255, 0.3215462097058584, -0.021381376817197838, -0.04389318813207389, -0.0657657371008793, -0.39931373306268525, -0.08875215915258965, 0.004819125875756037, 0.03534074639419393, 0.252648109838783, -0.13902817943860998, 0.12753314697822019, -0.3860534837814395, -0.24804726957944645, -0.09870956583212266, -0.4674967707425185, -0.4440836274676726, -0.286402690320739, -0.23674767663885654, -0.23027548510225823, -0.4980875250010589, -0.168836585582399, 0.13899980046963076, 0.05882679309984818, 0.28218395490422105, -0.23373154332422447, -0.4777673624587519, 0.3810325697440848, -0.22586972169628347, 0.4917956034802198, -0.32310623371550234, -2.7775373975018705E-4, -0.020583498928131206, 0.2918802296578411, 0.42980038824448197, -0.349275910690153, 0.23933080256954706, 0.33648713633852184, 0.3788179930233077, -0.22925469521636735, 0.4172764428669346, -0.47491391815907646, 0.2767461294468629, -0.22496903992273656, -0.4335594644192062, 0.06796334631251429, 0.3095197298704915, -0.4203740069526986, 0.06668778214649196, 0.10545432749444676, 0.21949680536094304, 0.27446625175087586, 0.4724381013051317, -0.4889783043008228]
[0.24929051148924233, 0.09663787634887183, 0.33678840304483454, -0.08571105941773968, 0.1292603520163281, -0.3692384183872898, 0.09861035902357682, -0.11984531036642045, 0.0822724418353991, 0.4487112335713178, -0.2924579433885999, 0.17769761871186107, 0.33624015623586756, 0.28780344179032746, 0.04375745788410107, -0.07282367741220881, 0.21163104422381912, 0.19753955646556517, 0.3480391484391145, -0.38274519271260116, -0.08211395561074904, -0.10315697302157337, -0.2115566731244945, -0.16999498625976286, 0.08390853510637923, 0.32007577107084234, 0.07805079061749035, -0.34208599284567737, -0.03625738064716656, -0.20998985050102187, 0.45122107816568974, 6.827832394836209E-4, -0.4327407442950216, 0.3136065364535723, -0.25849573717416613, -0.13705438809087503, 0.4540504216059846, 0.016553466009343955, 0.15538621202689784, 0.11029552115208642, -0.16259539664492734, -0.223493851396491, 0.41479150875201964, 0.24913157183991255, -0.3313298035220784, -0.40017827692168934, 0.4103997036155608, 0.03829798956209737, -0.14528632861998755, -0.4629484318884059, -0.07114793770606886, 0.07474200946942097, 0.30380989391690716, -0.3051561159953829, 0.29933854684944305, -0.42817783365637774, -0.3151425682503603, -0.3553577314255506, -0.3403674906857234, 0.26816823996544764, -0.3308699182030199, -0.19318578020328164, 0.3819544421089412, 0.08848571128733876, 0.2962067694160943, 0.08001610867863668, -0.3533813035351399, -0.43676096270103354, -0.3170601957216176, 0.3406938377879614, -0.41112770988171987, 0.28695767065393624, 0.44021293057131083, 0.11322231130016798, 0.35236427167706486, 0.040629043082920945, 0.49642982399663893, 0.10790152210099546, -0.4765229116514673, 0.17187262116014296, -0.19178842845217162, 0.31147781640991967, -0.2695254408124889, -0.34126990210217895, 0.0053377267927543085, 0.4767387209566882, -0.005478784387913866, 0.494271844708264, -0.25320377999871424, -0.01663551541827182, 0.3806992123766459, -0.083629235019631, -0.45987045113809716, 0.4303063008029579, -0.4085823573011426, 0.3475783275553692, -0.10582585639734934, 0.30609403220077713, -0.05611240061029311, -0.2008387891404289, -0.4695831642476601]
[-0.3426042919102364, -0.30601708879102096, -0.10531827809882724, -0.21560454164309284, -0.41063098729868314, 0.04547767101260233, -0.4307370899217429, -0.06607541669495673, 0.3384982215317811, 0.2805272689017855, 0.15022122764439574, 0.15352814784295143, 0.29563870255988295, 0.3927588590731795, 0.12820859197489917, -0.33844748336083, 0.4845389366664995, 0.27785744999405104, 0.3744571141984706, -0.40843905879897274, -0.1307696415982408, -0.08213753546067117, 9.816871731735254E-4, 0.3773835734229104, -0.2685271266234404, 0.4855794863920225, -0.2529031062588815, -0.29714277356291013, 0.47087309160196056, -0.012429662642831678, 0.06510418157016684, 0.35851448338704023, 0.1316750678109345, 0.211959832917376, -0.09881618909578217, -0.18476752949701955, 0.09466309033086794, 0.06920440529605308, -0.24021087441993721, 0.2919932695375667, 0.30686843491224003, 0.07562773039345837, -0.24664859947992157, 0.19671596052366938, -0.2301772669353236, 0.48278894846643317, 0.2768695225097049, 0.19809754132179905, -0.09906559654961808, -0.06063785268868166, -0.016169703256543863, 0.02840028937615747, -0.230337313264536, 0.021483353729382974, -0.09469662253059787, -0.12745913282515656, 0.3363616143344704, -0.4923249605876932, -0.4997513097162729, -0.24974665346162073, 0.021846243434943676, -0.41946928737206585, -0.27101394064343376, -0.45977724229026623, 0.2779729300374713, 0.2635742506412579, 0.24525225502536108, 0.45191997698932257, 0.18984836372663136, 0.11274109692838453, 0.16819573100866897, -0.46606630145992045, 0.21366142012124528, -0.06279874173244117, -0.07635558651942674, 0.4636166859874486, 0.019772637483263973, -0.408458789268364, 0.13787935212344332, 0.33980547672772005, 0.12841212861213044, 0.30062123477683433, -0.4034980615004379, 0.3481738361847967, 0.12523783651757944, -0.36008475607287005, -0.15720454275601953, 0.18793673925804077, 0.27529994955908604, 0.30152983816566475, 0.2071834245564701, -0.13365793548460211, 0.020570541011339014, 0.18846792511599347, 0.41175575922379354, 0.08053366096047049, 0.29670574667852145, -0.29451335553192226, 0.481543898228416, -0.30366607261421436, 0.2654488206703107]
[0.2704905130809591, -0.0747148843745266, -0.0418646405345703, 0.4350431667531466, -0.22736222146412383, -0.2209702318550323, -0.07870590355018128, 0.10375910401338816, -0.31118042216188857, -0.4277666078088073, 0.3405961690297264, 0.3591600104738925, -0.4077864480082216, -0.2251792218244304, -0.38823141854432647, -0.3162770567825321, 0.36234407490620446, -0.07031155192220416, -0.2724621720483341, 0.060892990621882304, 0.2012165971336726, 0.1686651546050363, 0.005789095567036505, 0.007616329328334123, 0.4356556495257144, -0.3691527095389978, 0.48575194457798315, -0.21368566118117618, -0.4271088252421536, -0.29379579929498884, 0.04779699037230863, 0.0629838352916663, -0.4663663136802541, -0.04029183340858782, 0.09908789825131097, -0.27913487448575, -0.007221344715554124, 0.20284683553278465, 0.4119869088166169, -0.17520438103382055, -0.2717251707940137, -0.01851824294660921, -0.018588848874387224, 0.2957284868251311, -0.41484072127873073, 0.43900549319957494, 0.1888580296800625, 0.05269289028119802, 0.07469405734738918, 0.49449209093052504, 0.2114626224372105, 0.07491151628298312, -0.09618293837558482, 0.037715888334363436, -0.16321179217365922, 0.12266552072801895, -0.17987890233741602, -0.3013835285977173, -0.12766481755440331, -0.4043526687539528, -0.16753012430456238, -0.27539496586316276, 0.1675871018039101, 0.27730517830772855, -0.3518890886130945, 0.4138867903994412, -0.05784418573467043, -0.2980204684833389, 0.31096048409266835, -0.4306243973207137, 0.3886846676689664, 7.531367442250124E-4, 0.49716192223452693, 0.3671047667216797, -0.17675581829235892, 0.24229114394401577, 0.4757900997775553, 0.14684914043832029, 0.4959139386787063, -0.48353882257560293, -0.13577611424513414, -0.3021433637660945, -0.01005831911524337, 0.10971309775360562, 0.40557546090699664, -0.3407643564286303, -0.4210885794931937, 0.4988388710815521, -0.30838540923502206, -0.14903934762412765, 0.35627226610757906, 0.022938146378513415, 0.45012591356303905, 0.48590144737843494, -0.24163194327551055, -0.4621630476800235, 0.1009597944434358, 0.3998403614754606, 0.33077257948002553, -0.4277229908270733, -0.17908451843899176]
[-0.272621786616442, -0.14187435964797104, -0.02540640565543693, -0.2839631243660039, -0.4450525769459728, -0.3046343626139001, 0.34870932380730185, 0.031447959034879736, -0.3487279673090682, 0.0622434597777803, 0.09660678474007911, 0.21629522131983897, 0.3263697362073179, -0.4208564379740095, 0.23663085451467863, 0.22255753854391527, 0.18090610207633284, 0.10068275111911791, -0.13978268946242275, 0.4767308979930058, -0.35642429847923385, -0.35962618182224176, 0.21307451987489465, -0.4215361711402092, -0.2624886059686112, -0.27520920833892315, -0.40602163060583235, 0.45449467740877375, -0.08418863642571701, -0.33067749791334367, 0.06709788086906364, 0.31591560271671476, 0.20962011024796842, -0.3808158714619465, 0.3378520702767885, 0.3873125053689458, -0.2532170456943511, 0.3701335972449244, 0.1578451623259744, -0.05061735100334014, -0.3024714007020296, -0.23478707644314156, -0.13313007485446038, 0.3703365047505664, -0.13491429909010264, 0.48565704568359347, -0.060226927939906576, -0.17995807910899883, 0.43415177781394804, 0.21129611648864852, 0.42224403906749114, 0.17743673689600128, -0.3846753873245494, -0.07941435749735257, -0.1963158939914266, 0.11785769669469107, 8.562696624163762E-4, -0.42999511845966776, -0.273898695908469, -0.14991806745717062, 0.05191742498288206, -0.17577465513689425, -0.30036250768814904, -0.1391038090758662, -0.222307647582817, -0.3237317507074592, -0.04565281514917038, 0.4274966323091423, 0.26436663902763197, -0.280154320668583, 0.38885279726412797, -0.4898707633953196, 0.07367329137238701, 0.3938990105486217, -0.475042395727471, 0.05962320012490195, -0.07290267927784799, 0.24823351924833298, 0.37107776804530784, 0.31776425787211243, 0.472589071307229, 0.3070567623546802, 0.010057860637780797, 0.06715863933318039, 0.12332512259772721, -0.029409892547036888, -0.15316212135205773, 0.46312169662520336, -0.35178517547178284, 0.04766896297180197, 0.4968971268567693, -0.218181670070982, 0.4742311676830639, 0.3312682422266672, 0.21024883483131693, -0.387727730283681, 0.07329474058350373, -0.017696544655062655, 0.2005647950494526, 0.4816539261244081, -0.4217723181433477]
[-0.1919373634382364, -0.04473517302060992, 0.4638331325759166, -0.11960015118327776, 0.39265546671286256, 0.19092808011400203, 0.3762720219221076, -0.3640896722042433, -0.2511551996946586, 0.03402252949955732, 0.42995446157722256, -0.4240946909664996, 0.23094841247966852, 0.4239483844253484, -0.31769026265307915, -0.43897525968161644, -0.4843274026660589, -0.029245766200523184, 0.4990196970232048, 0.40428604762186054, 0.04586342035910791, -0.39106765677251243, 0.2258417475896967, 0.08017470482970723, -0.20296334003957756, 0.2965366958634536, -0.10531873393821463, -0.3061886166855723, -0.46293236367543783, 0.47525787776462514, 0.04072420025188865, -0.430372609166705, 0.40817145198393173, 0.2786341792433476, 0.14957421432513524, 0.12482940011412394, -0.10714984466874171, 0.4786876846227384, -0.06199074402485525, -0.36363171060002075, -0.22689237447281912, -0.4338702077942267, -0.3297756570112008, 0.1960168290927041, 0.20968319582949893, 0.0937769434331948, 0.06801618705665852, -0.312524420753457, -0.1194228952226781, -0.28006790736761644, -0.14077762061625756, 0.007810461015309002, -0.22600243009190688, 0.16245297984601892, -0.16240846056364475, -0.00415368144805409, -0.3463803843687969, -0.40842573787481534, -0.4943357838954963, 0.34634220555429424, 0.2323576498667911, -0.06328492828558792, -0.20076451269543905, 0.048452465519443766, -0.1444424057490586, -0.2297748633841384, -0.1152902759881914, -0.4912536567558105, 0.005601568031518094, -0.20130568285197423, 0.33464405212990295, 0.09963832499401856, -0.1947365866054895, -0.11478944606494815, -0.23442796938052282, 0.4210942952163532, 0.3603471204584485, -0.08447084086879171, 0.216172482826329, 0.3003071085166696, -0.2131030920975614, 0.3270782922242069, 0.45814352259490865, 0.11614416841367013, 0.10757503704534335, 0.04515454108662053, -0.47554228331775145, -0.23711239646467053, -0.04096910898541948, -0.13094089988620405, 0.3218686148775331, 0.3947330774828412, -0.30381272544971416, -0.4872849224976475, 0.24936963393470513, -0.481328295507188, -0.14284188111481794, -0.33365875432584224, -0.40585001360518724, 0.441154494149442, 0.3078429012934819]
[-0.026441767381575887, -0.2641244389525184, 0.058490934576452, 0.11728241117651762, 0.48988773978087635, 0.4290748562597801, -0.4253659303445803, 0.20239892004192112, 0.40650461790399023, -0.15957469153212733, 0.11566015697090146, -0.4007438446672167, -0.4031146070722337, 0.2167735785159873, 0.45928629628170115, 0.28912662956859114, -0.3453071692240047, 0.24997575645180778, -0.18440348745349597, -0.3110621488906801, -0.5062101478062833, 0.06836709904729114, -0.4448076068086354, -0.17820588602946053, 0.14641653316191316, -0.4743949289962196, 0.2039080328882102, -0.08420845566765431, 0.04121398176221231, -0.26074083876262705, 0.3576009596242048, -0.33496334113792264, -0.06680596891439389, -0.09821463469491651, -0.01770596808222213, -0.06623628696988552, 0.07769990987732413, 0.20712063004791526, 0.02659562000343731, 0.4895315495357996, 0.08165615692711892, 0.2826552325470522, -0.07734143495310092, -0.44276643759331097, -0.08633101887232984, 0.10772532177041594, 0.3475693956908105, -0.20911699580016221, -0.1797543006025562, 0.026786944511912634, 0.1157422456223175, 0.15106785699226435, 0.21457023923161492, 0.4512230443383795, -0.09276643747907641, -0.25180484427045646, 0.3227889404051743, -0.4142925704809034, 0.2699390091234752, -0.30284323904414817, 0.06845749227435696, 0.3526511153897517, 0.2806537269399827, 0.2210574038187242, -0.04930062706946209, 0.21243964220023065, -0.38775959703209756, 0.28459567433023325, 0.38820279555974835, -0.25827607344721354, 0.36076949221874766, 0.3044337860236944, 0.0663896695276241, -0.12723401935383738, -0.07153694121958812, 0.38224450806528326, -0.2020116655034136, 0.38401391412767166, 0.20928383702366007, 0.5014453394597843, -0.03342864783747689, 0.2827039733828723, 0.19258688704548652, -0.3724984729061962, 0.031145447699440332, 0.42048812775612077, 0.1182445320501637, 0.1050430376935476, -0.217178491864546, 0.39886877228982787, 0.44188954080402487, -0.16234249720239244, -0.4281963289208946, -0.4861393936499657, -0.39768754830733416, -0.3265599648576264, -0.2298945807184537, 0.22818773740917161, 0.0375034253897567, 0.4986493365314793, 0.27915742173393243]
[0.2234852479204524, -0.309838592948728, 0.4210550207017054, -0.05556436963100675, 0.2238816666634511, 0.5085700987196493, 0.3951666735667107, -0.31647294380948254, 0.09497588301435435, -0.3506645357526461, 0.07410301370126628, -0.358978245115115, 0.3522533142019857, 0.2920213677798116, 0.29093929264238866, -0.4980428120161495, -0.21732308145518672, -0.07433642691250668, 0.4561756090311877, -0.49827289396572466, -0.29818584808030235, -0.35793623151691023, -0.08452912534296673, -0.18682492746649046, -0.05097781239470954, 0.1173913084305579, -0.1733174753603345, 0.3223602761127005, 0.26425043145711363, 0.05661898802335452, 0.4124114632491168, 0.1070821731854981, 0.01773306107691211, 0.3152645997245718, -0.1231271537636013, -0.04908486099822902, 0.11093111870834266, -0.06007436691799809, 0.304918350814973, 0.42120595226932117, -0.12992694428051482, -0.487144831663704, -0.3725192620871971, 0.0677987900048823, 0.24305120799749733, -0.14020732932073332, 0.49491826425659646, 0.16714374110371105, 0.00732379962421301, -0.13625637774827973, -0.020697560873552446, 0.0648699267110017, -0.2104140184630808, 0.11960606375294544, -0.3001102628848112, -0.49132074444594115, -0.07853689399910309, 0.41514674532487966, 0.3156804286474502, 0.44223460492376, 0.3127995938800926, -0.3279209204408382, -0.33813408647032217, 0.2877801365441781, -0.2985902183744797, -0.47979261870606843, -0.24922895013449908, 0.32477173408783394, 0.3812833550163215, -0.30111713554854563, -0.22673956988882438, -0.16887630497279385, -0.11116222248324928, 0.4091257796784861, -0.38033665839026903, 0.1959411991595255, -0.2824477628446842, 0.22101297892814178, 0.04642906422980283, 0.29067023532956004, 0.27018381921747603, 0.2595846620823697, 0.48192538010289876, 0.020014039630599372, -0.3804735522649449, -0.38335535319843467, -0.3578486109436237, 0.13670413449027227, 0.35694402422406657, 0.24506675763136854, -0.29244716163987605, -0.021876941092342016, 0.22973684393201743, 0.011647280488932767, 0.22120069112590302, 0.1551473760880356, 0.17730906436677532, -0.2588609563187541, 0.34891422563764013, -0.09954494320386528, 0.19275720924695217]
[-0.24999319834562062, -0.07711257973330513, -0.04387439608040209, 0.1330102753764292, 0.28745880372423105, -0.00387636888999006, -0.12460795925748401, -0.38649203027168205, -0.44266530768002965, 0.019598095663734116, -0.20420808914489444, -0.1427007806239245, -0.47397769233433223, -0.417543628461455, -0.3098267561416315, 0.1597355350711408, -0.013020171209723154, -0.383665639146808, 0.4343801887928287, 0.2096911594451093, 0.48380976140830007, -0.3179810029036137, 0.08817207528786898, 0.1467623130932726, 0.3610625901390017, 0.21173331241659796, 0.059776698580567424, 0.19645700943715258, -0.06122048918598192, 0.4976941203842588, 0.004884271361671304, 0.4951503723077272, 0.2356521669934091, 0.46282436178295827, -0.30697610290930083, -0.0204274316538801, 0.4382781189838994, -0.4213630398410186, 0.2268856034312727, 0.26821658668576315, 0.08967399911895038, -0.3826965146486107, -0.4516392758207988, -0.3738470296657222, -0.4783097696906696, 0.18817749902768607, 0.19166251410955382, 0.043599825322709576, -0.09882680174409852, -0.08277297147792764, 0.20690884432416792, 0.1558911322529647, 0.10766226944885027, -0.3630776871926643, -0.18415352967644277, 0.13478848044266503, -0.498659821765355, -0.014772387350040939, -0.29478808550025426, -0.013643219039282013, 0.10519256020899577, 0.09765608756587198, -0.4083183209476376, -0.24231012585435754, 0.3309457386360436, 0.34164831822736985, -0.24919742632675504, -0.13702197242046435, -0.40397663073192686, -0.23925764494014087, 0.3972530644038409, 0.43582156784719384, -0.43823769052385636, 0.37521059843941024, -0.2603728144137282, -0.07890079526833534, 0.403655047464688, 0.18857835518604638, -0.32694994700448915, 0.31371894911109344, -0.17837846178541886, 0.46246413586859125, 0.3294997766774168, 0.4206645300408562, -0.4852209209787163, 0.40485832551091766, -0.11085199798639546, 0.10610445068316285, 0.29467834723800296, 0.35764654756017805, -0.25272892105529177, 0.22674787939193203, 0.23827732065865637, 0.01960332826194246, -0.3853620640593373, -0.06944885927028595, 0.4327965641558589, -0.457856824088331, -0.21066296703781348, 0.31717020520365913, 0.4457855524642149]
[0.3541763056961754, 0.43089392955190725, 0.2356690413900509, -0.09842374783385764, -0.41882022883936115, -0.31109140340583746, -0.4132312411053405, 0.47976327831127874, 0.4335787486792782, -0.20683209415616957, -0.4187992371973997, 0.4092408082306767, 0.41252762039993945, 0.13186781553057778, -0.09637771032368275, 0.03646740007004242, 0.32748020328425437, -0.20573190526735846, 7.387084589016585E-4, 0.48055372478832536, 0.244073877364527, -0.3632154127567372, 0.27418641620183704, 0.4019747370891654, 0.1534029940124434, -0.36464032699843524, -0.2967871497867744, -0.49744275215825356, -0.46658619707118726, -0.18553566523856088, 0.25245384940630133, 0.20261130290126286, -0.2313691283613411, -0.33145639293933377, -0.4408514344981593, 0.19677998514738607, -0.031949881275538085, -0.22730357160376358, 0.31440756049363594, -0.3372890127681373, -0.0507723804539063, 0.4983841188179848, -0.41340722720442824, -0.12599184730772897, -0.2544918580887819, -0.2718963928511152, -0.34430782571138463, -0.1964536376035081, 0.48524709748542955, 0.08852827097444341, 0.18531783988933842, -0.15596192046574195, 0.43712573206419697, -0.28044730533109274, -0.4465098709615626, 0.08157887074938089, -0.26486012952402804, -0.2473581832863244, -0.046038468682389345, -0.2442966519361956, 0.10323321813614812, -0.13192889920290302, 0.4440521873477849, -0.38686863884221534, 0.39293488936273313, -0.2369656658467098, 0.4151654279891767, -0.06077161092869751, -0.37883518151007195, -0.36706151553231486, 0.20156620496632408, -0.2864314483222017, 0.34486343336014397, 0.01998382761953443, 0.2815759735675673, -0.14627606764376366, 0.3541099609029337, 0.004192000081778897, 0.3774051573515755, -0.2980461606267297, 0.22854001093158413, -0.06154470984965109, 0.12919356623285924, 0.4051500622760635, -0.36027955676777157, -0.427390517217834, 0.29126689374734255, -0.17598153657016002, 5.163121867263595E-4, -0.36469514213825416, 0.4995139172718113, -0.4922431322593162, -0.4392142370107154, -0.09976360139560404, 0.294396257711567, 0.06819667538449811, 0.2716979969000937, -0.20795173036190837, -0.08718001533219119, 0.41172524601565863, 0.19891732670932072]
[-0.3226549784859392, -0.3988592928777452, 0.14280054369039027, -0.37749771952359495, 0.08486005114896783, 0.2350238488654188, 0.41438224588643247, 0.2788149109594809, -0.45482011755081597, 0.4135226115154824, -0.252934677692147, 0.022244848941781498, 0.00593077293009589, 0.2952162317592967, 0.10858357181179223, -0.21830432515868464, -0.3920004649928894, 0.4477037077018404, 0.060758664776938226, -0.08994996894451893, -0.007869085720616691, 0.027301994815068745, 0.3449667405655501, 0.030407773345332942, -0.058900571690321576, -0.15559756767135371, 0.08050896813011307, -0.0287957848464398, 0.007770938772763708, 0.20789253755025364, 0.41990907541024414, 0.32690702595722065, -0.21165359064358266, 0.11102932924173982, 0.104702865740057, 0.06854956824509255, -0.4305732714522716, 0.3848986255783831, 0.27024858273204166, 0.18424201494096853, -0.052473450009864704, -0.18651341879549455, -0.41022205172715226, 0.3358245328163488, 0.41005330417629204, 0.35009895161040827, -0.3601270358024767, -0.37423891194981096, -0.08855525188861527, -0.06761299582871988, 0.25166378476599804, 0.38202149290089144, 0.13115317498654164, 0.45315618658680046, -0.4877427104789959, 0.13927531568370977, -0.4648909614031818, 0.0454576132772875, -0.08637997769770304, -0.24157250051081136, 0.030135922901413044, -0.19606409204534322, 0.2490739216985523, 0.2941296564927753, 0.25078393314087216, 0.03696627153030933, -0.33162220810985504, 0.4716940001656397, -0.040424798644666714, -0.3822202110575502, 0.34007516000664395, 0.07088648148994556, 0.3134712766394103, -0.20286366746991627, 0.34762107458094904, 0.042030810317050964, 0.11621600993860418, -0.46486910753921706, 0.46142060089212306, 0.4678863848713432, 0.30757928138317914, -8.421188686036853E-5, 0.22500815619306538, 0.4554176109981727, -0.11569473914501185, 0.15657635804019904, -0.4602773032119724, -0.18959249006672857, 0.3284700658623705, 0.22701521000178485, -0.47347457823313494, -0.03826557767129207, 0.2829838955981763, 0.10028734163925783, -0.09803431538184236, -0.014575385041037479, 0.04070987650690078, -0.16830644169308814, 0.33590222516085905, -0.3911868983314775, -0.35541386685558574]
[0.1791663871074472, 0.49283313055509953, 0.35191479082581345, 0.09713063762996728, 0.2873830077249146, -0.368346526125077, -0.10422362101716298, 0.4675095650367519, 0.35117385874701423, 0.1613663918706932, 0.3022316419193851, -0.1932283504622162, 0.02059856403493434, -0.22732806740410347, 0.04522411213437022, -0.2997716945980126, -0.0388739536271306, 0.15842259190933602, 0.4656298807086262, 0.04398139274638873, -0.08933679973911156, -0.261871936691028, -0.3155012842360743, -0.2577322424211316, 0.20075703795614844, 0.45398381037166263, 0.025181696823694606, 0.3683836575377135, -0.030115361518399438, -0.3070124759455395, -0.06287926684482086, 0.013501608580978977, -0.3807821838045771, -0.4060529673070544, 0.010708441860765772, 0.08296203412728635, -0.13198610758174809, -0.1835373702306438, 0.285550795086279, 0.04012482545955425, 0.47351522092472115, 0.04960294705097291, 0.057816244958691955, 0.06551981705722547, 0.3674971662219858, -0.4291366708649606, -0.33039493742860826, 0.06275747987577207, -0.021254026693256232, 0.4144364532160206, 0.3032060099558641, -0.3788886761927726, -0.21684428844365833, -0.3232679930245647, -0.3662057088914594, -0.19573461915858506, -0.11437779844922481, -0.12633947722707403, 0.3008738559754443, 0.07244091278736671, 0.024994519202987703, 0.4821969681922534, -0.4350742570149634, -0.0046018616879723575, -0.08709080060145583, -0.2639518142275302, 0.14848943133226006, -0.30101882715380573, -0.10611536195892349, -0.34077864943913677, 0.2899068387969683, -0.38936974132544316, -0.06272881199026374, -0.0430915416030396, 0.18467790673146797, 0.3084177769247565, -0.38062598462728703, 0.2219482130860198, -0.42997339506106186, 0.026617365543405897, -0.14475733117691056, 0.08380390838356297, -0.009179037407242097, -0.3959472508624993, -0.043898433785351056, 0.38110147919134124, 0.31280673870218473, -0.48240380392234455, -0.014780356888694909, -0.08286449122665596, -0.4574427235299095, -0.02843758409363468, -0.019127671404672114, -0.2178677971677109, 0.46356006956319773, -0.19389536856751, -0.23303368687650752, -0.22070132237097737, -0.29806111735159346, -0.47178063119168395, -0.1286563303717495]
