[0.43345934211918247, -0.5093870034000715, -0.2511004324074699, -0.4171005858319393, 0.6913572325990227, -0.14553832811777603, -0.3468924144882094, 0.32586855913808405, -0.40512505657981257, -0.12227058091979269]
[0.35765608646764674, 0.3748768158825861, -0.15499389529249974, -0.334255123219228, -0.26962569189737107, 0.06657329115266283, -0.20578270931120557, 0.005351484929120933, 0.42152721092027895, -0.08758500906942754]
[-0.39881584941717346, 0.25036535909311164, -0.5048103803414383, -0.11390168484194985, 0.3239053799340772, 0.17011197309830864, -0.5097940698817672, 0.4652757165956073, 0.025608566496174486, 0.6901782742861583]
[-0.811029385878225, 0.3595129681333427, -0.30344130893599985, 0.04841160310483235, 0.4171424527447723, -0.4381923955385621, 0.013507606122101584, -0.5325140316258482, 0.252321987104464, -0.04976585169500723]
[-0.3691137516400215, -0.40820339245399645, -0.4561704191428282, -0.014681203652749903, 0.2771284702894344, 0.42646235259836845, 0.22119031601565425, 0.33298910485448224, -0.05723961830317787, -0.4580116084620451]
[0.03849699848009201, -0.3145241495092565, 0.4331323122769412, 0.37629605466719174, -0.5248753713412453, 0.2722203267887071, -0.31761589291845516, -0.6023341395611754, -0.025979650783122053, -0.40614976413188847]
[0.29238897550910653, 0.03552885744956973, 0.2416350925269796, -0.2705555920572865, 0.352311818552632, -0.5409316835302169, 0.31499891440190764, 0.10128352103882049, -0.3201354485004687, -0.16139259517193233]
[-0.4989675115530226, -0.634961063063587, 0.1883304057213507, 0.24594164469631774, -0.011546405436954616, -0.41845568942354355, 0.13516138418658313, -0.3979118574585375, -0.23316619107739495, 0.069247897210069]
[-0.07137073602440547, -0.29852110478039906, -0.4078381335743102, -0.14225937719941653, 0.4262709610205561, 0.05338489245628628, -0.5579808911753701, 0.17215016980488032, 0.0895011690166274, 0.025408968563367797]
[0.12084199816415356, -0.4101146638553962, -0.23131910562826694, -0.18404040666940996, -0.17814621727649949, -0.18858188015816107, -0.14125424879562368, 0.17309128400532145, 0.3497554538235329, 0.07926873051566803]
[-0.22399467675366697, 0.18770056494186815, 0.3561202938031071, 0.023580546628871973, 0.21261449776256455, 0.263478844457597, -0.3884840598365413, 0.22129054260123887, 0.29913064055045907, -0.1963605318529068]
[0.2701419767965594, -0.5668208396919074, 0.31519902514758846, 0.10543556037596807, -0.2217420033963483, -0.31600848298059697, 0.3069601913768199, -0.3062876209016037, 0.303474890684948, 0.028507478988809436]
[-0.6415931409806245, 0.008911005779892416, -0.8550915987185993, -0.5315964419740749, 0.5080432772005529, 0.34656209977997016, 0.1603705223997845, 0.23307875308367465, 0.4775619551917113, 0.11079845311300561]
[0.4317562584297014, 0.573752484668279, -0.06594567323867544, 0.26587688332015036, -0.3115555385840372, -0.4189131133231588, -0.42525831150137583, -0.12709202245409496, 0.0492447103647019, -0.2901692050785172]
[-0.24853179184293547, -0.22142814336645344, -0.0347930975099048, 0.36325348823204534, 0.23366898427246752, -0.06706071332645192, -0.3795546717692675, -0.5224834922141695, -0.012506201991440707, 0.15702621358030885]
[-0.14183452845764782, -0.31656255603471933, -0.22723656771847373, 0.28609319911629044, 0.19559996465335489, -0.21257548261311626, -0.40110257572392766, -0.11114023958604888, -0.3264493247169384, -0.517470173410353]
[0.5715104475733077, -0.12611971852570963, -0.3530996011446068, -0.3150250259943334, -0.2549372044215557, 0.12923608545287346, -0.3198254521395088, -0.44784861588929215, -0.011002041954774663, 0.058213305714050846]
[-0.06516130451699487, 0.3270361693755372, -0.3616824231517978, -0.09342411667457691, 0.002884241811852113, 0.8609869910335307, 0.3560382397895833, -0.7705244733518396, 0.1363784157293722, -0.32432097984561475]
[-0.21077757422795637, -0.00439295344548203, -0.4208912026519498, -0.34858097678514205, 0.11481712734630577, -0.08137686832411856, -0.30782282900955615, 0.4293855565751722, 0.3840541600459893, 0.07358865238891875]
[-0.3779415830268604, 0.2077386218115214, -0.42221627586871413, -0.47535437290454474, -0.5240743006305603, -0.252974615535396, 0.2669983293689608, 0.021759498836613014, -0.27151534736651145, -0.20996263331264228]
[-0.2557405051116785, 0.3638695695604826, 0.17127160119433793, 0.18912388459878274, -0.1843662867741562, 0.1520151055158381, -0.21644486444762792, -0.4088833191853518, 0.24438997669176263, -0.28614980510803123]
[-0.2116031603034329, -0.7146911151779931, 0.006303950667900635, -0.243959460967907, -0.30458710974723263, 0.44491426883338403, -0.29426874309168766, 0.15770991084794797, 0.23008140730958332, -0.024847938398499494]
[0.27521691793921416, 0.34304999941679987, -0.45776264162698105, 0.19473865160989934, -0.35020774791424314, -0.3474250826854267, 0.18139998521593498, 0.024517874425214508, -0.09434550199528127, 0.044621808400833476]
[-0.03300667770012564, -0.3388575353886821, 0.4252717276419332, -0.24338618833236694, 0.37697799997659576, -0.3119730828741321, 0.07541103423285653, -0.047635184536385884, -0.5373621337353915, -0.15634473630649773]
[-0.4747644851848553, -0.5012781714406754, 0.41252837965568917, 0.20021275031142965, -0.3073416005570618, 0.514288887846863, 0.12704844720369876, -0.5356843373399383, -0.16666811893637568, 0.07968500107995871]
[-0.33801795479235713, -0.4157506163603865, -0.492460947580814, -0.15143658872618215, -0.26710819927104484, -0.05707006893031637, -0.7720024079832966, 0.6400764465895963, 0.05831172642307986, -0.1348364761558762]
[0.30224874591107453, -0.4551061148328939, -0.36913536178222894, -0.22537804735444578, -0.5113422602273086, 0.3999796014188433, -0.39978789846462065, -0.04378725495330707, 0.627921145310978, 0.137266274524554]
[0.3377938921738071, -0.44602190699232597, 0.01507427774045473, -0.5955894610018825, -0.07057264162764326, -0.3428041250473581, 0.36301908395477955, -0.4168036363775069, -0.0416056606625553, 0.06866169500051317]
[-0.42471011061523933, 0.3558299214062025, -0.17744825047557528, 0.2474866757668344, 0.13578730732051864, -0.35186692583796414, 0.004596800667500321, 0.13867405875606476, 0.02076080101083871, -0.17867303130223097]
[-0.26263714009140304, -0.3705432462299166, -0.1496885364665779, -0.05627401064854959, 0.3320651397937258, -0.0959286627306725, 0.1855150097082048, -0.3509001097176561, -0.2674602741982523, 0.30181539578675726]
[0.5899633765570366, 0.1543286157941623, 0.20270529545530167, -0.14910163745586988, -0.44828731453945775, -0.46378475432677124, 0.054989505702668244, -0.08169481049298521, 0.2784278216813347, 0.114559454839373]
[-0.005807570356568518, -0.1455563858588595, 0.050129439738283606, -0.058452508517246614, -0.06525200079318187, -0.3983280354168063, -0.004644517857527294, 0.30240392710062425, -0.13348344245929544, -0.3336325624534236]
[-0.19963877465571553, -0.0709192053590921, 0.29560782144642067, 0.14084587334298962, -0.08157553834653876, -0.5029979861195325, -0.6490267752907686, 0.07868722598157264, 0.27360939190522776, 0.03844011366815265]
[-0.2808984348208504, -0.6418755903891311, -0.15910312810213603, -0.09559224768547878, -0.5316623528687668, 0.06799163742890595, 0.3325354071858807, -0.1918330623196758, 0.14891473549861745, 0.29966334647524134]
[0.2139734520866685, -0.1404841994588607, -0.48506614832992395, -0.519925842843452, -0.3287857578790075, -0.09200380290310312, 0.3017244689617293, 0.35845049736740164, -0.18697414998654235, 0.4503200394836103]
[-0.19844292481847534, -0.30426107899539945, -0.2946141973056467, 0.3382727523759627, 0.30167519699648876, 0.268055623054676, -0.11633506922592825, -0.03699238337228787, 0.07158313821543089, -0.15031188978751656]
[0.26558450653472615, -0.7061534604837717, -0.2361765691802278, 0.4317543567765111, -0.22739688480989315, -0.22286987958779034, 0.16812993416605596, -0.1762375927865376, 0.5169114164256543, -0.31939039340644315]
[-0.12048597918324828, -0.4502107800812903, 0.3989253421558408, 0.14571964221497669, -0.2680901278215983, -0.3116532231849258, -0.2254480732247155, -0.3103196448630062, -0.04617461067464855, -0.040605606208308165]
[0.26054906106587306, 0.31956467986397824, -0.523906229595292, -0.2934404113034312, 0.2743828335979852, -0.6232700787857919, -0.27030741829089505, 0.01177995136145897, 0.10459874132349475, -0.1078898574722786]
[-0.26253074092270273, -0.29509883602384634, -0.3569281390161344, -0.03230754620849973, -0.06418164505862024, -0.21748056477596553, 0.07271183088767495, -0.03091780049426579, 0.3259811671932506, -0.3382331755979616]
[0.1334111227084838, 0.2697126553518742, -0.5046442591570435, -0.14548637068832684, 0.1582140656249979, -0.14537842933805428, -0.12745532762661846, -0.42088560855848556, -0.3982363571163865, -0.5204016471794843]
[-0.37156101761895044, -0.25108541239267024, 0.09407909397845707, -0.25488655801738413, 0.10643961503871366, -0.20648309418534602, -0.2020361026447091, 0.20798575111532003, 0.3784902879151372, 0.2654226293619968]
[-0.37981787487294777, -0.4745380146151848, 0.15100841460365877, -0.03003054085529985, 0.19282254778978805, -0.28010529852860694, -0.23631257181071985, -0.361250426848965, -0.1450817997089583, 0.21749856567187376]
[0.12085203181120646, -4.049175392431889E-6, 0.5001259756185614, 0.16210145402753157, -0.10570864044503392, 0.16063314895901376, -0.13650970674897644, 0.3824449723805422, -0.4695445691379318, -0.6274210413098145]
[-0.2657277853468602, -0.23310540456737944, -0.3316694390108241, -0.4429767121585441, 0.23563980201294432, 0.14978611902616237, -0.09092428790859529, -0.03898506994582063, 0.1304392103736726, -0.028256876655198115]
[0.3110271033598105, 0.0809285892761178, 0.23991040414677522, -0.26266829756128224, 0.16795588944705928, -0.053568843923126504, 0.35033788800978516, -0.5107101215762861, -0.5634594262433847, 0.3107214216675601]
[-0.4898470844127258, 0.22025861245257836, -0.15018282789131865, 0.18060610839730026, -0.40106452443384405, -0.24922949703295055, 0.036326843127084146, -0.38406019067736247, -0.33545943338745954, -0.40080141239999517]
[0.2009462634425766, -0.1952594651287777, 0.3273937724346799, -0.004872156390454166, -0.19679661475385277, -0.4670214753915545, -0.4806501719724491, 0.2592562495334733, 0.04982176491352569, 0.2020543614299776]
[0.1777254632730718, 0.4301367911820167, 0.05042420184984682, -0.4384318528085602, 0.37481982479329073, 0.6815655708665818, -0.36819944737248067, -0.19391510079554744, -0.13745650811822066, 0.1752632852860116]
[-0.22145908189940705, -0.4370066833625517, 0.003803882300970119, 0.2350452729200704, 0.2732228865726258, 0.08051350089146572, -0.5751147526106645, 0.06732496649750834, -0.6610637189257625, -0.04180300496610301]
[0.47276737365751703, -0.3733192027495861, -0.2189111469069192, -0.28457276979421625, -0.22678600589241393, -0.4637441613183149, 0.09673719908231126, -0.19698182425527316, -0.40415525166526317, 0.49110884241005737]
[-0.2566770398677003, 0.23069520713953903, 0.026887811260910638, -0.2984547086488043, -0.30166546393210764, 0.33341284008961897, -0.6426232050402693, -0.25967280778616575, -0.326305826097159, -0.21903871643246078]
[-0.0664747674837835, -0.05833903700624297, -0.2817830989968773, -0.15683565120920168, 0.18644765964852827, -0.2486539408157899, 0.45596610199270143, 0.306674936246265, -0.482784103845967, 0.006222066596151207]
[-0.03943493898529899, -0.11614050703660185, 0.19991349479877446, -0.1916944453375362, -0.4705896252886406, 0.34111373933109074, 0.1680810402002166, 0.8448798022445105, 0.06471377460778088, -0.38755013797670684]
[-0.0939126148506671, -0.05273922789031946, 0.004594379395608665, -0.4598584608390994, 0.3648285576295345, -0.14848541717046407, -0.6266235672856156, 0.08025435078236948, 0.5320149006409718, 0.6179461181380391]
[0.2815987517155921, 0.124442047710612, -0.3057275388288405, 0.02131759284680294, -0.15770978966067528, -0.5491677694753409, -0.5224982094677283, 0.5204246305104089, -0.5735258090179137, -0.3951051151889335]
[-0.44742702689772434, -0.034117206229036384, -0.45584689516815774, 0.5356008415846033, -0.06229383605287572, 0.42358038960999295, -0.43249002587607954, -0.08941441150864395, -0.2785008362706872, 0.24344394825993337]
[0.1564437458864818, 0.08341061157333729, 0.1273010393701063, 0.06047972972070509, -0.4012054953185827, -0.06101128981552856, 0.4584058172097724, -0.23215844922297807, 0.25333087153676903, -0.3980807063893307]
[-0.3966963920401788, 0.10928774479782204, -0.2042747351011053, -9.540244883382079E-4, 0.1869249228460416, -0.13443316244764844, 0.18449081604221287, -0.1617382107201992, -0.16531216451777112, -0.20863234009692644]
[0.4772511762958955, 0.05980524205470818, -0.4665583612025773, 0.5173545827408723, -0.4330904126339912, -0.11835223622119767, -0.42868753553068434, -0.32341407811804596, 0.4625621477715457, 0.4414680613987987]
[-0.4342240748145066, 0.6097751774729847, -0.49149060727982263, 0.23298152543448764, -0.5126534630193242, -0.15677986678517408, -0.3844453367237457, 0.7491313596737446, -0.19360704364947204, -0.03058033236622815]
[-0.20213789248683578, 0.38411054352035207, -0.6085864917370017, 0.011763275534700407, 0.05806490987613935, -0.08249983195532157, 0.3979402302946497, -0.3467499644787973, -0.6367730934296918, 0.5329511275505806]
[-0.0023705300619789415, 0.3432045166335023, -0.6812534542146036, 0.28798992030146686, 0.08183075217987977, -0.07876902012019504, -0.30583134480795343, -0.20993722078390165, 0.11126159317266625, -0.5182328604680007]
[0.35332631035303047, 0.2069418106698205, -0.4091815570515433, -0.4646841670162377, 0.07575908384360155, 0.009105626560582716, 0.34328331013897834, -0.22045988518612994, 0.10460996839073389, 0.04592052825967493]
[-0.1415422950726472, 0.3820965205935263, 0.10555618636499323, -0.5332751611203796, 0.48614776778861235, 0.385023112571391, -0.34683341520016164, -0.15812574799339202, -0.18842380913204734, 0.011489782153501759]
[-0.1033330181259704, 0.2504611008924216, -0.21514986632385624, 0.5134291379411189, -0.6901791231817804, 0.04636562780110936, 0.11037159060843021, -0.5007741614597551, -0.13416527587561256, 0.07323462497662699]
[0.286506969718226, -0.21867132033589906, -0.24369351098653494, -0.4760187854696454, -0.48498153648972553, 0.405656298376007, 0.28008683848892374, 0.3462380107979124, -0.40020496735865485, 0.09681279967123639]
[-0.14187898955693964, -0.5685712622518122, 0.284216875396232, 0.5456046637184798, -0.26702002674052416, -0.16929340390374778, 0.01698881832766217, -0.4646923297542434, -0.27364975305757455, -0.06290872740686673]
[0.03561980811330545, -0.2786202982626233, -0.4207614001262843, -0.10991427883136247, -0.4140009001787699, 0.4487233521071746, 0.2701917929811405, -0.05963747024771127, -0.4093881045630815, -0.14809818214684636]
[0.35066214966419396, -0.34231830905133176, 0.3391811700474521, 0.08085712241076687, 0.18270133101253508, 0.1757480709212857, -0.14717343793040147, -0.1777856265535033, -0.2857481253519322, 0.14792383008196433]
[0.40694476203476193, -0.5342651121861851, 0.27757787146386315, -0.13263822248848112, -0.26888705299962307, 0.43424261697748195, -0.10589969379728163, -0.4342757489746887, 0.042952792585648096, -0.5807881375399254]
[0.19173178578325328, 0.04277890011176234, 0.4174693463430428, -0.3510547805335227, -0.13267268945701755, -0.39957752382164435, 0.7789548462501874, -0.25365770680457334, -0.13552591112160542, -0.4732234388426195]
[0.8673226432957031, -0.3509739615502155, -0.011461548402239341, -0.09873218834040504, -0.363031043049509, 0.21589714895246165, 0.029728383078643738, 0.33182221133977524, -0.6106410871345387, -0.724781441975192]
[0.3402087183407508, 0.46733085492972876, -0.3517485479388585, -0.32101048723793263, -0.5414688505206781, 0.25893821160008784, -0.5711016944849978, 0.2806255556629698, -0.3560786760444838, -0.2515591942714437]
[0.2278744074616905, 0.27347238010054487, -0.6808162474164692, -0.4870162144229487, -0.08586876079194229, -0.33169865902821366, 0.6756528209963217, -0.6749661628364955, -0.19929315075677828, 0.36945518006839145]
[-0.41246916739417666, 0.5563095169000459, 0.5023390770800453, -0.18618656975098638, -0.11156018397471623, 0.21981086229367242, 0.385289656410633, -0.14939775789180182, -0.08559228905710699, -0.1152784397896051]
[-0.3714442395129214, 0.35353798028002076, -0.005683952895257647, -0.4943457050538674, 0.28498345532462777, -0.44081230235786883, 0.31475953138767365, -0.2953112816378228, -0.22263754742714503, -0.3053191421474226]
[-0.48234952102562456, 0.2321855097848783, -0.11902656658272162, -0.08047173529432723, 0.04933198487788259, 0.3531483256719825, -0.4768470382825993, 0.4069370605854561, -0.44430929640596956, 0.020988584818211045]
[-0.26973345538634735, -0.05800566426882618, 0.16743772508721075, -0.11931214220505823, -0.538739915512764, -0.08233452152108828, -0.0366715947098257, -0.05056693042947506, -0.05542204227293398, 0.23785631870701454]
[0.2148359945076078, 0.0025072328705695096, -0.2017575219617378, -0.013069971731930382, -0.008920455705032717, 0.36719579363935323, -0.29740267708398255, 0.04423306416949798, -0.051787591585765645, -0.10764236762089807]
[-0.46581217727952445, 0.40836460783006673, 0.8179899004121801, -0.08475535962406293, -0.06719884401540435, -0.46353197463002854, -0.817343024833155, -0.05023848665485281, -0.47907621080055046, 0.46300301875077277]
[0.0338613501121396, 0.10874709295145316, 0.2039849222397603, -0.3568429663310607, 0.09689158169485086, 0.011315183292685655, 0.3015587116847186, -0.4003097578369723, -0.23725223793773487, 0.2572911148304192]
[0.21799006779436972, -0.22240107506142395, -0.2563040660771894, -0.06297012994127206, 0.11503827341375938, -0.34146667328640395, -0.042273313332906536, -0.36327823379353924, -0.26150475740916407, -0.38691851584622083]
[0.07691060184953749, 0.5014342202812759, -0.01202252164952369, -0.47578243624783007, -0.1915576950444667, -0.125383356210933, 0.18789106921836138, -0.16202584144470844, 0.4672898443445504, -0.4079936402389504]
[-0.2505736187404057, -0.10321950177749203, 0.3115878677697991, -0.342015521171979, 0.23860693300193905, 0.3361609583622395, 0.3855533572257058, -0.3225182816214376, -0.03822914464696643, -0.07438515947683792]
[0.1175880772742633, -0.5261258681528082, 0.23083390668245865, 0.30047436096178926, 0.2540309493437421, -0.25145623327795985, -0.2373003741902602, 0.10608471307328847, 0.1980280348885952, -0.07448729622769325]
[0.25649061088720243, 0.058946655262693215, -0.09864584936834855, 0.3220557620848211, 0.10984487686552384, 0.37100759722200066, -0.23305276510229336, 0.01725010739909383, -0.21032241926743822, -0.4108281158643896]
[-0.2554496316321644, -0.13720569281017536, 0.6024055673915344, -0.3732839725722384, -0.08923667314517869, 0.12113955170736453, -0.36524495928958356, 0.3411448578910081, -0.27669908744852845, 0.2684613299344562]
[-0.4855579637583825, 0.3658646433166696, -0.16341623471757985, 0.060129517044038884, 0.28021531990930937, -0.3624487472851847, -0.2743295408424249, 0.06946091844412756, 0.08163673296822713, -0.2916173124988969]
[-0.6077875565945507, 0.5402074892923218, 0.042707419646558324, 0.9323351135393435, -0.7397928024003525, -0.4223958460437645, -0.5390323094570838, -0.44704406346367015, -0.13568326359544475, -0.1483146905504716]
[-0.6009250383072186, -0.23270699305951864, 0.21821296999459835, -0.36896149378103693, -0.38884674345400244, -0.45636956625287267, 0.3432241191301103, 0.21045880752665178, 0.3883729043128255, 0.03058168684342013]
[0.39187479600940744, 0.03556960375407549, -0.05180517756166479, -0.31843144107018345, -0.1685888777279463, -0.3879327159933694, -0.04957547571928568, -0.1935173909582516, 0.22495974607449493, 0.2605316352967734]
[0.059354380080404015, 0.21530774920087656, 0.03486867381691593, -0.16883903637174258, -0.21842993818669545, -0.2033599260073128, 0.34608740117177833, -0.03560083465650727, 0.012795485270481513, -0.24283728690657505]
[-0.5886972874208353, 0.5397513283981663, 0.28005403915825267, -0.5345227707446938, -0.08115292625732357, 0.17276981508654513, 0.14468858172014215, 0.4425116918883215, -0.2977711911538097, -0.17188408431466956]
[-0.06894301921700799, -0.8059777865876387, 0.061188473840197696, 0.18873799320932666, 0.4272288608014957, 0.321266633914427, 0.07238266385307994, 0.3521678675085296, 0.10454238036398694, 0.46705256149074725]
[0.2273175057329303, -0.2914460528406653, 0.04077990272555366, -0.6369284461443796, 0.15150019885823174, -0.14221423225863938, -0.2286214797547923, -0.4495465894020481, 0.39280872718733517, -0.5209534248054956]
[-0.5849747145418748, 0.4927631455739087, 0.4015506552559108, -0.5895909808066945, -0.05328343192166199, -0.1577710795322232, 0.23003142477245525, 0.13433496827209113, 0.2849477342129006, -0.5391552103067607]
[0.44020703270638184, 0.21673547456448128, 0.3186651821278196, 0.15315897077799503, -0.943987252027686, -0.15355134596002282, -0.31146292305753587, 0.28627537202414305, -0.10718627619656487, 0.3502588778076851]
[-0.11474597144259945, -0.06880147399822817, -0.4952860998142995, 0.08841499813273682, -0.5187644344682966, 0.3581470369572609, -0.2934200376783544, 0.6241505821752084, 0.08347899432801908, 0.2722169620209094]
[-0.2647573612521234, -0.22353972580691978, 0.23315594482071994, 0.15771546715337076, 0.10426854103328165, -0.3994777370475545, -0.0794637178187637, 0.3373390213252126, -0.5792573669107154, 0.035520389058147916]
[-0.09276141983766002, -0.17735541073960925, -0.11465186848818512, -0.10506540030644727, -0.129596088313966, -0.028946710729043864, -0.15701293794132598, -0.030338718073538152, -0.21366434646682886, -0.1842246852656438]
